network "HLCM16048" {
}

variable "SFH" {
	type discrete[3] { "0" "1" "2" };
}

variable "popUpWidnow" {
	type discrete[3] { "0" "1" "2" };
}

variable "SSLfinal_State" {
	type discrete[3] { "0" "1" "2" };
}

variable "Request_URL" {
	type discrete[3] { "0" "1" "2" };
}

variable "URL_of_Anchor" {
	type discrete[3] { "0" "1" "2" };
}

variable "web_traffic" {
	type discrete[3] { "0" "1" "2" };
}

variable "URL_Length" {
	type discrete[3] { "0" "1" "2" };
}

variable "age_of_domain" {
	type discrete[2] { "0" "1" };
}

variable "having_IP_Address" {
	type discrete[2] { "0" "1" };
}

variable "Result" {
	type discrete[3] { "0" "1" "2" };
}

variable "variable12" {
	type discrete[2] { "state0" "state1" };
}

variable "variable33" {
	type discrete[3] { "state0" "state1" "state2" };
}

variable "variable40" {
	type discrete[4] { "state0" "state1" "state2" "state3" };
}

variable "variable55" {
	type discrete[4] { "state0" "state1" "state2" "state3" };
}

variable "variable70" {
	type discrete[3] { "state0" "state1" "state2" };
}

probability ("SFH" | "variable33") {
	("state0") 0.9200193990466259 0.07853731468175716 0.0014432862716169754;
	("state1") 0.129543912446392 0.8600809575578424 0.010375129995765604;
	("state2") 9.995783746303831E-12 3.629516321142246E-120 0.9999999999900042;
}

probability ("popUpWidnow" | "variable55") {
	("state0") 0.10062342915218023 0.6430925618885074 0.2562840089593122;
	("state1") 0.5231848500504526 0.4768151499495475 0.0;
	("state2") 0.9875806360922833 0.012419363907716658 1.1136154729972982E-45;
	("state3") 0.7236473232879765 0.27635267671202335 0.0;
}

probability ("SSLfinal_State" | "variable55") {
	("state0") 0.8396379729353007 0.1009118285277292 0.05945019853697015;
	("state1") 0.026084681279239793 0.9739153175771487 1.1436114969598567E-9;
	("state2") 0.2631408759972676 5.730600180191137E-143 0.7368591240027325;
	("state3") 0.4488138782514091 4.741899754636993E-40 0.5511861217485908;
}

probability ("Request_URL" | "variable40") {
	("state0") 3.762908564850433E-49 0.924557813465957 0.07544218653404303;
	("state1") 0.4318989172216953 2.5275677460774986E-13 0.5681010827780519;
	("state2") 0.0 1.0 0.0;
	("state3") 0.7352257395740772 0.24205473915384929 0.02271952127207344;
}

probability ("URL_of_Anchor" | "variable40") {
	("state0") 0.6614292437552276 0.3385659912654333 4.7649793390609235E-6;
	("state1") 1.7075111260132277E-33 0.08960857524440229 0.9103914247555976;
	("state2") 0.0 0.32254528916006836 0.6774547108399317;
	("state3") 0.8902598096914451 0.03753818600365765 0.07220200430489715;
}

probability ("web_traffic" | "variable12") {
	("state0") 2.190115174551113E-10 0.37346237465122184 0.6265376251297667;
	("state1") 0.6899913124866953 0.3100086875133047 0.0;
}

probability ("URL_Length" | "variable70") {
	("state0") 0.06533233538916526 0.46995538798111414 0.46471227662972053;
	("state1") 0.33726389352317865 0.24178622117938453 0.42094988529743693;
	("state2") 0.9999999805724948 1.9427505084545083E-8 5.070494196058033E-49;
}

probability ("age_of_domain" | "variable12") {
	("state0") 1.0 5.519542288737288E-258;
	("state1") 0.1843992961784326 0.8156007038215675;
}

probability ("having_IP_Address" | "variable70") {
	("state0") 1.0 2.3868959372975512E-32;
	("state1") 0.8688860711454882 0.13111392885451187;
	("state2") 0.01878465234782397 0.981215347652176;
}

probability ("Result" | "variable55") {
	("state0") 0.06158417485171874 1.1836221859844453E-284 0.9384158251482813;
	("state1") 0.0 1.0 3.3912544568768603E-277;
	("state2") 4.94199000729887E-187 0.4049961584039171 0.5950038415960829;
	("state3") 0.18707546007536557 0.8129245399245555 7.901653359267411E-14;
}

probability ("variable12" | "variable70") {
	("state0") 0.3089021485132803 0.6910978514867196;
	("state1") 0.6623993521436006 0.33760064785639937;
	("state2") 0.38757086863036794 0.612429131369632;
}

probability ("variable33" | "variable70") {
	("state0") 0.05536431970896329 0.7429312997667651 0.2017043805242717;
	("state1") 0.9190529647547696 0.050098519520557196 0.030848515724673224;
	("state2") 0.15061528535268404 0.5895594570527553 0.2598252575945608;
}

probability ("variable40" | "variable33") {
	("state0") 0.22726979353347287 0.5841980073147869 8.351644573304997E-9 0.1885321908000957;
	("state1") 8.431097047568992E-54 0.08724196129263735 6.436627546947604E-76 0.9127580387073626;
	("state2") 7.129570235040859E-272 0.0 1.0 3.3162209672094745E-84;
}

probability ("variable55" | "variable33") {
	("state0") 0.8919754123207724 2.49973534310501E-90 0.10802458767922767 1.4471913844570163E-53;
	("state1") 1.9051352247002147E-46 0.37747420327422276 0.03902499173435852 0.5835008049914188;
	("state2") 0.0 0.5891096141247065 3.0340188266620237E-186 0.41089038587529353;
}

probability ("variable70") {
	table 0.3670426154041375 0.5973016822893452 0.035655702306517295;
}

