network "HLCM9249" {
}

variable "SFH" {
	type discrete[3] { "0" "1" "2" };
}

variable "popUpWidnow" {
	type discrete[3] { "0" "1" "2" };
}

variable "SSLfinal_State" {
	type discrete[3] { "0" "1" "2" };
}

variable "Request_URL" {
	type discrete[3] { "0" "1" "2" };
}

variable "URL_of_Anchor" {
	type discrete[3] { "0" "1" "2" };
}

variable "web_traffic" {
	type discrete[3] { "0" "1" "2" };
}

variable "URL_Length" {
	type discrete[3] { "0" "1" "2" };
}

variable "age_of_domain" {
	type discrete[2] { "0" "1" };
}

variable "having_IP_Address" {
	type discrete[2] { "0" "1" };
}

variable "Result" {
	type discrete[3] { "0" "1" "2" };
}

variable "variable12" {
	type discrete[2] { "state0" "state1" };
}

variable "variable19" {
	type discrete[2] { "state0" "state1" };
}

variable "variable23" {
	type discrete[3] { "state0" "state1" "state2" };
}

variable "variable33" {
	type discrete[4] { "state0" "state1" "state2" "state3" };
}

variable "variable39" {
	type discrete[3] { "state0" "state1" "state2" };
}

variable "variable45" {
	type discrete[3] { "state0" "state1" "state2" };
}

probability ("SFH" | "variable23") {
	("state0") 0.13812862523449798 0.8494190611202773 0.012452313645224788;
	("state1") 0.9219976266007991 0.07504359866121588 0.0029587747379849908;
	("state2") 1.6921110239902887E-51 1.3698707834072424E-208 1.0;
}

probability ("popUpWidnow" | "variable39") {
	("state0") 0.5304250672057449 0.46957493279425505 0.0;
	("state1") 0.0856332757215088 0.626882945645677 0.28748377863281416;
	("state2") 0.7706638187253987 0.2293361812746014 3.375093046508249E-135;
}

probability ("SSLfinal_State" | "variable39") {
	("state0") 0.06403861304316513 0.9196898177504624 0.016271569206372363;
	("state1") 0.8482589675474548 0.10330215169118212 0.048438880761363115;
	("state2") 0.4112881024005934 3.5706961151469567E-20 0.5887118975994067;
}

probability ("Request_URL" | "variable33") {
	("state0") 3.615946441204165E-39 0.9173532603735937 0.08264673962640634;
	("state1") 0.0 1.0 0.0;
	("state2") 0.4340641723819612 2.1971186820133997E-12 0.5659358276158417;
	("state3") 0.7383862406392635 0.22263516105652853 0.038978598304207905;
}

probability ("URL_of_Anchor" | "variable33") {
	("state0") 0.6665820099921101 0.333394306841864 2.3683166025880842E-5;
	("state1") 0.0 0.31326575595246214 0.6867342440475378;
	("state2") 3.403506755710454E-23 0.09805075859469517 0.9019492414053047;
	("state3") 0.8978556278169951 0.03619259025551976 0.06595178192748513;
}

probability ("web_traffic" | "variable12") {
	("state0") 2.279335941748377E-7 0.37900279420018734 0.6209969778662184;
	("state1") 0.6850397215921344 0.3149602784078655 0.0;
}

probability ("URL_Length" | "variable19") {
	("state0") 0.47477685521627183 0.17060868177373206 0.3546144630099961;
	("state1") 1.2815633197938369E-22 0.49769740815130786 0.5023025918486921;
}

probability ("age_of_domain" | "variable12") {
	("state0") 1.0 8.679283778625777E-210;
	("state1") 0.186835351175243 0.813164648824757;
}

probability ("having_IP_Address" | "variable19") {
	("state0") 0.7941631988461101 0.20583680115388994;
	("state1") 1.0 2.79863026055558E-107;
}

probability ("Result" | "variable45") {
	("state0") 0.05722133318892972 7.829915011991403E-134 0.9427786668110701;
	("state1") 0.16267851665733887 0.8110401702208659 0.026281313121795172;
	("state2") 0.0045947462009607335 0.9954052537990392 3.551840989311269E-110;
}

probability ("variable12" | "variable23") {
	("state0") 0.3333730286497046 0.6666269713502954;
	("state1") 0.6489775008269126 0.3510224991730873;
	("state2") 0.39604178153120373 0.6039582184687963;
}

probability ("variable19" | "variable39") {
	("state0") 0.3073585291897174 0.6926414708102826;
	("state1") 0.8149725843350133 0.18502741566498676;
	("state2") 0.3004981443345518 0.6995018556654481;
}

probability ("variable23" | "variable45") {
	("state0") 6.792960619151019E-44 1.0 0.0;
	("state1") 0.7778077857106758 0.09008052833605486 0.13211168595326941;
	("state2") 0.6785980048764642 1.0391983131709828E-43 0.32140199512353584;
}

probability ("variable33" | "variable23") {
	("state0") 3.2809462098680406E-41 3.53184914931884E-31 0.10032726494069028 0.8996727350593097;
	("state1") 0.2273700007835385 0.0011814104545205416 0.5895901827292036 0.18185840603273729;
	("state2") 3.9172491371109386E-238 1.0 0.0 3.147435443010344E-116;
}

probability ("variable39") {
	table 0.19329431504779715 0.4781089226127663 0.32859676233943663;
}

probability ("variable45" | "variable39") {
	("state0") 1.8030514315703554E-19 3.2033945610087325E-8 0.9999999679660544;
	("state1") 0.999999999998742 4.346187742519582E-23 1.2580775877986003E-12;
	("state2") 0.1963479914449219 0.8036393293653201 1.267918975787109E-5;
}

