network "HLCM13395" {
}

variable "SFH" {
	type discrete[3] { "0" "1" "2" };
}

variable "popUpWidnow" {
	type discrete[3] { "0" "1" "2" };
}

variable "SSLfinal_State" {
	type discrete[3] { "0" "1" "2" };
}

variable "Request_URL" {
	type discrete[3] { "0" "1" "2" };
}

variable "URL_of_Anchor" {
	type discrete[3] { "0" "1" "2" };
}

variable "web_traffic" {
	type discrete[3] { "0" "1" "2" };
}

variable "URL_Length" {
	type discrete[3] { "0" "1" "2" };
}

variable "age_of_domain" {
	type discrete[2] { "0" "1" };
}

variable "having_IP_Address" {
	type discrete[2] { "0" "1" };
}

variable "Result" {
	type discrete[3] { "0" "1" "2" };
}

variable "variable12" {
	type discrete[2] { "state0" "state1" };
}

variable "variable27" {
	type discrete[4] { "state0" "state1" "state2" "state3" };
}

variable "variable36" {
	type discrete[3] { "state0" "state1" "state2" };
}

variable "variable39" {
	type discrete[4] { "state0" "state1" "state2" "state3" };
}

variable "variable59" {
	type discrete[3] { "state0" "state1" "state2" };
}

probability ("SFH" | "variable39") {
	("state0") 0.007175969956728958 0.9928240300432711 3.9640741058589385E-104;
	("state1") 6.885256720466008E-233 4.3309816697916727E-106 1.0;
	("state2") 0.3749789642011487 0.6021589370740447 0.022862098724806754;
	("state3") 0.9208890147193856 0.07604842807316783 0.003062557207446578;
}

probability ("popUpWidnow" | "variable36") {
	("state0") 0.539974847427695 0.4600251525723051 0.0;
	("state1") 0.8872611841406733 0.11273881585932662 6.865735209526251E-118;
	("state2") 0.08126319509875055 0.6428788972706644 0.2758579076305852;
}

probability ("SSLfinal_State" | "variable36") {
	("state0") 0.15767163624681124 0.6292128629537556 0.21311550079943326;
	("state1") 0.4357306724131308 1.1522716463264954E-37 0.5642693275868691;
	("state2") 0.8386952651517782 0.10581065454878648 0.05549408029943526;
}

probability ("Request_URL" | "variable27") {
	("state0") 6.917668634152208E-55 0.943294447587911 0.05670555241208904;
	("state1") 0.0 1.0 0.0;
	("state2") 0.7372327857332913 0.22218295080419945 0.04058426346250921;
	("state3") 0.4281644875162445 1.6632768760248638E-55 0.5718355124837555;
}

probability ("URL_of_Anchor" | "variable27") {
	("state0") 0.6939786082582128 0.3060213917417872 5.356096855216574E-70;
	("state1") 0.0 0.31947244399310804 0.680527556006892;
	("state2") 0.8893237126921282 0.03824758283516566 0.07242870447270613;
	("state3") 7.610402946336469E-22 0.1071589053754097 0.8928410946245904;
}

probability ("web_traffic" | "variable12") {
	("state0") 0.692602176193459 0.30739782380654096 0.0;
	("state1") 4.038269847749257E-18 0.37701794322399357 0.6229820567760065;
}

probability ("URL_Length" | "variable59") {
	("state0") 1.0 2.0783058188516574E-111 1.1861873625758204E-40;
	("state1") 0.08336683198351684 0.45569104778947744 0.46094212022700587;
	("state2") 0.3529815681893331 0.2244694636472184 0.42254896816344856;
}

probability ("age_of_domain" | "variable12") {
	("state0") 0.1792664212107508 0.8207335787892492;
	("state1") 1.0 2.3889075721255446E-255;
}

probability ("having_IP_Address" | "variable59") {
	("state0") 5.3072414626472437E-8 0.9999999469275853;
	("state1") 1.0 5.290858948944226E-40;
	("state2") 0.8416071971323698 0.15839280286763033;
}

probability ("Result" | "variable39") {
	("state0") 0.010701248659960217 0.9892987513400398 1.9448592448349184E-96;
	("state1") 0.08881809014072124 0.9111819098592787 0.0;
	("state2") 0.18756955385222657 0.744234568713791 0.06819587743398246;
	("state3") 0.04603557521724443 2.3705759579749594E-185 0.9539644247827556;
}

probability ("variable12" | "variable59") {
	("state0") 0.6412726101344459 0.358727389865554;
	("state1") 0.649797244390346 0.3502027556096539;
	("state2") 0.31989926489069953 0.6801007351093005;
}

probability ("variable27" | "variable39") {
	("state0") 2.5201385960599195E-24 5.309591161975047E-91 0.9528383307285713 0.047161669271428744;
	("state1") 2.722698826555016E-190 1.0 9.775195857565274E-124 0.0;
	("state2") 2.585442742293663E-46 0.01590635543135898 0.7856430959485433 0.19845054862009764;
	("state3") 0.24509041114251556 1.0454091378615444E-42 0.16928755408718263 0.5856220347703017;
}

probability ("variable36" | "variable59") {
	("state0") 0.8749215532795416 4.654840940222574E-11 0.12507844667390994;
	("state1") 0.5643878422224174 0.3790597839257133 0.05655237385186912;
	("state2") 3.6218128653978473E-4 0.1356095453001309 0.8640282734133294;
}

probability ("variable39" | "variable36") {
	("state0") 0.6426773560591732 0.3242322643053501 0.033090379635468854 7.753058457924935E-15;
	("state1") 1.0601923662307274E-8 0.03291965006291002 0.7537112865754102 0.2133690527597562;
	("state2") 2.1484874729227738E-44 0.007621280116591841 1.5809226623142476E-10 0.9923787197253158;
}

probability ("variable59") {
	table 0.034864263722052286 0.4336509992709895 0.5314847370069582;
}

