network "HLCM10345" {
}

variable "SFH" {
	type discrete[3] { "0" "1" "2" };
}

variable "popUpWidnow" {
	type discrete[3] { "0" "1" "2" };
}

variable "SSLfinal_State" {
	type discrete[3] { "0" "1" "2" };
}

variable "Request_URL" {
	type discrete[3] { "0" "1" "2" };
}

variable "URL_of_Anchor" {
	type discrete[3] { "0" "1" "2" };
}

variable "web_traffic" {
	type discrete[3] { "0" "1" "2" };
}

variable "URL_Length" {
	type discrete[3] { "0" "1" "2" };
}

variable "age_of_domain" {
	type discrete[2] { "0" "1" };
}

variable "having_IP_Address" {
	type discrete[2] { "0" "1" };
}

variable "Result" {
	type discrete[3] { "0" "1" "2" };
}

variable "variable12" {
	type discrete[2] { "state0" "state1" };
}

variable "variable27" {
	type discrete[4] { "state0" "state1" "state2" "state3" };
}

variable "variable36" {
	type discrete[3] { "state0" "state1" "state2" };
}

variable "variable39" {
	type discrete[4] { "state0" "state1" "state2" "state3" };
}

probability ("SFH" | "variable39") {
	("state0") 0.9227848838099637 0.07413489966454401 0.00308021652549222;
	("state1") 9.346276902317585E-148 1.1437538478341559E-51 1.0;
	("state2") 5.0204409971203E-6 0.999994979559003 1.0034839933998603E-72;
	("state3") 0.3735727713682205 0.6124629922579743 0.013964236373805054;
}

probability ("popUpWidnow" | "variable36") {
	("state0") 0.5421292339487142 0.4578707660512859 0.0;
	("state1") 0.06620668194677672 0.6547348650077492 0.27905845304547405;
	("state2") 0.9030421196936953 0.09695788030630478 4.941430200017502E-47;
}

probability ("SSLfinal_State" | "variable36") {
	("state0") 0.15375128196899202 0.6081345058105505 0.2381142122204575;
	("state1") 0.8337124287286357 0.10669715445560034 0.05959041681576404;
	("state2") 0.4562134656681398 4.2268569724249845E-10 0.5437865339091745;
}

probability ("Request_URL" | "variable27") {
	("state0") 0.7365651416681582 0.22327267458144476 0.04016218375039701;
	("state1") 1.2408249920884122E-16 0.943440178172915 0.056559821827084716;
	("state2") 0.4253088857634395 4.24295725744594E-33 0.5746911142365604;
	("state3") 3.070769615633767E-272 1.0 1.2961627482412984E-282;
}

probability ("URL_of_Anchor" | "variable27") {
	("state0") 0.8950573256645893 0.03350441253098345 0.07143826180442729;
	("state1") 0.7025378632805659 0.29746213671943406 5.883702591007699E-38;
	("state2") 1.7394231089989235E-6 0.09966825951569966 0.9003300010611913;
	("state3") 4.978822684463634E-293 0.3173164757780924 0.6826835242219075;
}

probability ("web_traffic" | "variable12") {
	("state0") 1.509940499567298E-4 0.38086201785593476 0.6189869880941086;
	("state1") 0.6706847486976665 0.3293152513023335 4.3052423566776545E-158;
}

probability ("URL_Length" | "variable36") {
	("state0") 0.14899316760110673 0.34331111254218366 0.5076957198567096;
	("state1") 0.3662845355384004 0.2108910521259842 0.42282441233561535;
	("state2") 0.23267697584377622 0.5032713025150173 0.26405172164120655;
}

probability ("age_of_domain" | "variable12") {
	("state0") 1.0 1.5003834231732104E-84;
	("state1") 0.1894603299605318 0.8105396700394683;
}

probability ("having_IP_Address" | "variable12") {
	("state0") 0.8573867120981352 0.1426132879018647;
	("state1") 0.9206829356713356 0.07931706432866446;
}

probability ("Result" | "variable39") {
	("state0") 0.054692863554933656 3.8663763996835464E-95 0.9453071364450664;
	("state1") 0.11547852855056175 0.8845214714494383 0.0;
	("state2") 0.004643100926876354 0.9953568990731236 3.750192327730848E-49;
	("state3") 0.18138803367681103 0.748279550429608 0.07033241589358094;
}

probability ("variable12" | "variable39") {
	("state0") 0.6555460096266186 0.3444539903733815;
	("state1") 0.3851154252947041 0.614884574705296;
	("state2") 0.32053544630808456 0.6794645536919155;
	("state3") 0.4201231134309658 0.5798768865690342;
}

probability ("variable27" | "variable39") {
	("state0") 0.17533731086319176 0.22979499644696266 0.5948676926898456 3.570239453821879E-27;
	("state1") 1.1491066403154114E-67 4.270374254248203E-102 0.0 1.0;
	("state2") 0.959735409805552 1.3534434651379295E-13 0.04026459019431258 1.1450999583741873E-48;
	("state3") 0.7638536505702798 3.453011526332481E-22 0.21954430446122553 0.01660204496849458;
}

probability ("variable36" | "variable39") {
	("state0") 2.951132526949891E-9 0.9098546300904548 0.09014536695841263;
	("state1") 0.9540455335672362 3.7078775259721527E-28 0.04595446643276377;
	("state2") 0.9999574359575778 4.9131908407626584E-37 4.256404242223032E-5;
	("state3") 0.10636717614898589 3.754739490274099E-15 0.8936328238510103;
}

probability ("variable39") {
	table 0.5335430462438817 0.09924770525426904 0.18408842246836146 0.18312082603348778;
}

