network "HLCM14074" {
}

variable "SFH" {
	type discrete[3] { "0" "1" "2" };
}

variable "popUpWidnow" {
	type discrete[3] { "0" "1" "2" };
}

variable "SSLfinal_State" {
	type discrete[3] { "0" "1" "2" };
}

variable "Request_URL" {
	type discrete[3] { "0" "1" "2" };
}

variable "URL_of_Anchor" {
	type discrete[3] { "0" "1" "2" };
}

variable "web_traffic" {
	type discrete[3] { "0" "1" "2" };
}

variable "URL_Length" {
	type discrete[3] { "0" "1" "2" };
}

variable "age_of_domain" {
	type discrete[2] { "0" "1" };
}

variable "having_IP_Address" {
	type discrete[2] { "0" "1" };
}

variable "Result" {
	type discrete[3] { "0" "1" "2" };
}

variable "variable12" {
	type discrete[2] { "state0" "state1" };
}

variable "variable23" {
	type discrete[3] { "state0" "state1" "state2" };
}

variable "variable33" {
	type discrete[4] { "state0" "state1" "state2" "state3" };
}

variable "variable39" {
	type discrete[3] { "state0" "state1" "state2" };
}

variable "variable42" {
	type discrete[3] { "state0" "state1" "state2" };
}

variable "variable52" {
	type discrete[3] { "state0" "state1" "state2" };
}

probability ("SFH" | "variable23") {
	("state0") 0.1417983293677485 0.8453899151839072 0.01281175544834435;
	("state1") 0.9199416438321123 0.0771567977787426 0.0029015583891451122;
	("state2") 0.0 2.34193143465552E-43 1.0;
}

probability ("popUpWidnow" | "variable39") {
	("state0") 0.4965657684011029 0.5034342315988972 0.0;
	("state1") 0.0676964724444171 0.6536164757966975 0.27868705175888536;
	("state2") 0.808789755079889 0.19121024492011096 1.4448807503051539E-195;
}

probability ("SSLfinal_State" | "variable39") {
	("state0") 0.10900374861138239 0.8140330730091092 0.07696317837950836;
	("state1") 0.8430358339759813 0.10469259470489795 0.05227157131912067;
	("state2") 0.4174026081360333 1.5961470033809283E-48 0.5825973918639666;
}

probability ("Request_URL" | "variable33") {
	("state0") 1.5598865526904061E-52 0.9676360610967359 0.032363938903264014;
	("state1") 0.4176140568378486 8.160607837758075E-121 0.5823859431621514;
	("state2") 0.0 1.0 0.0;
	("state3") 0.7442797610250168 0.2118997072107233 0.04382053176425993;
}

probability ("URL_of_Anchor" | "variable33") {
	("state0") 0.7117999669243174 0.28820003307568254 3.036325940028153E-150;
	("state1") 1.3224159198853472E-30 0.10233636406208758 0.8976636359379124;
	("state2") 0.0 0.325023507739059 0.6749764922609409;
	("state3") 0.8992982485560933 0.038895007309041024 0.06180674413486566;
}

probability ("web_traffic" | "variable12") {
	("state0") 0.0010820025068649344 0.36448062750829824 0.6344373699848368;
	("state1") 0.6816160400217605 0.31838395997823954 0.0;
}

probability ("URL_Length" | "variable42") {
	("state0") 0.06489114014075313 0.4966010817148451 0.4385077781444016;
	("state1") 0.34288459643306857 0.23181487531409273 0.4253005282528387;
	("state2") 1.0 1.4059545229864592E-120 1.3159399121428805E-88;
}

probability ("age_of_domain" | "variable12") {
	("state0") 1.0 1.3239022276654285E-307;
	("state1") 0.18544439190275747 0.8145556080972426;
}

probability ("having_IP_Address" | "variable42") {
	("state0") 1.0 1.3907729379407438E-52;
	("state1") 0.8637402688337085 0.1362597311662916;
	("state2") 6.7682718635536046E-9 0.9999999932317281;
}

probability ("Result" | "variable52") {
	("state0") 0.0055910557316755476 0.9944089442683244 1.2933718315387055E-183;
	("state1") 0.17749444966781094 0.7763770843563184 0.04612846597587078;
	("state2") 0.055834327643498376 4.755045162395619E-229 0.9441656723565015;
}

probability ("variable12" | "variable42") {
	("state0") 0.2746815418016339 0.725318458198366;
	("state1") 0.6855073496738044 0.31449265032619556;
	("state2") 0.30714707953002646 0.6928529204699735;
}

probability ("variable23" | "variable42") {
	("state0") 0.7292110716847432 0.08662987115850986 0.18415905715674694;
	("state1") 0.060917411307398354 0.9004388099465606 0.038643778746041135;
	("state2") 0.5815598377859705 0.1391367783619947 0.2793033838520348;
}

probability ("variable33" | "variable23") {
	("state0") 5.580532940056826E-47 0.09853256933833182 1.3345805687688724E-24 0.9014674306616681;
	("state1") 0.21308412567206958 0.6086214832821701 5.913286320090991E-99 0.17829439104576028;
	("state2") 0.0 0.0 1.0 1.927165875423271E-139;
}

probability ("variable39" | "variable52") {
	("state0") 0.9999999920380549 6.566540489553117E-25 7.96194514990015E-9;
	("state1") 1.0253007220831607E-8 3.8920750058467434E-45 0.9999999897469928;
	("state2") 1.4139763340777874E-49 0.8874976222934793 0.11250237770652066;
}

probability ("variable42") {
	table 0.3703652834187805 0.5949371449848201 0.03469757159639948;
}

probability ("variable52" | "variable23") {
	("state0") 0.4121669812266977 0.5878330187733023 8.55622875143157E-49;
	("state1") 8.319962877274015E-73 0.04349222377575833 0.9565077762242417;
	("state2") 0.6557045451717499 0.3442954548282501 0.0;
}

