network "HLCM8021" {
}

variable "SFH" {
	type discrete[3] { "0" "1" "2" };
}

variable "popUpWidnow" {
	type discrete[3] { "0" "1" "2" };
}

variable "SSLfinal_State" {
	type discrete[3] { "0" "1" "2" };
}

variable "Request_URL" {
	type discrete[3] { "0" "1" "2" };
}

variable "URL_of_Anchor" {
	type discrete[3] { "0" "1" "2" };
}

variable "web_traffic" {
	type discrete[3] { "0" "1" "2" };
}

variable "URL_Length" {
	type discrete[3] { "0" "1" "2" };
}

variable "age_of_domain" {
	type discrete[2] { "0" "1" };
}

variable "having_IP_Address" {
	type discrete[2] { "0" "1" };
}

variable "Result" {
	type discrete[3] { "0" "1" "2" };
}

variable "variable12" {
	type discrete[2] { "state0" "state1" };
}

variable "variable29" {
	type discrete[4] { "state0" "state1" "state2" "state3" };
}

variable "variable36" {
	type discrete[3] { "state0" "state1" "state2" };
}

variable "variable38" {
	type discrete[4] { "state0" "state1" "state2" "state3" };
}

probability ("SFH" | "variable38") {
	("state0") 0.35212890275731856 0.6247225970012351 0.023148500241446286;
	("state1") 3.801523365552365E-126 2.735531451968633E-44 1.0;
	("state2") 0.9202238470598572 0.07676562075014262 0.003010532190000189;
	("state3") 0.04094648641147732 0.9590535135885228 4.357826816878126E-90;
}

probability ("popUpWidnow" | "variable36") {
	("state0") 0.8673897794631269 0.13261022053687302 1.9876064096836867E-88;
	("state1") 0.07552517166560316 0.6475029706389445 0.2769718576954523;
	("state2") 0.5090191254276255 0.49098087457237455 0.0;
}

probability ("SSLfinal_State" | "variable36") {
	("state0") 0.4626536202405707 8.385732485922127E-12 0.5373463797510435;
	("state1") 0.8350794295835742 0.10843539631694074 0.056485174099485135;
	("state2") 0.1328693276965102 0.6644588445372094 0.20267182776628034;
}

probability ("Request_URL" | "variable29") {
	("state0") 0.717557614148459 0.24067694794602376 0.04176543790551732;
	("state1") 0.0 1.0 0.0;
	("state2") 9.366287326326591E-35 0.9823091249239807 0.017690875076019363;
	("state3") 0.43471566548864116 6.927431883790342E-91 0.5652843345113587;
}

probability ("URL_of_Anchor" | "variable29") {
	("state0") 0.9143464227115339 0.03175806506754588 0.053895512220920275;
	("state1") 0.0 0.33232918179761883 0.6676708182023811;
	("state2") 0.6900680932939536 0.3099319067060465 7.089019252682052E-126;
	("state3") 4.6931498803583143E-17 0.10763665935922223 0.8923633406407777;
}

probability ("web_traffic" | "variable12") {
	("state0") 2.0952135454660715E-12 0.38053758990164666 0.6194624100962581;
	("state1") 0.680080583682272 0.31991941631772797 0.0;
}

probability ("URL_Length" | "variable36") {
	("state0") 0.2212337064956063 0.5013417225601123 0.27742457094428125;
	("state1") 0.36005947955967743 0.21618673532006993 0.4237537851202528;
	("state2") 0.1598870871159543 0.34933550239586986 0.4907774104881757;
}

probability ("age_of_domain" | "variable12") {
	("state0") 1.0 3.7608231867187E-176;
	("state1") 0.188120853585753 0.811879146414247;
}

probability ("having_IP_Address" | "variable12") {
	("state0") 0.8570649762700814 0.1429350237299187;
	("state1") 0.9187376691049932 0.08126233089500676;
}

probability ("Result" | "variable38") {
	("state0") 0.19169285768747138 0.7421830078933979 0.06612413441913086;
	("state1") 0.10390125086510123 0.8960987491348987 0.0;
	("state2") 0.057024396779349576 1.2062050654936914E-80 0.9429756032206503;
	("state3") 0.010206873659853647 0.9897931263401464 4.068276078725586E-45;
}

probability ("variable12" | "variable38") {
	("state0") 0.4066148383650987 0.5933851616349013;
	("state1") 0.4214359791987136 0.5785640208012864;
	("state2") 0.6602807764793608 0.33971922352063927;
	("state3") 0.33158032236911483 0.6684196776308852;
}

probability ("variable29" | "variable38") {
	("state0") 0.7732028944575505 0.0193181796500184 5.015587756817409E-21 0.2074789258924311;
	("state1") 1.2419187487129843E-81 1.0 2.397436644414022E-94 0.0;
	("state2") 0.16949941369581284 4.321700840518215E-42 0.22871068765932093 0.6017898986448662;
	("state3") 0.9070350907570192 9.412053334633202E-46 1.5262935484503594E-18 0.09296490924298079;
}

probability ("variable36") {
	table 0.24473217229731173 0.49206803713546227 0.26319979056722603;
}

probability ("variable38" | "variable36") {
	("state0") 0.7535560780279617 0.03293903487446228 0.21339441952656554 1.1046757101041072E-4;
	("state1") 3.8562729798715907E-13 8.368860803764227E-11 0.9999999999159258 1.5818375512089916E-36;
	("state2") 1.391183120393484E-4 0.3274868539479226 6.321510516104356E-16 0.6723740277400374;
}

