network "HLCM8496" {
}

variable "SFH" {
	type discrete[3] { "0" "1" "2" };
}

variable "popUpWidnow" {
	type discrete[3] { "0" "1" "2" };
}

variable "SSLfinal_State" {
	type discrete[3] { "0" "1" "2" };
}

variable "Request_URL" {
	type discrete[3] { "0" "1" "2" };
}

variable "URL_of_Anchor" {
	type discrete[3] { "0" "1" "2" };
}

variable "web_traffic" {
	type discrete[3] { "0" "1" "2" };
}

variable "URL_Length" {
	type discrete[3] { "0" "1" "2" };
}

variable "age_of_domain" {
	type discrete[2] { "0" "1" };
}

variable "having_IP_Address" {
	type discrete[2] { "0" "1" };
}

variable "Result" {
	type discrete[3] { "0" "1" "2" };
}

variable "variable12" {
	type discrete[2] { "state0" "state1" };
}

variable "variable19" {
	type discrete[2] { "state0" "state1" };
}

variable "variable23" {
	type discrete[3] { "state0" "state1" "state2" };
}

variable "variable33" {
	type discrete[4] { "state0" "state1" "state2" "state3" };
}

variable "variable39" {
	type discrete[3] { "state0" "state1" "state2" };
}

probability ("SFH" | "variable23") {
	("state0") 0.1903365591279918 0.7982099417050288 0.011453499166979377;
	("state1") 5.892681794006625E-35 2.7725398277725418E-34 1.0;
	("state2") 0.9206222805079736 0.07783411900500078 0.0015436004870256809;
}

probability ("popUpWidnow" | "variable39") {
	("state0") 0.8841359302434145 0.11586406975658556 7.76792849381205E-52;
	("state1") 0.05874052574180144 0.6554878373885357 0.28577163686966295;
	("state2") 0.5297451649182104 0.47025483508178945 8.621779924380818E-208;
}

probability ("SSLfinal_State" | "variable39") {
	("state0") 0.49633509455574193 3.9236024713383525E-8 0.5036648662082333;
	("state1") 0.8380429453429099 0.1129089746004701 0.049048080056620126;
	("state2") 0.10629774547229237 0.6583487294434721 0.23535352508423538;
}

probability ("Request_URL" | "variable33") {
	("state0") 0.731325716083666 0.22951246758834704 0.039161816327986834;
	("state1") 0.4320741634041085 1.2550344290265778E-9 0.567925835340857;
	("state2") 7.081826721973883E-23 0.9274660782618561 0.07253392173814384;
	("state3") 0.0 1.0 0.0;
}

probability ("URL_of_Anchor" | "variable33") {
	("state0") 0.889073032862752 0.03467387983467952 0.07625308730256854;
	("state1") 1.4763042350967397E-11 0.10425452266703754 0.8957454773181994;
	("state2") 0.6751480937822656 0.3248517110410713 1.9517666311548195E-7;
	("state3") 0.0 0.30571369600566917 0.6942863039943308;
}

probability ("web_traffic" | "variable12") {
	("state0") 0.6811892211618022 0.31881077883819764 3.551898355797587E-110;
	("state1") 1.730455565326662E-5 0.38158160719915546 0.6184010882451914;
}

probability ("URL_Length" | "variable19") {
	("state0") 0.47825132827900246 0.16563038779892594 0.35611828392207157;
	("state1") 2.554010440235323E-6 0.5065379584756006 0.4934594875139592;
}

probability ("age_of_domain" | "variable12") {
	("state0") 0.1770871972552322 0.8229128027447677;
	("state1") 1.0 4.785820026334159E-70;
}

probability ("having_IP_Address" | "variable19") {
	("state0") 0.7872752715687658 0.21272472843123427;
	("state1") 1.0 8.037013968169584E-31;
}

probability ("Result" | "variable23") {
	("state0") 0.09967159741222667 0.8760244460980542 0.024303956489719194;
	("state1") 0.07426517882575683 0.9257348211742432 0.0;
	("state2") 0.06074458419441687 9.774563713000292E-56 0.939255415805583;
}

probability ("variable12" | "variable23") {
	("state0") 0.6368856357149993 0.3631143642850006;
	("state1") 0.5970547868954303 0.4029452131045697;
	("state2") 0.35227704067779 0.64772295932221;
}

probability ("variable19" | "variable39") {
	("state0") 0.33756099626478603 0.662439003735214;
	("state1") 0.7950833864249249 0.20491661357507499;
	("state2") 0.29430417536156583 0.7056958246384343;
}

probability ("variable23" | "variable39") {
	("state0") 0.7277517919220079 0.0346779175313328 0.2375702905466593;
	("state1") 4.3435596168468706E-14 0.007223698773047841 0.9927763012269086;
	("state2") 0.6748793596168368 0.32512064037168864 1.14744367994047E-11;
}

probability ("variable33" | "variable23") {
	("state0") 0.8693466318756357 0.13063960401804597 4.419497013108943E-16 1.3764106318049566E-5;
	("state1") 1.3012308076582614E-40 0.0 4.881330268813785E-66 1.0;
	("state2") 0.1805109935909836 0.5906864166915247 0.22880258702376582 2.6937259518316127E-9;
}

probability ("variable39") {
	table 0.2556925492557832 0.476915763407701 0.2673916873365158;
}

