network "HLCM11616" {
}

variable "SFH" {
	type discrete[3] { "0" "1" "2" };
}

variable "popUpWidnow" {
	type discrete[3] { "0" "1" "2" };
}

variable "SSLfinal_State" {
	type discrete[3] { "0" "1" "2" };
}

variable "Request_URL" {
	type discrete[3] { "0" "1" "2" };
}

variable "URL_of_Anchor" {
	type discrete[3] { "0" "1" "2" };
}

variable "web_traffic" {
	type discrete[3] { "0" "1" "2" };
}

variable "URL_Length" {
	type discrete[3] { "0" "1" "2" };
}

variable "age_of_domain" {
	type discrete[2] { "0" "1" };
}

variable "having_IP_Address" {
	type discrete[2] { "0" "1" };
}

variable "Result" {
	type discrete[3] { "0" "1" "2" };
}

variable "variable12" {
	type discrete[2] { "state0" "state1" };
}

variable "variable41" {
	type discrete[3] { "state0" "state1" "state2" };
}

variable "variable46" {
	type discrete[4] { "state0" "state1" "state2" "state3" };
}

variable "variable56" {
	type discrete[4] { "state0" "state1" "state2" "state3" };
}

variable "variable64" {
	type discrete[3] { "state0" "state1" "state2" };
}

probability ("SFH" | "variable41") {
	("state0") 7.639171627048513E-27 5.4375227928235136E-76 1.0;
	("state1") 0.1269739983559376 0.8655452733390395 0.0074807283050228705;
	("state2") 0.9269394631348007 0.0701328182266779 0.0029277186385214507;
}

probability ("popUpWidnow" | "variable56") {
	("state0") 0.11735554055058332 0.6183767621006799 0.2642676973487366;
	("state1") 0.975586171954353 0.024413828045646808 1.5387572093492925E-48;
	("state2") 0.536304362385387 0.4636956376146131 0.0;
	("state3") 0.7577461027687697 0.24225389723123017 9.754310797247723E-228;
}

probability ("SSLfinal_State" | "variable56") {
	("state0") 0.8364787198337821 0.10146202240217607 0.06205925776404181;
	("state1") 0.024028849197271752 1.1451587235114404E-110 0.9759711508027283;
	("state2") 0.03387402397108428 0.9094311958204292 0.056694780208486444;
	("state3") 0.49063401539615176 0.015497161357997316 0.49386882324585085;
}

probability ("Request_URL" | "variable46") {
	("state0") 0.4283116626622082 6.0051063244602256E-34 0.5716883373377918;
	("state1") 0.0 1.0 0.0;
	("state2") 0.724518089085268 0.23535262505431218 0.04012928586041987;
	("state3") 8.97443943685582E-25 0.9568125537165658 0.043187446283434155;
}

probability ("URL_of_Anchor" | "variable46") {
	("state0") 1.5794241450673957E-15 0.10364942205184469 0.8963505779481538;
	("state1") 0.0 0.33609903670335645 0.6639009632966435;
	("state2") 0.8733100387249644 0.03813258248045176 0.08855737879458395;
	("state3") 0.7125254436650713 0.2874745563349288 1.1056220793170635E-33;
}

probability ("web_traffic" | "variable12") {
	("state0") 2.246448115373323E-7 0.3746382257409425 0.6253615496142461;
	("state1") 0.6807650220166995 0.31923497798330047 1.481845905994467E-222;
}

probability ("URL_Length" | "variable64") {
	("state0") 0.9731415502156489 0.02685844978435088 2.8465405956610235E-16;
	("state1") 2.1268433291163497E-8 0.4981513954140268 0.5018485833175399;
	("state2") 0.34812148067099236 0.24169245067786488 0.4101860686511429;
}

probability ("age_of_domain" | "variable12") {
	("state0") 1.0 6.737086704495195E-123;
	("state1") 0.17519371985588927 0.8248062801441107;
}

probability ("having_IP_Address" | "variable64") {
	("state0") 0.5337272517821405 0.4662727482178594;
	("state1") 1.0 5.776954938415908E-65;
	("state2") 0.8613123765095932 0.13868762349040684;
}

probability ("Result" | "variable56") {
	("state0") 0.062427416378940656 1.9047265862599694E-169 0.9375725836210593;
	("state1") 2.933847347242953E-306 0.5173196833314274 0.4826803166685727;
	("state2") 3.432348458603812E-48 1.0 2.7503247262396602E-160;
	("state3") 0.19130474463990682 0.7693297043244807 0.039365551035612456;
}

probability ("variable12" | "variable64") {
	("state0") 0.3977763029908322 0.6022236970091679;
	("state1") 0.30866363380024264 0.6913363661997572;
	("state2") 0.6850848845853926 0.3149151154146075;
}

probability ("variable41" | "variable64") {
	("state0") 0.16971497747489864 0.7033416704785171 0.12694335204658422;
	("state1") 0.18666398952171423 0.7509658951337206 0.06237011534456511;
	("state2") 0.025963998422098226 4.733453683307382E-8 0.974035954243365;
}

probability ("variable46" | "variable41") {
	("state0") 0.0 1.0 7.42433238569278E-49 6.50836035817146E-151;
	("state1") 0.08524589504320794 3.0589845616098314E-43 0.9147541049567921 7.39821079786739E-35;
	("state2") 0.5818646900410606 2.9865797040103614E-23 0.2048300676266843 0.21330524233225517;
}

probability ("variable56" | "variable41") {
	("state0") 0.0 9.565577760735657E-88 0.6322934506429484 0.3677065493570516;
	("state1") 1.3793022168966057E-27 1.6963785052040477E-25 0.3908717381871851 0.6091282618128149;
	("state2") 0.9018984898499331 0.09810151015006689 5.0238275142550195E-80 2.177014000881054E-28;
}

probability ("variable64") {
	table 0.08072805634283499 0.373735160940494 0.545536782716671;
}

