network "HLCM9659" {
}

variable "SFH" {
	type discrete[3] { "0" "1" "2" };
}

variable "popUpWidnow" {
	type discrete[3] { "0" "1" "2" };
}

variable "SSLfinal_State" {
	type discrete[3] { "0" "1" "2" };
}

variable "Request_URL" {
	type discrete[3] { "0" "1" "2" };
}

variable "URL_of_Anchor" {
	type discrete[3] { "0" "1" "2" };
}

variable "web_traffic" {
	type discrete[3] { "0" "1" "2" };
}

variable "URL_Length" {
	type discrete[3] { "0" "1" "2" };
}

variable "age_of_domain" {
	type discrete[2] { "0" "1" };
}

variable "having_IP_Address" {
	type discrete[2] { "0" "1" };
}

variable "Result" {
	type discrete[3] { "0" "1" "2" };
}

variable "variable12" {
	type discrete[2] { "state0" "state1" };
}

variable "variable22" {
	type discrete[3] { "state0" "state1" "state2" };
}

variable "variable34" {
	type discrete[3] { "state0" "state1" "state2" };
}

variable "variable38" {
	type discrete[4] { "state0" "state1" "state2" "state3" };
}

variable "variable46" {
	type discrete[3] { "state0" "state1" "state2" };
}

variable "variable54" {
	type discrete[3] { "state0" "state1" "state2" };
}

probability ("SFH" | "variable22") {
	("state0") 0.930675318501076 0.06640510707941231 0.0029195744195116193;
	("state1") 3.347031386557621E-78 3.002252258942864E-157 1.0;
	("state2") 0.12550309244183422 0.8617246120192554 0.012772295538910327;
}

probability ("popUpWidnow" | "variable34") {
	("state0") 0.5592827182478513 0.4407172817521489 0.0;
	("state1") 0.8200885383491626 0.17991146165083743 1.2190560550722193E-173;
	("state2") 0.08015559222046009 0.6457563623623521 0.2740880454171878;
}

probability ("SSLfinal_State" | "variable34") {
	("state0") 0.149542354062417 0.6840230421630193 0.16643460377456365;
	("state1") 0.43678321112098206 9.640409365852461E-57 0.5632167888790178;
	("state2") 0.8392253573839263 0.11133216122721305 0.049442481388860524;
}

probability ("Request_URL" | "variable38") {
	("state0") 0.0 1.0 0.0;
	("state1") 0.7366606043566362 0.23113394539025378 0.032205450253110106;
	("state2") 4.345197687775016E-52 0.923952756099157 0.07604724390084311;
	("state3") 0.41605123311557857 8.800825275823169E-14 0.5839487668843335;
}

probability ("URL_of_Anchor" | "variable38") {
	("state0") 0.0 0.36131233110353267 0.6386876688964673;
	("state1") 0.891076181035456 0.029018126547850007 0.07990569241669399;
	("state2") 0.7044097007835013 0.2955902992163528 1.4583924072738193E-13;
	("state3") 5.622413444016586E-29 0.11024376001672204 0.889756239983278;
}

probability ("web_traffic" | "variable12") {
	("state0") 0.015683807155605987 0.38311521871125676 0.6012009741331372;
	("state1") 0.6716556141596497 0.32834438584035036 0.0;
}

probability ("URL_Length" | "variable46") {
	("state0") 1.0 3.476520200492605E-131 1.5276449187298582E-37;
	("state1") 0.36661997218170655 0.22820198034951644 0.40517804746877695;
	("state2") 0.08022839024092326 0.46860462549928955 0.4511669842597871;
}

probability ("age_of_domain" | "variable12") {
	("state0") 1.0 2.904649051741856E-292;
	("state1") 0.16505523002602562 0.8349447699739744;
}

probability ("having_IP_Address" | "variable46") {
	("state0") 0.0073781425825095 0.9926218574174905;
	("state1") 0.855600854121364 0.14439914587863603;
	("state2") 1.0 8.915556440241939E-60;
}

probability ("Result" | "variable54") {
	("state0") 0.22482928350995438 0.7304670568253719 0.044703659664673726;
	("state1") 0.056339947893621733 1.059570608310729E-296 0.9436600521063783;
	("state2") 0.005766677761079478 0.9942333222389205 9.854191707862375E-194;
}

probability ("variable12" | "variable54") {
	("state0") 0.5199680211336678 0.48003197886633225;
	("state1") 0.6591784718623217 0.3408215281376783;
	("state2") 0.2993016864154602 0.7006983135845397;
}

probability ("variable22" | "variable54") {
	("state0") 0.14856500032595896 0.12146041107182108 0.7299745886022199;
	("state1") 1.0 0.0 1.2475920856227558E-81;
	("state2") 0.0030776451823520097 0.2910357585306538 0.7058865962869942;
}

probability ("variable34" | "variable54") {
	("state0") 6.823875552296353E-17 0.9999999999999999 3.61957723017346E-19;
	("state1") 1.5188191683683743E-48 0.11823319490143355 0.8817668050985664;
	("state2") 0.9998318374206028 1.44636472117982E-10 1.6816243476066735E-4;
}

probability ("variable38" | "variable22") {
	("state0") 3.385119004613695E-14 0.18279715473915625 0.21224907864934267 0.6049537666114672;
	("state1") 1.0 2.646405150055108E-69 0.0 0.0;
	("state2") 3.353762554969933E-58 0.935170505877491 4.675405816202562E-48 0.06482949412250898;
}

probability ("variable46" | "variable34") {
	("state0") 0.10828839572850966 1.2374741069258135E-10 0.891711604147743;
	("state1") 0.01746835864249346 0.28039395606524475 0.7021376852922617;
	("state2") 1.4732364686023396E-9 0.999998893383993 1.1051427705182829E-6;
}

probability ("variable54") {
	table 0.20800001770989068 0.5434892836016381 0.24851069868847114;
}

