network "HLCM11723" {
}

variable "SFH" {
	type discrete[3] { "0" "1" "2" };
}

variable "popUpWidnow" {
	type discrete[3] { "0" "1" "2" };
}

variable "SSLfinal_State" {
	type discrete[3] { "0" "1" "2" };
}

variable "Request_URL" {
	type discrete[3] { "0" "1" "2" };
}

variable "URL_of_Anchor" {
	type discrete[3] { "0" "1" "2" };
}

variable "web_traffic" {
	type discrete[3] { "0" "1" "2" };
}

variable "URL_Length" {
	type discrete[3] { "0" "1" "2" };
}

variable "age_of_domain" {
	type discrete[2] { "0" "1" };
}

variable "having_IP_Address" {
	type discrete[2] { "0" "1" };
}

variable "Result" {
	type discrete[3] { "0" "1" "2" };
}

variable "variable12" {
	type discrete[2] { "state0" "state1" };
}

variable "variable35" {
	type discrete[3] { "state0" "state1" "state2" };
}

variable "variable40" {
	type discrete[4] { "state0" "state1" "state2" "state3" };
}

variable "variable49" {
	type discrete[3] { "state0" "state1" "state2" };
}

variable "variable54" {
	type discrete[3] { "state0" "state1" "state2" };
}

variable "variable65" {
	type discrete[3] { "state0" "state1" "state2" };
}

probability ("SFH" | "variable35") {
	("state0") 0.13548871637615892 0.8524621510640963 0.012049132559744708;
	("state1") 2.112185286802116E-40 1.4986698296178684E-61 1.0;
	("state2") 0.9219645045536162 0.07501205981607056 0.003023435630313133;
}

probability ("popUpWidnow" | "variable65") {
	("state0") 0.07451094630042732 0.6449424606155505 0.2805465930840221;
	("state1") 0.516734577680761 0.48326542231923897 0.0;
	("state2") 0.7789128246618016 0.2210871753381985 2.9042296703831628E-114;
}

probability ("SSLfinal_State" | "variable65") {
	("state0") 0.8298574159684724 0.11564951776990971 0.054493066261617706;
	("state1") 0.0869489720305573 0.8753581309047437 0.0376928970646991;
	("state2") 0.42284721333419245 0.010965167163004916 0.5661876195028026;
}

probability ("Request_URL" | "variable40") {
	("state0") 0.0 1.0 0.0;
	("state1") 0.4087587987760241 5.3969262779114756E-31 0.5912412012239759;
	("state2") 0.7396032679830411 0.22139593997403773 0.039000792042921256;
	("state3") 2.206558768429295E-39 0.9492711238486754 0.05072887615132452;
}

probability ("URL_of_Anchor" | "variable40") {
	("state0") 0.0 0.3332005898974523 0.6667994101025477;
	("state1") 7.373288698005385E-22 0.1028191533801135 0.8971808466198865;
	("state2") 0.8729500851400321 0.04245148242187738 0.08459843243809059;
	("state3") 0.7063627558082488 0.29363724419175125 3.176754346532246E-33;
}

probability ("web_traffic" | "variable12") {
	("state0") 8.994625120091963E-26 0.394312363352256 0.6056876366477439;
	("state1") 0.6944856024143903 0.3055143975856097 0.0;
}

probability ("URL_Length" | "variable54") {
	("state0") 0.3648385785930085 0.21201745548935544 0.423143965917636;
	("state1") 0.06948159523959622 0.4853396872522425 0.4451787175081613;
	("state2") 1.0 6.479877936532576E-38 1.205459137630939E-50;
}

probability ("age_of_domain" | "variable12") {
	("state0") 1.0 1.442783363350512E-207;
	("state1") 0.15137669530411166 0.8486233046958884;
}

probability ("having_IP_Address" | "variable54") {
	("state0") 0.8534408137730267 0.14655918622697323;
	("state1") 1.0 6.907936307498577E-41;
	("state2") 1.5041318279957367E-4 0.9998495868172004;
}

probability ("Result" | "variable49") {
	("state0") 1.0885718445572392E-24 1.0 4.113447155895896E-241;
	("state1") 0.06033998675565528 7.977464806657222E-269 0.9396600132443447;
	("state2") 0.17272057637715543 0.7922379332473947 0.035041490375449916;
}

probability ("variable12" | "variable54") {
	("state0") 0.6859728335359244 0.3140271664640757;
	("state1") 0.3171787766416191 0.682821223358381;
	("state2") 0.38760365017431436 0.6123963498256856;
}

probability ("variable35" | "variable54") {
	("state0") 0.04523193468366015 0.04055433509916371 0.9142137302171762;
	("state1") 0.7402099358294674 0.16495491181172398 0.09483515235880871;
	("state2") 0.6803632742024235 0.3196365255052035 2.002923729543386E-7;
}

probability ("variable40" | "variable35") {
	("state0") 2.904214647420006E-32 0.08485767947001617 0.9151423205299839 9.479209114758659E-38;
	("state1") 1.0 0.0 1.8642919767063682E-98 5.3107621408877325E-254;
	("state2") 2.564063575175963E-24 0.5883084220249903 0.1820992438461749 0.22959233412883467;
}

probability ("variable49" | "variable35") {
	("state0") 0.3890326891423668 2.4835393645041433E-42 0.6109673108576331;
	("state1") 0.6531164262516355 0.0 0.3468835737483645;
	("state2") 1.1248442084087524E-120 0.9557646063351933 0.04423539366480667;
}

probability ("variable54") {
	table 0.5592951204878217 0.4052638035037219 0.03544107600845647;
}

probability ("variable65" | "variable49") {
	("state0") 7.115032467538355E-40 0.9999926599532799 7.340046720095434E-6;
	("state1") 0.896723518471046 4.1805136578134027E-26 0.10327648152895408;
	("state2") 3.9088545869382976E-43 3.8484854187068593E-4 0.9996151514581293;
}

