network "HLCM19576" {
}

variable "class" {
	type discrete[6] { "0" "1" "2" "3" "4" "5" };
}

variable "largest_spot_size" {
	type discrete[6] { "0" "1" "2" "3" "4" "5" };
}

variable "spot_distribution" {
	type discrete[4] { "0" "1" "2" "3" };
}

variable "Activity" {
	type discrete[2] { "0" "1" };
}

variable "Evolution" {
	type discrete[3] { "0" "1" "2" };
}

variable "Previous_24_hour_flare_activity_code" {
	type discrete[3] { "0" "1" "2" };
}

variable "Historically-complex" {
	type discrete[2] { "0" "1" };
}

variable "Did_region_become_historically_complex" {
	type discrete[2] { "0" "1" };
}

variable "Area" {
	type discrete[2] { "0" "1" };
}

variable "Area_of_the_largest_spot" {
	type discrete[2] { "0" "1" };
}

variable "C-class_flares_production_by_this_region" {
	type discrete[8] { "0" "1" "2" "3" "4" "5" "6" "7" };
}

variable "M-class_flares_production_by_this_region" {
	type discrete[6] { "0" "1" "2" "3" "4" "5" };
}

variable "X-class_flares_production_by_this_region" {
	type discrete[3] { "0" "1" "2" };
}

variable "variable22" {
	type discrete[2] { "state0" "state1" };
}

variable "variable39" {
	type discrete[2] { "state0" "state1" };
}

variable "variable43" {
	type discrete[5] { "state0" "state1" "state2" "state3" "state4" };
}

variable "variable50" {
	type discrete[2] { "state0" "state1" };
}

probability ("class" | "variable43") {
	("state0") 0.0 6.707808383812735E-243 0.26883063494238646 0.4243934431099257 0.3067759219476878 0.0;
	("state1") 0.0 0.0 0.0 0.0 0.0 1.0;
	("state2") 1.0 0.0 0.0 0.0 0.0 0.0;
	("state3") 2.55201765190406E-128 0.6493584110689524 0.3232557183011478 0.023690557306082383 0.0036953133238174208 0.0;
	("state4") 0.0 0.05482326101951459 0.5070146388081805 0.3131676918958503 0.12499440827645454 0.0;
}

probability ("largest_spot_size" | "variable43") {
	("state0") 0.10167576828865019 3.956118772451962E-82 0.8983242317113498 9.594878062673655E-160 1.3966925327684831E-276 0.0;
	("state1") 0.10455764075067024 0.021447721179624665 0.005361930294906166 0.18498659517426275 0.6836461126005362 0.0;
	("state2") 0.0 0.0 0.0 0.0 0.010810810810810811 0.9891891891891892;
	("state3") 0.11754438854287204 0.027567506287259805 0.004410801168963816 0.41060639495458956 0.4398709090463148 0.0;
	("state4") 0.5964162613635645 0.06175382620930021 0.0919277507731349 0.056366667581012164 0.1935354940729881 0.0;
}

probability ("spot_distribution" | "variable43") {
	("state0") 0.6888836987260947 0.31111630127390544 0.0 0.0;
	("state1") 0.0 0.0 0.0 1.0;
	("state2") 0.0 0.12432432432432433 0.8756756756756757 0.0;
	("state3") 1.00847356556213E-152 0.12667309575098654 0.8733269042490135 0.0;
	("state4") 0.05044934864240253 0.6943067887552408 0.2552438626023568 0.0;
}

probability ("Activity" | "variable22") {
	("state0") 0.9747677178520815 0.025232282147918454;
	("state1") 0.024187987192821645 0.9758120128071783;
}

probability ("Evolution" | "variable39") {
	("state0") 0.013117928988071719 0.39808788036439646 0.5887941906475317;
	("state1") 0.08645274517754627 0.46236256987457913 0.4511846849478746;
}

probability ("Previous_24_hour_flare_activity_code" | "variable22") {
	("state0") 0.993539412842626 0.0019034665227298938 0.004557120634643952;
	("state1") 0.7072683394681958 0.06404535456849088 0.22868630596331335;
}

probability ("Historically-complex" | "variable43") {
	("state0") 0.021712050456921286 0.9782879495430787;
	("state1") 0.6916890080428955 0.30831099195710454;
	("state2") 0.8702702702702703 0.12972972972972974;
	("state3") 0.7253631821093393 0.2746368178906607;
	("state4") 0.23066530123851478 0.7693346987614851;
}

probability ("Did_region_become_historically_complex" | "variable43") {
	("state0") 0.0 1.0;
	("state1") 0.38873994638069703 0.6112600536193029;
	("state2") 0.0 1.0;
	("state3") 0.0 1.0;
	("state4") 0.0 1.0;
}

probability ("Area" | "variable43") {
	("state0") 0.28404134254566893 0.715958657454331;
	("state1") 1.0 0.0;
	("state2") 1.0 0.0;
	("state3") 0.9999486705951274 5.132940487261231E-5;
	("state4") 0.9952157759600458 0.004784224039954208;
}

probability ("Area_of_the_largest_spot" | "variable50") {
	("state0") 0.5922106781746801 0.40778932182531985;
	("state1") 0.8978661973728601 0.10213380262713982;
}

probability ("C-class_flares_production_by_this_region" | "variable39") {
	("state0") 0.48922550528165015 0.2758341624714915 0.11245292085053779 0.06620941156557865 0.02979423520451039 0.01324188231311573 0.009931411734836797 0.0033104705782789324;
	("state1") 0.9433999301216673 0.05129815397151371 0.005301915906818944 4.61495510994361E-42 5.7792752494379664E-244 6.5366927941409E-35 6.388706561753242E-90 7.658749393887989E-169;
}

probability ("M-class_flares_production_by_this_region" | "variable50") {
	("state0") 0.3459644780557952 0.49654740371230766 0.08480129443256003 0.02422894126644572 0.03634341189966858 0.01211447063322286;
	("state1") 0.9957105350989215 0.004289464901078596 1.2688776273026911E-141 1.077255431338603E-68 4.800208963670632E-220 0.0;
}

probability ("X-class_flares_production_by_this_region" | "variable50") {
	("state0") 0.9030842349342172 0.08480129443255995 0.01211447063322285;
	("state1") 1.0 6.921710709396307E-84 0.0;
}

probability ("variable22" | "variable43") {
	("state0") 0.2764839309057415 0.7235160690942584;
	("state1") 0.9834351496136313 0.01656485038636872;
	("state2") 0.9544674600741292 0.045532539925870766;
	("state3") 0.9390925458110497 0.06090745418895023;
	("state4") 0.6355570089343412 0.3644429910656587;
}

probability ("variable39") {
	table 0.24146431532592072 0.7585356846740793;
}

probability ("variable43" | "variable39") {
	("state0") 0.16039547662729908 1.0724258234804836E-15 0.028388100530694425 0.19612039273769202 0.6150960301043134;
	("state1") 2.695792075581095E-25 0.3930750745780042 0.18592003545203306 0.33224315866256 0.0887617313074027;
}

probability ("variable50" | "variable39") {
	("state0") 0.25667551136659117 0.7433244886334087;
	("state1") 0.00528118075978872 0.9947188192402112;
}

