network "HLCM17293" {
}

variable "class" {
	type discrete[6] { "0" "1" "2" "3" "4" "5" };
}

variable "largest_spot_size" {
	type discrete[6] { "0" "1" "2" "3" "4" "5" };
}

variable "spot_distribution" {
	type discrete[4] { "0" "1" "2" "3" };
}

variable "Activity" {
	type discrete[2] { "0" "1" };
}

variable "Evolution" {
	type discrete[3] { "0" "1" "2" };
}

variable "Previous_24_hour_flare_activity_code" {
	type discrete[3] { "0" "1" "2" };
}

variable "Historically-complex" {
	type discrete[2] { "0" "1" };
}

variable "Did_region_become_historically_complex" {
	type discrete[2] { "0" "1" };
}

variable "Area" {
	type discrete[2] { "0" "1" };
}

variable "Area_of_the_largest_spot" {
	type discrete[2] { "0" "1" };
}

variable "C-class_flares_production_by_this_region" {
	type discrete[8] { "0" "1" "2" "3" "4" "5" "6" "7" };
}

variable "M-class_flares_production_by_this_region" {
	type discrete[6] { "0" "1" "2" "3" "4" "5" };
}

variable "X-class_flares_production_by_this_region" {
	type discrete[3] { "0" "1" "2" };
}

variable "variable23" {
	type discrete[2] { "state0" "state1" };
}

variable "variable43" {
	type discrete[2] { "state0" "state1" };
}

variable "variable47" {
	type discrete[5] { "state0" "state1" "state2" "state3" "state4" };
}

probability ("class" | "variable47") {
	("state0") 0.0 4.342019423212184E-14 0.35131398249282003 0.37057372627130614 0.2781122912358304 0.0;
	("state1") 1.0 4.213533303399507E-145 9.393279340075325E-147 4.136115387218189E-132 1.5831553922868784E-154 0.0;
	("state2") 6.438591913984249E-191 0.06494290330886925 0.5184908485337204 0.29753926916299844 0.11902697899441196 0.0;
	("state3") 1.989760160759979E-57 0.6094088350997072 0.36218820660534945 0.02432017831029225 0.004082779984650998 0.0;
	("state4") 0.0 0.0 0.0 0.0 0.0 1.0;
}

probability ("largest_spot_size" | "variable47") {
	("state0") 0.08568623598349975 2.2856045929156184E-17 0.9143137640165002 1.655041990809498E-27 8.776480751667522E-71 0.0;
	("state1") 0.0 0.0 0.0 0.0 0.01015228426395939 0.9898477157360406;
	("state2") 0.6150715717299237 0.05881744082279644 0.09076992211773588 0.04688435181651743 0.1884567135130268 0.0;
	("state3") 0.13309923855000333 0.02896174138301293 0.014993012594506661 0.38936748835927715 0.43357851911319994 0.0;
	("state4") 0.10119047619047619 0.023809523809523808 0.01488095238095238 0.21428571428571427 0.6458333333333334 0.0;
}

probability ("spot_distribution" | "variable47") {
	("state0") 0.6501091461690535 0.34989085383094654 1.8478600714741124E-57 0.0;
	("state1") 0.0 0.1319796954314721 0.868020304568528 0.0;
	("state2") 0.05604185724129205 0.697662537582697 0.2462956051760109 0.0;
	("state3") 1.44739993401389E-25 0.16152160567104962 0.8384783943289504 0.0;
	("state4") 0.0 0.0 0.0 1.0;
}

probability ("Activity" | "variable43") {
	("state0") 0.9679957290242447 0.032004270975755214;
	("state1") 0.026532361868849576 0.9734676381311504;
}

probability ("Evolution" | "variable47") {
	("state0") 7.324728459167318E-62 0.3941171224379934 0.6058828775620065;
	("state1") 0.06598984771573604 0.3248730964467005 0.6091370558375635;
	("state2") 0.02471649249653525 0.4611991571666146 0.5140843503368501;
	("state3") 0.08021473919002664 0.3766781015910183 0.5431071592189551;
	("state4") 0.09523809523809523 0.5625 0.34226190476190477;
}

probability ("Previous_24_hour_flare_activity_code" | "variable43") {
	("state0") 0.9909376033106845 9.300629270913244E-4 0.008132333762224168;
	("state1") 0.6668046977650295 0.05531740814765887 0.2778778940873118;
}

probability ("Historically-complex" | "variable47") {
	("state0") 0.02525647000754507 0.974743529992455;
	("state1") 0.8883248730964467 0.1116751269035533;
	("state2") 0.22882227472027875 0.7711777252797212;
	("state3") 0.700961046220491 0.29903895377950895;
	("state4") 0.6875 0.3125;
}

probability ("Did_region_become_historically_complex" | "variable47") {
	("state0") 0.0 1.0;
	("state1") 0.0 1.0;
	("state2") 0.0 1.0;
	("state3") 0.0 1.0;
	("state4") 0.3869047619047619 0.6130952380952381;
}

probability ("Area" | "variable47") {
	("state0") 0.4178174785356058 0.5821825214643942;
	("state1") 1.0 0.0;
	("state2") 0.999999999537054 4.629460213616472E-10;
	("state3") 0.9974467831447207 0.0025532168552792325;
	("state4") 1.0 0.0;
}

probability ("Area_of_the_largest_spot" | "variable47") {
	("state0") 0.5955958852860622 0.40440411471393783;
	("state1") 0.9137055837563451 0.08629441624365482;
	("state2") 0.778398647102907 0.22160135289709307;
	("state3") 0.7939701280173915 0.20602987198260853;
	("state4") 0.8125 0.1875;
}

probability ("C-class_flares_production_by_this_region" | "variable23") {
	("state0") 0.5101682772759495 0.256695449459603 0.1213930434157864 0.04684428046646062 0.03584567321987024 0.013152697407748663 0.011917726174595963 0.003982852579985582;
	("state1") 0.9229792713637543 0.06855508184299892 0.005521501881379737 0.0022386809550972294 5.416273578160034E-66 6.977222896537118E-4 7.741667116000766E-6 3.6668691050914026E-127;
}

probability ("M-class_flares_production_by_this_region" | "variable23") {
	("state0") 0.799772348285156 0.14446771559504593 0.031862820639884645 0.007965705159971161 0.011948557739956742 0.003982852579985581;
	("state1") 0.9872714519767941 0.012728548023205838 2.7249207654869837E-50 2.6014587415583333E-32 2.693315941910715E-106 0.0;
}

probability ("X-class_flares_production_by_this_region" | "variable23") {
	("state0") 0.9606766673941997 0.03534048002581475 0.00398285257998558;
	("state1") 0.9978729955984085 0.002127004401591593 0.0;
}

probability ("variable23") {
	table 0.2007005018482559 0.7992994981517441;
}

probability ("variable43" | "variable23") {
	("state0") 0.44437347513396686 0.5556265248660333;
	("state1") 0.9770296174924742 0.022970382507525856;
}

probability ("variable47" | "variable23") {
	("state0") 0.23944262772054187 0.016587000092341764 0.6436977067419329 0.10027266534614443 9.903905505713244E-11;
	("state1") 8.460444283019411E-17 0.192850116754883 0.10455774377131687 0.36656649139611636 0.3360256480776837;
}

