network "HLCM17245" {
}

variable "class" {
	type discrete[6] { "0" "1" "2" "3" "4" "5" };
}

variable "largest_spot_size" {
	type discrete[6] { "0" "1" "2" "3" "4" "5" };
}

variable "spot_distribution" {
	type discrete[4] { "0" "1" "2" "3" };
}

variable "Activity" {
	type discrete[2] { "0" "1" };
}

variable "Evolution" {
	type discrete[3] { "0" "1" "2" };
}

variable "Previous_24_hour_flare_activity_code" {
	type discrete[3] { "0" "1" "2" };
}

variable "Historically-complex" {
	type discrete[2] { "0" "1" };
}

variable "Did_region_become_historically_complex" {
	type discrete[2] { "0" "1" };
}

variable "Area" {
	type discrete[2] { "0" "1" };
}

variable "Area_of_the_largest_spot" {
	type discrete[2] { "0" "1" };
}

variable "C-class_flares_production_by_this_region" {
	type discrete[8] { "0" "1" "2" "3" "4" "5" "6" "7" };
}

variable "M-class_flares_production_by_this_region" {
	type discrete[6] { "0" "1" "2" "3" "4" "5" };
}

variable "X-class_flares_production_by_this_region" {
	type discrete[3] { "0" "1" "2" };
}

variable "variable23" {
	type discrete[2] { "state0" "state1" };
}

variable "variable43" {
	type discrete[2] { "state0" "state1" };
}

variable "variable46" {
	type discrete[5] { "state0" "state1" "state2" "state3" "state4" };
}

probability ("class" | "variable46") {
	("state0") 1.0 1.213527781959418E-270 9.925626833122436E-271 1.909778578910825E-241 6.700958714576686E-288 0.0;
	("state1") 0.0 3.260690897175712E-19 0.3513986091467542 0.3737059562927344 0.27489543456051146 0.0;
	("state2") 8.888777311890719E-308 0.09135448650958489 0.5277175658340441 0.26162277130723594 0.11930517634913516 0.0;
	("state3") 0.0 0.0 0.0 0.0 0.0 1.0;
	("state4") 2.1787150428432003E-86 0.6688350956311834 0.30819995893531854 0.02109417993547284 0.0018707654980254093 0.0;
}

probability ("largest_spot_size" | "variable46") {
	("state0") 0.0 0.0 0.0 0.0 0.010256410256410256 0.9897435897435898;
	("state1") 0.07830237908016027 0.0020524687555370947 0.9196451521643026 1.5672716699259125E-24 2.464499386920144E-113 0.0;
	("state2") 0.575646250201798 0.06649102196885334 0.09507844251067296 0.057085499650646375 0.20569878566802918 0.0;
	("state3") 0.10084033613445378 0.022408963585434174 0.014005602240896359 0.19047619047619047 0.6722689075630253 0.0;
	("state4") 0.10613377985515444 0.02558142699760245 0.009592959536297966 0.38153128884743837 0.4771605447635069 0.0;
}

probability ("spot_distribution" | "variable46") {
	("state0") 0.0 0.13333333333333333 0.8666666666666667 0.0;
	("state1") 0.6471305316171512 0.3528694683828489 2.964740266722741E-76 0.0;
	("state2") 0.03461689414602501 0.6711948263697766 0.2941882794841984 0.0;
	("state3") 0.0 0.0 0.0 1.0;
	("state4") 1.3420577926149248E-56 0.1268836773547805 0.8731163226452195 0.0;
}

probability ("Activity" | "variable43") {
	("state0") 0.027944771754769327 0.9720552282452306;
	("state1") 0.9686620181642868 0.03133798183571326;
}

probability ("Evolution" | "variable46") {
	("state0") 0.08205128205128205 0.3076923076923077 0.6102564102564103;
	("state1") 1.6978315525538143E-91 0.40034027195223004 0.59965972804777;
	("state2") 0.022887344153364284 0.4478893972595206 0.529223258587115;
	("state3") 0.09523809523809523 0.5742296918767507 0.33053221288515405;
	("state4") 0.08013312712278803 0.4024276277529001 0.5174392451243119;
}

probability ("Previous_24_hour_flare_activity_code" | "variable43") {
	("state0") 0.672797768848208 0.06135345937153384 0.26584877178025823;
	("state1") 0.9900290610293199 0.0018690973077599878 0.008101841662920129;
}

probability ("Historically-complex" | "variable46") {
	("state0") 0.882051282051282 0.11794871794871795;
	("state1") 0.02598903929550655 0.9740109607044934;
	("state2") 0.26827675923649896 0.7317232407635011;
	("state3") 0.6750700280112045 0.32492997198879553;
	("state4") 0.723572319942806 0.27642768005719404;
}

probability ("Did_region_become_historically_complex" | "variable46") {
	("state0") 0.0 1.0;
	("state1") 0.0 1.0;
	("state2") 0.0 1.0;
	("state3") 0.35294117647058826 0.6470588235294118;
	("state4") 0.0 1.0;
}

probability ("Area" | "variable46") {
	("state0") 1.0 0.0;
	("state1") 0.42786521641692576 0.5721347835830743;
	("state2") 0.9953382350810258 0.004661764918974212;
	("state3") 1.0 0.0;
	("state4") 1.0 1.4060248745554155E-19;
}

probability ("Area_of_the_largest_spot" | "variable46") {
	("state0") 0.9128205128205128 0.08717948717948718;
	("state1") 0.5949258271857639 0.40507417281423613;
	("state2") 0.7566890060349512 0.24331099396504877;
	("state3") 0.8235294117647058 0.17647058823529413;
	("state4") 0.8012770241180532 0.1987229758819467;
}

probability ("C-class_flares_production_by_this_region" | "variable23") {
	("state0") 0.9249551097235071 0.06410149952953645 0.006225416281451794 0.003925060018058536 2.924151843248366E-128 7.929144474460318E-4 4.287290780693875E-20 6.735738257927619E-233;
	("state1") 0.5131428767051566 0.2553151085117516 0.12850116516598165 0.05128770978557307 0.027423110538887074 0.008659680413285985 0.011752761659523032 0.00391758721984101;
}

probability ("M-class_flares_production_by_this_region" | "variable23") {
	("state0") 0.9909139582343496 0.009086041765650364 3.8497186327545504E-96 9.752961488723373E-59 4.355257975054764E-211 0.0;
	("state1") 0.800388521780056 0.14084766992232886 0.035258284978569095 0.00783517443968202 0.011752761659523032 0.00391758721984101;
}

probability ("X-class_flares_production_by_this_region" | "variable23") {
	("state0") 0.997921266534088 0.0020787334659119992 0.0;
	("state1") 0.9610978880900463 0.034984524690112775 0.00391758721984101;
}

probability ("variable23") {
	table 0.7959559119597168 0.2040440880402833;
}

probability ("variable43" | "variable23") {
	("state0") 0.024627104085902452 0.9753728959140976;
	("state1") 0.5402469686434757 0.45975303135652434;
}

probability ("variable46" | "variable23") {
	("state0") 0.1904408735087015 1.9315673711197058E-24 0.1173634663932486 0.3585270218488331 0.33366863824921683;
	("state1") 0.021038397404196454 0.2374951390421475 0.6477471999366468 3.5478313143993566E-15 0.09371926361700572;
}

