network "HLCM17317" {
}

variable "class" {
	type discrete[6] { "0" "1" "2" "3" "4" "5" };
}

variable "largest_spot_size" {
	type discrete[6] { "0" "1" "2" "3" "4" "5" };
}

variable "spot_distribution" {
	type discrete[4] { "0" "1" "2" "3" };
}

variable "Activity" {
	type discrete[2] { "0" "1" };
}

variable "Evolution" {
	type discrete[3] { "0" "1" "2" };
}

variable "Previous_24_hour_flare_activity_code" {
	type discrete[3] { "0" "1" "2" };
}

variable "Historically-complex" {
	type discrete[2] { "0" "1" };
}

variable "Did_region_become_historically_complex" {
	type discrete[2] { "0" "1" };
}

variable "Area" {
	type discrete[2] { "0" "1" };
}

variable "Area_of_the_largest_spot" {
	type discrete[2] { "0" "1" };
}

variable "C-class_flares_production_by_this_region" {
	type discrete[8] { "0" "1" "2" "3" "4" "5" "6" "7" };
}

variable "M-class_flares_production_by_this_region" {
	type discrete[6] { "0" "1" "2" "3" "4" "5" };
}

variable "X-class_flares_production_by_this_region" {
	type discrete[3] { "0" "1" "2" };
}

variable "variable22" {
	type discrete[2] { "state0" "state1" };
}

variable "variable32" {
	type discrete[4] { "state0" "state1" "state2" "state3" };
}

variable "variable41" {
	type discrete[2] { "state0" "state1" };
}

probability ("class" | "variable32") {
	("state0") 2.592355725632083E-53 0.5845837262137391 0.3916524441142072 0.011374717608249334 0.012389112063804426 0.0;
	("state1") 1.0 2.713386764355507E-142 7.30923047743004E-148 1.3319144296779042E-142 4.9739404709590963E-160 0.0;
	("state2") 0.0 0.0 0.0 0.0 0.0 1.0;
	("state3") 1.245345830952249E-231 0.03427581599269903 0.5149373316991744 0.31431342860582184 0.13647342370230478 0.0;
}

probability ("largest_spot_size" | "variable32") {
	("state0") 0.17424713857154484 0.03303596967302307 0.00867263926817466 0.3684307917093032 0.41561346077795436 0.0;
	("state1") 0.0 0.0 0.0 0.0 0.010101010101010102 0.98989898989899;
	("state2") 0.10863509749303621 0.019498607242339833 0.013927576601671309 0.20055710306406685 0.6573816155988857 0.0;
	("state3") 0.5038644332909445 0.04480426180720943 0.3034745240102276 0.024956400048731814 0.12290038084288663 0.0;
}

probability ("spot_distribution" | "variable32") {
	("state0") 1.4122848534547038E-56 0.18107949931832346 0.8189205006816765 0.0;
	("state1") 0.0 0.13131313131313133 0.8686868686868687 0.0;
	("state2") 0.0 0.0 0.0 1.0;
	("state3") 0.1723289169484035 0.695503632900975 0.13216745015062142 0.0;
}

probability ("Activity" | "variable22") {
	("state0") 0.9763374566469575 0.023662543353042482;
	("state1") 0.026723780503907616 0.9732762194960924;
}

probability ("Evolution" | "variable32") {
	("state0") 0.07840252063524822 0.3908921993867427 0.5307052799780091;
	("state1") 0.0707070707070707 0.3282828282828283 0.601010101010101;
	("state2") 0.08913649025069638 0.5682451253481894 0.3426183844011142;
	("state3") 0.007895678679183383 0.4319478927401966 0.5601564285806199;
}

probability ("Previous_24_hour_flare_activity_code" | "variable22") {
	("state0") 0.9901720008097575 0.001823284807056479 0.008004714383185988;
	("state1") 0.6418126541003215 0.07135268503261348 0.28683466086706494;
}

probability ("Historically-complex" | "variable32") {
	("state0") 0.6692259831921086 0.3307740168078915;
	("state1") 0.8787878787878788 0.12121212121212122;
	("state2") 0.6824512534818942 0.31754874651810583;
	("state3") 0.1505433919749866 0.8494566080250133;
}

probability ("Did_region_become_historically_complex" | "variable32") {
	("state0") 0.0 1.0;
	("state1") 0.0 1.0;
	("state2") 0.37604456824512533 0.6239554317548747;
	("state3") 0.0 1.0;
}

probability ("Area" | "variable41") {
	("state0") 1.0 1.074726825831665E-105;
	("state1") 0.8763916162229766 0.12360838377702339;
}

probability ("Area_of_the_largest_spot" | "variable32") {
	("state0") 0.7924118594746161 0.2075881405253839;
	("state1") 0.9141414141414141 0.08585858585858586;
	("state2") 0.8245125348189415 0.17548746518105848;
	("state3") 0.7160746279978175 0.28392537200218243;
}

probability ("C-class_flares_production_by_this_region" | "variable41") {
	("state0") 0.9352916604216903 0.058794710426840605 0.004663813395000088 2.623279740524856E-4 7.819271222630463E-77 8.103063333452831E-4 1.77181449071106E-4 1.0540402886727513E-143;
	("state1") 0.5173680186077954 0.24824722261419965 0.10766612311509371 0.06279891106382135 0.03836122255149 0.009276657036395984 0.012019486949927211 0.004262358061276667;
}

probability ("M-class_flares_production_by_this_region" | "variable41") {
	("state0") 0.9870467981210235 0.012953201878976509 3.010431731200886E-58 9.387282486025318E-35 8.631974980038347E-105 0.0;
	("state1") 0.7790627158827378 0.1570019131981122 0.038361222551490014 0.008524716122553337 0.012787074183830006 0.004262358061276669;
}

probability ("X-class_flares_production_by_this_region" | "variable41") {
	("state0") 0.9978084374226284 0.002191562577371618 0.0;
	("state1") 0.9626083704960687 0.033129271442654616 0.0042623580612766694;
}

probability ("variable22" | "variable41") {
	("state0") 0.9695703314501929 0.030429668549807047;
	("state1") 0.47471694650098595 0.525283053499014;
}

probability ("variable32") {
	table 0.34602034467967124 0.15827338129496402 0.2869704236610711 0.20873585036429362;
}

probability ("variable41" | "variable32") {
	("state0") 0.940290268257836 0.059709731742163964;
	("state1") 0.9822068881427183 0.017793111857281732;
	("state2") 1.0 2.1225285872676886E-19;
	("state3") 0.2140183653954057 0.7859816346045942;
}

