network "HLCM13138" {
}

variable "class" {
	type discrete[6] { "0" "1" "2" "3" "4" "5" };
}

variable "largest_spot_size" {
	type discrete[6] { "0" "1" "2" "3" "4" "5" };
}

variable "spot_distribution" {
	type discrete[4] { "0" "1" "2" "3" };
}

variable "Activity" {
	type discrete[2] { "0" "1" };
}

variable "Evolution" {
	type discrete[3] { "0" "1" "2" };
}

variable "Previous_24_hour_flare_activity_code" {
	type discrete[3] { "0" "1" "2" };
}

variable "Historically-complex" {
	type discrete[2] { "0" "1" };
}

variable "Did_region_become_historically_complex" {
	type discrete[2] { "0" "1" };
}

variable "Area" {
	type discrete[2] { "0" "1" };
}

variable "Area_of_the_largest_spot" {
	type discrete[2] { "0" "1" };
}

variable "C-class_flares_production_by_this_region" {
	type discrete[8] { "0" "1" "2" "3" "4" "5" "6" "7" };
}

variable "M-class_flares_production_by_this_region" {
	type discrete[6] { "0" "1" "2" "3" "4" "5" };
}

variable "X-class_flares_production_by_this_region" {
	type discrete[3] { "0" "1" "2" };
}

variable "variable23" {
	type discrete[2] { "state0" "state1" };
}

variable "variable26" {
	type discrete[3] { "state0" "state1" "state2" };
}

variable "variable29" {
	type discrete[4] { "state0" "state1" "state2" "state3" };
}

probability ("class" | "variable29") {
	("state0") 1.0 1.074498260108222E-261 1.2110881444833928E-273 3.1664856182482295E-253 2.670068617419287E-304 0.0;
	("state1") 0.0 0.0 0.0 0.0 0.0 1.0;
	("state2") 1.7482219754170323E-67 0.5497904841972869 0.3955202826267502 0.045617501677219216 0.009071731498743673 0.0;
	("state3") 0.0 0.006315838255844971 0.4508437074397097 0.36913565936056636 0.17370479494387894 0.0;
}

probability ("largest_spot_size" | "variable26") {
	("state0") 0.0 0.0 0.0 0.0 0.010869565217391304 0.9891304347826086;
	("state1") 0.11581578925553339 0.03205710526744215 0.00394852287336138 0.26625285704540097 0.581925725558262 0.0;
	("state2") 0.5315014563351275 0.044735918406747864 0.29389194992794876 0.015381275676913771 0.11448939965326227 0.0;
}

probability ("spot_distribution" | "variable29") {
	("state0") 0.0 0.11413043478260869 0.8858695652173914 0.0;
	("state1") 0.0 0.0 0.0 1.0;
	("state2") 1.4414312028476553E-128 0.20967670847808947 0.7903232915219105 0.0;
	("state3") 0.20986380525253198 0.6632553127474711 0.12688088199999698 0.0;
}

probability ("Activity" | "variable23") {
	("state0") 0.9726011461874261 0.027398853812574016;
	("state1") 0.03622630755722821 0.9637736924427718;
}

probability ("Evolution" | "variable29") {
	("state0") 0.08152173913043478 0.31521739130434784 0.6032608695652174;
	("state1") 0.09749303621169916 0.5598885793871866 0.3426183844011142;
	("state2") 0.06543648682631409 0.39027565719886176 0.5442878559748241;
	("state3") 0.012657590277304957 0.44842311550677144 0.5389192942159235;
}

probability ("Previous_24_hour_flare_activity_code" | "variable23") {
	("state0") 0.9901895481927999 0.001867938152519941 0.007942513654680013;
	("state1") 0.687111570217314 0.04765310754024282 0.2652353222424432;
}

probability ("Historically-complex" | "variable26") {
	("state0") 0.8967391304347826 0.10326086956521739;
	("state1") 0.7175880257115534 0.2824119742884465;
	("state2") 0.14407363407677198 0.855926365923228;
}

probability ("Did_region_become_historically_complex" | "variable29") {
	("state0") 0.0 1.0;
	("state1") 0.4011142061281337 0.5988857938718662;
	("state2") 0.0 1.0;
	("state3") 0.0 1.0;
}

probability ("Area" | "variable29") {
	("state0") 1.0 0.0;
	("state1") 1.0 0.0;
	("state2") 1.0 6.6958983914088645E-47;
	("state3") 0.8614106946445543 0.13858930535544567;
}

probability ("Area_of_the_largest_spot" | "variable26") {
	("state0") 0.907608695652174 0.09239130434782608;
	("state1") 0.8162339646662803 0.18376603533371977;
	("state2") 0.7129289305797523 0.28707106942024774;
}

probability ("C-class_flares_production_by_this_region" | "variable26") {
	("state0") 0.9184782608695652 0.07608695652173914 0.005434782608695652 0.0 0.0 0.0 0.0 0.0;
	("state1") 0.9088635162495408 0.07500458989677715 0.007403505276238659 0.006086586386114705 0.0 0.0014376121015803917 0.0012041900897483116 4.185204237550119E-207;
	("state2") 0.6023144996447384 0.2051984520748195 0.09794249038805998 0.04786615225400385 0.02672692213941384 0.00967641265442548 0.006934205577112175 0.00334086526742673;
}

probability ("M-class_flares_production_by_this_region" | "variable26") {
	("state0") 0.9836956521739131 0.016304347826086956 0.0 0.0 0.0 0.0;
	("state1") 0.9848839407519402 0.015116054549026215 4.699033538328529E-9 0.0 2.2264913134002497E-147 0.0;
	("state2") 0.8383162900891318 0.11491160821852055 0.03006777535521402 0.003340865267426729 0.010022595802280187 0.003340865267426729;
}

probability ("X-class_flares_production_by_this_region" | "variable23") {
	("state0") 0.9948349389696889 0.005165061030311145 1.5494975599074522E-278;
	("state1") 0.9617441614035431 0.03228116569246332 0.005974672903993464;
}

probability ("variable23" | "variable29") {
	("state0") 0.9662744727634522 0.03372552723654778;
	("state1") 0.9842901077329201 0.015709892267079795;
	("state2") 0.9235704041134387 0.07642959588656129;
	("state3") 0.521995311074632 0.478004688925368;
}

probability ("variable26" | "variable29") {
	("state0") 1.0 1.5010661871829431E-53 1.151934512518822E-276;
	("state1") 8.391559147517269E-241 0.9790124084682711 0.02098759153172889;
	("state2") 4.61915176374068E-267 0.9064762713395177 0.09352372866048222;
	("state3") 7.696943489803051E-278 0.01327093471920246 0.9867290652807975;
}

probability ("variable29") {
	table 0.1470823341326938 0.2869704236610711 0.3640729501465403 0.20187429205969473;
}

