network "HLCM24432" {
}

variable "class" {
	type discrete[6] { "0" "1" "2" "3" "4" "5" };
}

variable "largest_spot_size" {
	type discrete[6] { "0" "1" "2" "3" "4" "5" };
}

variable "spot_distribution" {
	type discrete[4] { "0" "1" "2" "3" };
}

variable "Activity" {
	type discrete[2] { "0" "1" };
}

variable "Evolution" {
	type discrete[3] { "0" "1" "2" };
}

variable "Previous_24_hour_flare_activity_code" {
	type discrete[3] { "0" "1" "2" };
}

variable "Historically-complex" {
	type discrete[2] { "0" "1" };
}

variable "Did_region_become_historically_complex" {
	type discrete[2] { "0" "1" };
}

variable "Area" {
	type discrete[2] { "0" "1" };
}

variable "Area_of_the_largest_spot" {
	type discrete[2] { "0" "1" };
}

variable "C-class_flares_production_by_this_region" {
	type discrete[8] { "0" "1" "2" "3" "4" "5" "6" "7" };
}

variable "M-class_flares_production_by_this_region" {
	type discrete[6] { "0" "1" "2" "3" "4" "5" };
}

variable "X-class_flares_production_by_this_region" {
	type discrete[3] { "0" "1" "2" };
}

variable "variable23" {
	type discrete[2] { "state0" "state1" };
}

variable "variable40" {
	type discrete[2] { "state0" "state1" };
}

variable "variable47" {
	type discrete[2] { "state0" "state1" };
}

variable "variable63" {
	type discrete[5] { "state0" "state1" "state2" "state3" "state4" };
}

probability ("class" | "variable63") {
	("state0") 2.531707156E-315 0.053865563718090835 0.5540653082867315 0.31102297438075427 0.08104615361442347 0.0;
	("state1") 4.7213873703244346E-70 0.5909543337942196 0.3764040113262718 0.02324828210007203 0.009393372779436722 0.0;
	("state2") 1.0 5.400138372574929E-288 1.2620699465001382E-294 5.5067120513664774E-250 6.367779238267671E-296 0.0;
	("state3") 0.0 0.0 0.0 0.0 0.0 1.0;
	("state4") 0.0 6.519945535695273E-88 0.3579710392049454 0.38011350940138566 0.26191545139366906 0.0;
}

probability ("largest_spot_size" | "variable63") {
	("state0") 0.6604581751084585 0.006639968701760786 0.13705755060102018 0.03344787852937744 0.1623964270593831 0.0;
	("state1") 0.1287683576694932 0.038623726037626684 0.012724925951999316 0.36996773116125053 0.4499152591796303 0.0;
	("state2") 0.0 0.0 0.0 0.0 0.010752688172043012 0.989247311827957;
	("state3") 0.10601719197707736 0.02865329512893983 0.011461318051575931 0.166189111747851 0.6876790830945558 0.0;
	("state4") 0.06630593657611818 4.4779065944430737E-163 0.8993615865118414 0.034332476912040444 1.8224313256785956E-134 0.0;
}

probability ("spot_distribution" | "variable63") {
	("state0") 0.055431094566541377 0.7514458966115615 0.1931230088218971 0.0;
	("state1") 1.940541223030095E-119 0.15109808634313668 0.8489019136568633 0.0;
	("state2") 0.0 0.10752688172043011 0.8924731182795699 0.0;
	("state3") 0.0 0.0 0.0 1.0;
	("state4") 0.7440937369494983 0.2346569081874933 0.02124935486300833 0.0;
}

probability ("Activity" | "variable23") {
	("state0") 0.029251105928235436 0.9707488940717646;
	("state1") 0.9694377553578456 0.030562244642154273;
}

probability ("Evolution" | "variable63") {
	("state0") 0.02216344092018409 0.4364171774375399 0.5414193816422761;
	("state1") 0.07931157834106699 0.39714175694687454 0.5235466647120585;
	("state2") 0.08064516129032258 0.3118279569892473 0.6075268817204301;
	("state3") 0.09169054441260745 0.5816618911174785 0.32664756446991405;
	("state4") 8.694293699444044E-66 0.3829539178301112 0.6170460821698888;
}

probability ("Previous_24_hour_flare_activity_code" | "variable23") {
	("state0") 0.6534191165204659 0.061301067806612604 0.2852798156729215;
	("state1") 0.9901832676988437 0.001873626406108898 0.007943105895047351;
}

probability ("Historically-complex" | "variable63") {
	("state0") 0.23317002164029982 0.7668299783597001;
	("state1") 0.7007830222950381 0.2992169777049619;
	("state2") 0.8978494623655914 0.10215053763440861;
	("state3") 0.7134670487106017 0.28653295128939826;
	("state4") 0.028426601089651102 0.9715733989103489;
}

probability ("Did_region_become_historically_complex" | "variable63") {
	("state0") 0.0 1.0;
	("state1") 0.0 1.0;
	("state2") 0.0 1.0;
	("state3") 0.3954154727793696 0.6045845272206304;
	("state4") 0.0 1.0;
}

probability ("Area" | "variable63") {
	("state0") 1.0 4.566446793296629E-28;
	("state1") 1.0 6.86046936181175E-54;
	("state2") 1.0 0.0;
	("state3") 1.0 0.0;
	("state4") 0.34718400298764085 0.6528159970123592;
}

probability ("Area_of_the_largest_spot" | "variable47") {
	("state0") 0.8275801778935472 0.17241982210645268;
	("state1") 0.5095431749806113 0.49045682501938864;
}

probability ("C-class_flares_production_by_this_region" | "variable40") {
	("state0") 0.5495996584453258 0.20814908210122318 0.12133672904823342 0.0640147381293691 0.031353944471805485 0.013788118627115912 0.007838486117951371 0.003919243058975686;
	("state1") 0.9215947526175964 0.06917766699237327 0.006065956318117237 0.0026776715627696694 1.1847897732535153E-121 4.839525091434575E-4 6.187206339544478E-303 1.225888930264989E-238;
}

probability ("M-class_flares_production_by_this_region" | "variable47") {
	("state0") 0.9928293561843209 0.007170643815679189 4.865594881102465E-73 3.570190536531768E-19 1.3958964846715699E-111 0.0;
	("state1") 0.3519917907757374 0.47945405151715365 0.10113249462426534 0.022473887694281183 0.03371083154142178 0.011236943847140593;
}

probability ("X-class_flares_production_by_this_region" | "variable47") {
	("state0") 0.9999999991075674 8.924325056773316E-10 0.0;
	("state1") 0.8651566854871764 0.12360637066568306 0.011236943847140565;
}

probability ("variable23" | "variable40") {
	("state0") 0.5367873119396311 0.46321268806036886;
	("state1") 0.02562984161310465 0.9743701583868953;
}

probability ("variable40" | "variable63") {
	("state0") 0.6643310229819451 0.3356689770180548;
	("state1") 0.09776794004440946 0.9022320599555905;
	("state2") 0.0148971023252773 0.9851028976747227;
	("state3") 1.467753563925675E-27 1.0;
	("state4") 1.0 1.2675037427702432E-27;
}

probability ("variable47" | "variable40") {
	("state0") 0.6877063342546964 0.3122936657453037;
	("state1") 0.9906511594538006 0.00934884054619944;
}

probability ("variable63") {
	table 0.19101883895756624 0.33969094757265866 0.1486810551558753 0.2789768185451639 0.04163233976873606;
}

