network "HLCM17257" {
}

variable "class" {
	type discrete[6] { "0" "1" "2" "3" "4" "5" };
}

variable "largest_spot_size" {
	type discrete[6] { "0" "1" "2" "3" "4" "5" };
}

variable "spot_distribution" {
	type discrete[4] { "0" "1" "2" "3" };
}

variable "Activity" {
	type discrete[2] { "0" "1" };
}

variable "Evolution" {
	type discrete[3] { "0" "1" "2" };
}

variable "Previous_24_hour_flare_activity_code" {
	type discrete[3] { "0" "1" "2" };
}

variable "Historically-complex" {
	type discrete[2] { "0" "1" };
}

variable "Did_region_become_historically_complex" {
	type discrete[2] { "0" "1" };
}

variable "Area" {
	type discrete[2] { "0" "1" };
}

variable "Area_of_the_largest_spot" {
	type discrete[2] { "0" "1" };
}

variable "C-class_flares_production_by_this_region" {
	type discrete[8] { "0" "1" "2" "3" "4" "5" "6" "7" };
}

variable "M-class_flares_production_by_this_region" {
	type discrete[6] { "0" "1" "2" "3" "4" "5" };
}

variable "X-class_flares_production_by_this_region" {
	type discrete[3] { "0" "1" "2" };
}

variable "variable22" {
	type discrete[2] { "state0" "state1" };
}

variable "variable43" {
	type discrete[2] { "state0" "state1" };
}

variable "variable47" {
	type discrete[5] { "state0" "state1" "state2" "state3" "state4" };
}

probability ("class" | "variable47") {
	("state0") 0.0 0.0199002766514993 0.4376548704098801 0.31016627832420024 0.23227857461442034 0.0;
	("state1") 1.0 2.6730562269116207E-202 6.907466503954323E-206 6.825056032344358E-166 7.38138231438074E-212 0.0;
	("state2") 0.0 0.0 0.0 0.0 0.0 1.0;
	("state3") 2.328139255782157E-201 0.021047975598458026 0.5485383739216254 0.3115759038971946 0.1188377465827219 0.0;
	("state4") 5.739513183978069E-53 0.630578845631132 0.35324599816993113 0.016175156198539806 3.970398947383013E-13 0.0;
}

probability ("largest_spot_size" | "variable47") {
	("state0") 0.07862586899784553 1.552861356606238E-17 0.9213741310021545 6.120459657139586E-17 3.3237921263874277E-56 0.0;
	("state1") 0.0 0.0 0.0 0.0 0.011235955056179775 0.9887640449438202;
	("state2") 0.09510869565217392 0.02717391304347826 0.01358695652173913 0.18478260869565216 0.6793478260869565 0.0;
	("state3") 0.6609069222189425 0.0554371635345144 2.373778645876203E-7 0.060179915666065065 0.22347576120261342 0.0;
	("state4") 0.12206885078587469 0.018879265380927476 0.013030678722129202 0.40945310804966856 0.4365680970614001 0.0;
}

probability ("spot_distribution" | "variable47") {
	("state0") 0.4720061502059148 0.5279938497940851 6.052093776996451E-93 0.0;
	("state1") 0.0 0.10112359550561797 0.898876404494382 0.0;
	("state2") 0.0 0.0 0.0 1.0;
	("state3") 0.054746302701083355 0.6509377816079844 0.29431591569093224 0.0;
	("state4") 1.2676737037341862E-45 0.1320771710602086 0.8679228289397914 0.0;
}

probability ("Activity" | "variable43") {
	("state0") 0.9687294668247625 0.03127053317523749;
	("state1") 0.032962363401044165 0.9670376365989558;
}

probability ("Evolution" | "variable47") {
	("state0") 2.7769743943590313E-78 0.4080565244054557 0.5919434755945444;
	("state1") 0.0898876404494382 0.29775280898876405 0.6123595505617978;
	("state2") 0.09782608695652174 0.5760869565217391 0.32608695652173914;
	("state3") 0.03459559725867752 0.4665900204620586 0.49881438227926395;
	("state4") 0.0718691986270186 0.39163378623518297 0.5364970151377985;
}

probability ("Previous_24_hour_flare_activity_code" | "variable43") {
	("state0") 0.9930390989908805 0.0019143984444870987 0.0050465025646322745;
	("state1") 0.6852890507145646 0.06812639989375155 0.24658454939168392;
}

probability ("Historically-complex" | "variable47") {
	("state0") 0.051125027435403515 0.9488749725645965;
	("state1") 0.8764044943820225 0.12359550561797752;
	("state2") 0.6766304347826086 0.3233695652173913;
	("state3") 0.22529989311875484 0.7747001068812451;
	("state4") 0.7192655510676504 0.2807344489323495;
}

probability ("Did_region_become_historically_complex" | "variable47") {
	("state0") 0.0 1.0;
	("state1") 0.0 1.0;
	("state2") 0.37771739130434784 0.6222826086956522;
	("state3") 0.0 1.0;
	("state4") 0.0 1.0;
}

probability ("Area" | "variable47") {
	("state0") 0.5504107111122823 0.44958928888771776;
	("state1") 1.0 0.0;
	("state2") 1.0 0.0;
	("state3") 0.994723679612409 0.005276320387590912;
	("state4") 1.0 1.2671574928606493E-56;
}

probability ("Area_of_the_largest_spot" | "variable47") {
	("state0") 0.654756336139734 0.34524366386026606;
	("state1") 0.9831460674157303 0.016853932584269662;
	("state2") 0.9021739130434783 0.09782608695652174;
	("state3") 0.9015508197673943 0.09844918023260575;
	("state4") 0.8881606731504409 0.1118393268495591;
}

probability ("C-class_flares_production_by_this_region" | "variable22") {
	("state0") 0.5259053617076379 0.241934030630236 0.10742084133533752 0.0651961432542345 0.03238170945423691 0.012770042749767454 0.010793903151412302 0.0035979677171374337;
	("state1") 0.9319340051022099 0.060384582326011245 0.005286410794763403 0.0019317622941139592 7.685927424679127E-163 4.632394829015584E-4 3.9620717274160933E-25 1.2475844930497216E-248;
}

probability ("M-class_flares_production_by_this_region" | "variable22") {
	("state0") 0.840664514687793 0.11615987270655771 0.02878374173709947 0.0071959354342748675 0.0035979677171374337 0.0035979677171374337;
	("state1") 0.9930989801012616 0.0069010198987383585 4.4437418258758314E-113 3.3981000890938144E-60 0.0 0.0;
}

probability ("X-class_flares_production_by_this_region" | "variable22") {
	("state0") 0.9678192218107603 0.028582810472102264 0.003597967717137435;
	("state1") 0.9989149281729061 0.0010850718270938762 0.0;
}

probability ("variable22") {
	table 0.22217000663549716 0.7778299933645029;
}

probability ("variable43" | "variable22") {
	("state0") 0.4723399758091058 0.5276600241908941;
	("state1") 0.9861122983307128 0.01388770166928725;
}

probability ("variable47" | "variable22") {
	("state0") 0.26958146216746964 0.0024983002315663856 1.0405804659347726E-18 0.5893667049917113 0.13855353260925266;
	("state1") 2.0139962330103508E-12 0.18221349767070194 0.37818632705712296 0.08760194860822676 0.3519982266619343;
}

