// ./temp\FinalBIModel.bif
// Produced by org.latlab at Fri Mar 05 17:51:19 CET 2021
network "HLCM7273" {
}

variable "variable142" {
	type discrete[4] { "state0" "state1" "state2" "state3" };
}

variable "class" {
	type discrete[6] { "s0" "s1" "s2" "s3" "s4" "s5" };
}

variable "largest_spot_size" {
	type discrete[6] { "s0" "s1" "s2" "s3" "s4" "s5" };
}

variable "spot_distribution" {
	type discrete[4] { "s0" "s1" "s2" "s3" };
}

variable "Evolution" {
	type discrete[3] { "s0" "s1" "s2" };
}

variable "Historically-complex" {
	type discrete[2] { "s0" "s1" };
}

variable "Did_region_become_historically_complex" {
	type discrete[2] { "s0" "s1" };
}

variable "variable153" {
	type discrete[2] { "state0" "state1" };
}

variable "Activity" {
	type discrete[2] { "s0" "s1" };
}

variable "Previous_24_hour_flare_activity_code" {
	type discrete[3] { "s0" "s1" "s2" };
}

variable "Area" {
	type discrete[2] { "s0" "s1" };
}

variable "Area_of_the_largest_spot" {
	type discrete[2] { "s0" "s1" };
}

variable "C-class_flares_production_by_this_region" {
	type discrete[8] { "s0" "s1" "s2" "s3" "s4" "s5" "s6" "s7" };
}

variable "M-class_flares_production_by_this_region" {
	type discrete[6] { "s0" "s1" "s2" "s3" "s4" "s5" };
}

variable "X-class_flares_production_by_this_region" {
	type discrete[3] { "s0" "s1" "s2" };
}

probability ( "variable142"  ) {
	table 0.2685851318944844 0.1574740207833733 0.3711090059344331 0.20283184138770913;
}
probability ( "class" | "variable142" ) {
	table 0.0 1.0 1.4837996350690636E-51 1.3505434816376632E-261 0.0 2.5126635662396355E-176 0.537545296273751 0.025382555259177306 0.0 6.680047818034142E-183 0.41081683229535126 0.43459491927626864 0.0 3.620453600065574E-162 0.04027030917668874 0.36377100298715 0.0 5.402120094209148E-181 0.011367562254209072 0.17625152247740403 1.0 0.0 0.0 0.0;
}
probability ( "largest_spot_size" | "variable142" ) {
	table 0.10119047619047619 0.0 0.1960922519573852 0.5121832531590688 0.023809523809523808 0.0 0.036096397491617076 0.04036366068566177 0.01488095238095238 0.0 0.015342053125805413 0.30691467855733406 0.21428571428571427 0.0 0.33732766105367656 0.03307740736735869 0.6458333333333334 0.01015228426395939 0.41514163637151574 0.10746100023057675 0.0 0.9898477157360406 0.0 0.0;
}
probability ( "spot_distribution" | "variable142" ) {
	table 0.0 0.0 3.551689034619135E-31 0.2128140598171138 0.0 0.1319796954314721 0.22124617452407586 0.6592697148544128 0.0 0.868020304568528 0.7787538254759242 0.12791622532847344 1.0 0.0 0.0 0.0;
}
probability ( "Evolution" | "variable142" ) {
	table 0.09523809523809523 0.06598984771573604 0.07340871975358727 0.01544660051567394 0.5625 0.3248730964467005 0.37903190471660786 0.46516284812753295 0.34226190476190477 0.6091370558375635 0.5475593755298048 0.5193905513567931;
}
probability ( "Historically-complex" | "variable142" ) {
	table 0.6875 0.8883248730964467 0.6664124168545182 0.10882336172573619 0.3125 0.1116751269035533 0.3335875831454817 0.8911766382742639;
}
probability ( "Did_region_become_historically_complex" | "variable142" ) {
	table 0.3869047619047619 0.0 0.0 0.0 0.6130952380952381 1.0 1.0 1.0;
}
probability ( "variable153" | "variable142" ) {
	table 0.9944984755299043 0.9760814827843389 0.9440771943824225 0.24129867110836434 0.005501524470095596 0.023918517215661152 0.05592280561757737 0.7587013288916358;
}
probability ( "Activity" | "variable153" ) {
	table 0.9494187051298433 0.3729700465493632 0.050581294870156744 0.6270299534506367;
}
probability ( "Previous_24_hour_flare_activity_code" | "variable153" ) {
	table 0.9895512542676457 0.7632399648834162 0.0018685440785871242 0.035918146789741624 0.008580201653767274 0.20084188832684216;
}
probability ( "Area" | "variable153" ) {
	table 1.0 0.8400269521617559 2.233653046834903E-33 0.15997304783824406;
}
probability ( "Area_of_the_largest_spot" | "variable142" ) {
	table 0.8125 0.9137055837563451 0.7856012124617354 0.745948157688378 0.1875 0.08629441624365482 0.21439878753826452 0.2540518423116221;
}
probability ( "C-class_flares_production_by_this_region" | "variable153" ) {
	table 0.9118193666136228 0.5132819446953233 0.07524457189228423 0.2479667631526139 0.008148789409646938 0.12282220018554167 0.0031144642085322613 0.048012701003700635 4.1470370376020527E-41 0.03999326195956111 8.543265590440713E-4 0.013879854135576807 8.184813168695296E-4 0.009599579094398058 4.506536401017414E-111 0.0044436957732845676;
}
probability ( "M-class_flares_production_by_this_region" | "variable153" ) {
	table 0.9851210584972346 0.7878812041032578 0.014876404767091013 0.14991862020955843 8.641029827751562E-12 0.035549566146881456 2.53672703338835E-6 0.008875826447164002 1.271110169866489E-66 0.013331087319853673 0.0 0.004443695773284558;
}
probability ( "X-class_flares_production_by_this_region" | "variable153" ) {
	table 0.9976867520230496 0.9572218949360605 0.002313247976950584 0.038334409290655055 0.0 0.00444369577328456;
}
