// ./temp\FinalBIModel.bif
// Produced by org.latlab at Fri Mar 05 17:46:05 CET 2021
network "HLCM3702" {
}

variable "variable107" {
	type discrete[2] { "state0" "state1" };
}

variable "Activity" {
	type discrete[2] { "s0" "s1" };
}

variable "Evolution" {
	type discrete[3] { "s0" "s1" "s2" };
}

variable "Previous_24_hour_flare_activity_code" {
	type discrete[3] { "s0" "s1" "s2" };
}

variable "Historically-complex" {
	type discrete[2] { "s0" "s1" };
}

variable "Area" {
	type discrete[2] { "s0" "s1" };
}

variable "Area_of_the_largest_spot" {
	type discrete[2] { "s0" "s1" };
}

variable "C-class_flares_production_by_this_region" {
	type discrete[8] { "s0" "s1" "s2" "s3" "s4" "s5" "s6" "s7" };
}

variable "M-class_flares_production_by_this_region" {
	type discrete[6] { "s0" "s1" "s2" "s3" "s4" "s5" };
}

variable "X-class_flares_production_by_this_region" {
	type discrete[3] { "s0" "s1" "s2" };
}

variable "variable83" {
	type discrete[4] { "state0" "state1" "state2" "state3" };
}

variable "class" {
	type discrete[6] { "s0" "s1" "s2" "s3" "s4" "s5" };
}

variable "largest_spot_size" {
	type discrete[6] { "s0" "s1" "s2" "s3" "s4" "s5" };
}

variable "spot_distribution" {
	type discrete[4] { "s0" "s1" "s2" "s3" };
}

variable "Did_region_become_historically_complex" {
	type discrete[2] { "s0" "s1" };
}

probability ( "variable107"  ) {
	table 0.7911810417228708 0.20881895827712918;
}
probability ( "Activity" | "variable107" ) {
	table 0.9439127044123632 0.5234643063211537 0.05608729558763681 0.47653569367884635;
}
probability ( "Evolution" | "variable83" ) {
	table 0.08287292817679558 0.015618971193503245 0.09433962264150944 0.07898157999080563 0.30939226519337015 0.4488686309900407 0.5714285714285714 0.3979602525234548 0.6077348066298343 0.535512397816456 0.33423180592991913 0.5230581674857395;
}
probability ( "Previous_24_hour_flare_activity_code" | "variable107" ) {
	table 0.9865308591282121 0.832835962105068 0.004000686281540919 0.030778139361864184 0.009468454590246943 0.1363858985330677;
}
probability ( "Historically-complex" | "variable107" ) {
	table 0.7407564738792431 0.09885189448760237 0.2592435261207568 0.9011481055123977;
}
probability ( "Area" | "variable107" ) {
	table 1.0 0.9004718083413827 2.1284815706419683E-74 0.09952819165861727;
}
probability ( "Area_of_the_largest_spot" | "variable83" ) {
	table 0.9060773480662984 0.7789061365744875 0.8679245283018868 0.8199540050109042 0.09392265193370165 0.22109386342551257 0.1320754716981132 0.18004599498909588;
}
probability ( "C-class_flares_production_by_this_region" | "variable107" ) {
	table 0.9178714853688882 0.587678179988878 0.06608954382382506 0.22809839782892222 0.010489577381051688 0.09423695678045912 0.004539055122564293 0.055534399058373186 8.848472754022232E-101 0.02679605160039695 2.9309485721348197E-171 0.007656014742970557 0.001010338303670732 2.1366243009288686E-114 0.0 0.0;
}
probability ( "M-class_flares_production_by_this_region" | "variable107" ) {
	table 0.983815680132055 0.8354673186063923 0.014637747807232565 0.128284310096982 0.0015465720607125543 0.01710833443919924 1.6556547467678537E-50 0.007656014742970557 1.0767247035428722E-90 0.007656014742970557 0.0 0.0038280073714852783;
}
probability ( "X-class_flares_production_by_this_region" | "variable107" ) {
	table 0.9985596440117316 0.9633491932945524 0.0014403559882684243 0.03282279933396244 0.0 0.003828007371485279;
}
probability ( "variable83" | "variable107" ) {
	table 0.18194994272916445 0.003490618735283818 0.04002508202619317 0.8879681927263603 0.3702321212304193 0.017441493223881187 0.407792854014223 0.09109969531447466;
}
probability ( "class" | "variable83" ) {
	table 1.0 7.752159607465495E-183 0.0 7.226804710581526E-34 1.2051346179561044E-158 0.045696842072871106 0.0 0.5862864758619966 5.665649588130424E-163 0.4880528780088502 0.0 0.37072294473951745 8.204513555924557E-144 0.30737176311852954 0.0 0.03631912018529671 8.072299989536303E-153 0.1588785167997492 0.0 0.006671459213189257 0.0 0.0 1.0 0.0;
}
probability ( "largest_spot_size" | "variable83" ) {
	table 0.0 0.5472203797068118 0.10242587601078167 0.14361800331577962 0.0 0.0472671982799644 0.02425876010781671 0.035476005703431034 0.0 0.26074984034950266 0.01078167115902965 0.00979161973103504 0.0 0.03592782149218601 0.1940700808625337 0.3585308773790432 0.011049723756906077 0.10883476017153504 0.6684636118598383 0.45258349387071106 0.988950276243094 0.0 0.0 0.0;
}
probability ( "spot_distribution" | "variable83" ) {
	table 0.0 0.1583317340578352 0.0 5.364168208082694E-56 0.13812154696132597 0.7038689779566148 0.0 0.1634044950985661 0.861878453038674 0.13779928798554988 0.0 0.836595504901434 0.0 0.0 1.0 0.0;
}
probability ( "Did_region_become_historically_complex" | "variable83" ) {
	table 0.0 0.0 0.38544474393531 0.0 1.0 1.0 0.6145552560646901 1.0;
}
