// ./temp\FinalBIModel.bif
// Produced by org.latlab at Fri Mar 05 17:49:22 CET 2021
network "HLCM3762" {
}

variable "variable107" {
	type discrete[2] { "state0" "state1" };
}

variable "Activity" {
	type discrete[2] { "s0" "s1" };
}

variable "Evolution" {
	type discrete[3] { "s0" "s1" "s2" };
}

variable "Previous_24_hour_flare_activity_code" {
	type discrete[3] { "s0" "s1" "s2" };
}

variable "Historically-complex" {
	type discrete[2] { "s0" "s1" };
}

variable "Area" {
	type discrete[2] { "s0" "s1" };
}

variable "Area_of_the_largest_spot" {
	type discrete[2] { "s0" "s1" };
}

variable "C-class_flares_production_by_this_region" {
	type discrete[8] { "s0" "s1" "s2" "s3" "s4" "s5" "s6" "s7" };
}

variable "M-class_flares_production_by_this_region" {
	type discrete[6] { "s0" "s1" "s2" "s3" "s4" "s5" };
}

variable "X-class_flares_production_by_this_region" {
	type discrete[3] { "s0" "s1" "s2" };
}

variable "variable83" {
	type discrete[4] { "state0" "state1" "state2" "state3" };
}

variable "class" {
	type discrete[6] { "s0" "s1" "s2" "s3" "s4" "s5" };
}

variable "largest_spot_size" {
	type discrete[6] { "s0" "s1" "s2" "s3" "s4" "s5" };
}

variable "spot_distribution" {
	type discrete[4] { "s0" "s1" "s2" "s3" };
}

variable "Did_region_become_historically_complex" {
	type discrete[2] { "s0" "s1" };
}

probability ( "variable107"  ) {
	table 0.7799023653542134 0.22009763464578658;
}
probability ( "Activity" | "variable107" ) {
	table 0.9507493514370869 0.4917297541627473 0.04925064856291309 0.5082702458372528;
}
probability ( "Evolution" | "variable83" ) {
	table 0.0845771144278607 0.0742511953473912 0.09798270893371758 0.009675535785024612 0.31343283582089554 0.39236703913427773 0.5590778097982709 0.43429198529141855 0.6019900497512438 0.533381765518331 0.34293948126801155 0.5560324789235567;
}
probability ( "Previous_24_hour_flare_activity_code" | "variable107" ) {
	table 0.9889376284053282 0.7994970547371075 0.003244290606608547 0.03571804279196733 0.007818080988063194 0.16478490247092525;
}
probability ( "Historically-complex" | "variable107" ) {
	table 0.7534028813674054 0.1159886301733929 0.2465971186325946 0.884011369826607;
}
probability ( "Area" | "variable107" ) {
	table 1.0 0.8692535771064587 4.806440511895404E-38 0.13074642289354146;
}
probability ( "Area_of_the_largest_spot" | "variable83" ) {
	table 0.9154228855721394 0.7862873123473129 0.8184438040345822 0.7346226232931284 0.0845771144278607 0.2137126876526871 0.18155619596541786 0.26537737670687167;
}
probability ( "C-class_flares_production_by_this_region" | "variable83" ) {
	table 0.9253731343283582 0.870538421265553 0.9538904899135446 0.5889785718929567 0.06965174129353234 0.09821545737922585 0.037463976945244955 0.2106859400287134 0.004975124378109453 0.013953303846276357 0.008645533141210375 0.10102805510388939 0.0 0.012609679868868257 0.0 0.04691040740323693 0.0 7.918513187860429E-54 0.0 0.030037652308128528 0.0 0.0026138927185873732 0.0 0.01073319561538558 0.0 0.0020692449214891836 0.0 0.007871471109173245 0.0 3.069376566808481E-57 0.0 0.003754706538516066;
}
probability ( "M-class_flares_production_by_this_region" | "variable107" ) {
	table 0.983281790870951 0.8159063204038723 0.015535502551099825 0.13380685105291948 0.0011827065779491913 0.0284957580609513 6.27016293238235E-21 0.007263690160752305 5.2196106934699496E-20 0.010895535241128457 0.0 0.0036318450803761526;
}
probability ( "X-class_flares_production_by_this_region" | "variable107" ) {
	table 0.9989015163426143 0.960310267984255 0.0010984836573857519 0.0360578869353689 0.0 0.0036318450803761496;
}
probability ( "variable83" | "variable107" ) {
	table 0.20601128210850198 1.2615417997668629E-5 0.4195353112074441 0.09931163228265967 0.3473210440497326 0.029539589286201054 0.0271323626343214 0.8711361630131416;
}
probability ( "class" | "variable83" ) {
	table 1.0 1.0311939381591319E-20 0.0 1.0598657777125358E-96 8.60445747918139E-64 0.5514186710196904 0.0 0.02708394402683217 1.8536121765634864E-63 0.39636145871771233 0.0 0.47655408492633067 2.0552773598697235E-58 0.04520252382144797 0.0 0.3389055281980924 8.908697218548876E-59 0.007017346441149144 0.0 0.15745644284874474 0.0 0.0 1.0 0.0;
}
probability ( "largest_spot_size" | "variable83" ) {
	table 0.0 0.17866009824324358 0.11527377521613832 0.5068287748979478 0.0 0.03333427692470869 0.02881844380403458 0.04296886637541242 0.0 0.01240453730575025 0.01440922190201729 0.3138309149112758 0.0 0.3551490620685504 0.1844380403458213 0.025974725944019186 0.009950248756218905 0.42045202545774707 0.6570605187319885 0.11039671787134485 0.9900497512437811 0.0 0.0 0.0;
}
probability ( "spot_distribution" | "variable83" ) {
	table 0.0 1.3166497254985072E-18 0.0 0.20275415307986766 0.11940298507462686 0.17689635197124176 0.0 0.6636635085159218 0.8805970149253731 0.8231036480287584 0.0 0.1335823384042106 0.0 0.0 1.0 0.0;
}
probability ( "Did_region_become_historically_complex" | "variable83" ) {
	table 0.0 0.0 0.3688760806916426 0.0 1.0 1.0 0.6311239193083573 1.0;
}
