// ./temp\FinalBIModel.bif
// Produced by org.latlab at Fri Mar 05 17:48:50 CET 2021
network "HLCM4318" {
}

variable "class" {
	type discrete[6] { "s0" "s1" "s2" "s3" "s4" "s5" };
}

variable "largest_spot_size" {
	type discrete[6] { "s0" "s1" "s2" "s3" "s4" "s5" };
}

variable "spot_distribution" {
	type discrete[4] { "s0" "s1" "s2" "s3" };
}

variable "Did_region_become_historically_complex" {
	type discrete[2] { "s0" "s1" };
}

variable "variable113" {
	type discrete[2] { "state0" "state1" };
}

variable "Activity" {
	type discrete[2] { "s0" "s1" };
}

variable "Previous_24_hour_flare_activity_code" {
	type discrete[3] { "s0" "s1" "s2" };
}

variable "Area" {
	type discrete[2] { "s0" "s1" };
}

variable "C-class_flares_production_by_this_region" {
	type discrete[8] { "s0" "s1" "s2" "s3" "s4" "s5" "s6" "s7" };
}

variable "M-class_flares_production_by_this_region" {
	type discrete[6] { "s0" "s1" "s2" "s3" "s4" "s5" };
}

variable "X-class_flares_production_by_this_region" {
	type discrete[3] { "s0" "s1" "s2" };
}

variable "Evolution" {
	type discrete[3] { "s0" "s1" "s2" };
}

variable "Historically-complex" {
	type discrete[2] { "s0" "s1" };
}

variable "Area_of_the_largest_spot" {
	type discrete[2] { "s0" "s1" };
}

variable "variable122" {
	type discrete[5] { "state0" "state1" "state2" "state3" "state4" };
}

probability ( "class" | "variable122" ) {
	table 0.0 5.035312129633908E-17 1.0396671630289245E-45 1.0 3.8895036829341174E-283 0.0 0.7331055166723864 0.22329644498691475 2.0149659821292882E-70 0.003110260810330692 0.0 0.266889000550282 0.5176619580686568 1.6029848509085734E-70 0.38728014657114873 0.0 5.482777331548997E-6 0.2003103038718515 1.2975659036079655E-65 0.33979564617202196 0.0 3.1183277139096037E-18 0.05873129307257694 5.667899156172736E-82 0.26981394644649864 1.0 0.0 0.0 0.0 0.0;
}
probability ( "largest_spot_size" | "variable122" ) {
	table 0.10084033613445378 0.025375029045124117 0.4892736622116944 0.0 0.36760188180484654 0.022408963585434174 0.0092460682820134 0.07394259242147333 0.0 0.01897273595690074 0.014005602240896359 3.740685488166429E-4 0.057919171474592204 0.0 0.5615713281384374 0.19047619047619047 0.5034882132927195 0.042378970554778704 0.0 0.04878538750691766 0.6722689075630253 0.4615166208313264 0.33648560333746136 0.010256410256410189 0.003068666592897744 0.0 0.0 0.0 0.9897435897435898 0.0;
}
probability ( "spot_distribution" | "variable122" ) {
	table 0.0 6.91387335876962E-24 1.4801963164888828E-15 0.0 0.4066364411854777 0.0 0.10930731466371589 0.49454938497449236 0.13333333333333333 0.5933635475528493 0.0 0.8906926853362842 0.5054506150255063 0.8666666666666667 1.1261673105095942E-8 1.0 0.0 0.0 0.0 0.0;
}
probability ( "Did_region_become_historically_complex" | "variable122" ) {
	table 0.35294117647058826 0.0 0.0 0.0 0.0 0.6470588235294118 1.0 1.0 1.0 1.0;
}
probability ( "variable113" | "variable122" ) {
	table 0.9989725431351439 0.9916087569883816 0.750486228195025 0.979294272702247 0.0032678524863259998 0.0010274568648561027 0.00839124301161848 0.24951377180497503 0.020705727297752982 0.996732147513674;
}
probability ( "Activity" | "variable113" ) {
	table 0.9411900327441816 0.3642357551421853 0.05880996725581845 0.6357642448578148;
}
probability ( "Previous_24_hour_flare_activity_code" | "variable113" ) {
	table 0.9872844683309506 0.7529883919061945 0.0034707815233781902 0.040778840175042 0.009244750145671209 0.20623276791876352;
}
probability ( "Area" | "variable113" ) {
	table 1.0 0.8246172712923345 5.165610505011297E-32 0.17538272870766544;
}
probability ( "C-class_flares_production_by_this_region" | "variable113" ) {
	table 0.9074952813022968 0.5017931478739867 0.07462420133109739 0.24827806621676968 0.009958223724411562 0.13926528919144474 0.0069015065636562015 0.047659552850242995 3.734566349576004E-20 0.03410219724871272 9.939037623185535E-4 0.009551735156312567 2.6883316219485106E-5 0.014478268998428806 5.24492181984616E-44 0.004871742464101817;
}
probability ( "M-class_flares_production_by_this_region" | "variable113" ) {
	table 0.9856515232189582 0.780794481993204 0.013633938676502467 0.14976963101898438 1.3252781512459616E-5 0.043778165221213215 7.012853230268809E-4 0.006170751910191102 1.2243673529964755E-42 0.01461522739230545 0.0 0.004871742464101817;
}
probability ( "X-class_flares_production_by_this_region" | "variable113" ) {
	table 0.9979350430945124 0.9520591162672885 0.002064956905487532 0.04306914126860964 0.0 0.004871742464101818;
}
probability ( "Evolution" | "variable122" ) {
	table 0.09523809523809523 0.08988195876753104 0.031527165367299284 0.08205128205128205 0.011386289270688452 0.5742296918767507 0.3843395121581201 0.44345352721438913 0.30769230769230765 0.44026442680785777 0.33053221288515405 0.5257785290743487 0.5250193074183117 0.6102564102564103 0.5483492839214539;
}
probability ( "Historically-complex" | "variable122" ) {
	table 0.6750700280112045 0.8089665462344519 0.3594909882336856 0.882051282051282 0.07051976566406938 0.32492997198879553 0.19103345376554823 0.6405090117663144 0.11794871794871795 0.9294802343359306;
}
probability ( "Area_of_the_largest_spot" | "variable122" ) {
	table 0.8235294117647058 0.8381549419879327 0.7312998084895672 0.9128205128205128 0.6951280488344984 0.17647058823529413 0.16184505801206722 0.2687001915104327 0.08717948717948718 0.3048719511655016;
}
probability ( "variable122"  ) {
	table 0.2853717026378897 0.21080976719574693 0.251619681651525 0.15587529976019185 0.09632354875464645;
}
