// ./temp\FinalBIModel.bif
// Produced by org.latlab at Fri Mar 05 17:48:08 CET 2021
network "HLCM7235" {
}

variable "variable156" {
	type discrete[2] { "state0" "state1" };
}

variable "Activity" {
	type discrete[2] { "s0" "s1" };
}

variable "Previous_24_hour_flare_activity_code" {
	type discrete[3] { "s0" "s1" "s2" };
}

variable "Area_of_the_largest_spot" {
	type discrete[2] { "s0" "s1" };
}

variable "C-class_flares_production_by_this_region" {
	type discrete[8] { "s0" "s1" "s2" "s3" "s4" "s5" "s6" "s7" };
}

variable "M-class_flares_production_by_this_region" {
	type discrete[6] { "s0" "s1" "s2" "s3" "s4" "s5" };
}

variable "X-class_flares_production_by_this_region" {
	type discrete[3] { "s0" "s1" "s2" };
}

variable "variable144" {
	type discrete[5] { "state0" "state1" "state2" "state3" "state4" };
}

variable "class" {
	type discrete[6] { "s0" "s1" "s2" "s3" "s4" "s5" };
}

variable "largest_spot_size" {
	type discrete[6] { "s0" "s1" "s2" "s3" "s4" "s5" };
}

variable "spot_distribution" {
	type discrete[4] { "s0" "s1" "s2" "s3" };
}

variable "Evolution" {
	type discrete[3] { "s0" "s1" "s2" };
}

variable "Historically-complex" {
	type discrete[2] { "s0" "s1" };
}

variable "Did_region_become_historically_complex" {
	type discrete[2] { "s0" "s1" };
}

variable "Area" {
	type discrete[2] { "s0" "s1" };
}

probability ( "variable156"  ) {
	table 0.20800877079355218 0.7919912292064478;
}
probability ( "Activity" | "variable156" ) {
	table 0.4108465447230516 0.9619582003413285 0.5891534552769483 0.038041799658671493;
}
probability ( "Previous_24_hour_flare_activity_code" | "variable156" ) {
	table 0.7880444050340615 0.9920818700671492 0.03016825207978954 0.002169650395651413 0.1817873428861489 0.005748479537199419;
}
probability ( "Area_of_the_largest_spot" | "variable144" ) {
	table 0.5877815903429485 0.907608695652174 0.7993011794920449 0.8245125348189415 0.7627359914579382 0.4122184096570514 0.09239130434782608 0.20069882050795515 0.17548746518105848 0.23726400854206178;
}
probability ( "C-class_flares_production_by_this_region" | "variable156" ) {
	table 0.5380990668396327 0.9154156049221054 0.2307658493499387 0.07362913278166529 0.11778872530840223 0.00539891137028165 0.05483210114980219 0.004775673796053869 0.03074333869831241 7.4531862398006995E-28 0.012945040066709972 6.373305102368827E-4 0.010982961249912685 1.4334661965685966E-4 0.0038429173372890512 1.9787347214389016E-68;
}
probability ( "M-class_flares_production_by_this_region" | "variable156" ) {
	table 0.7921229131921212 0.9910106896836499 0.154076244085832 0.00898931031635017 0.03458625603560148 4.542671133029644E-22 0.0038429173372890534 1.032119491E-314 0.011528752011867162 2.9604055156426526E-57 0.0038429173372890534 5.146265E-317;
}
probability ( "X-class_flares_production_by_this_region" | "variable144" ) {
	table 0.8508021787344999 1.0 0.999999999989249 0.9944289693593314 0.9934369907033785 0.1308676351003633 0.0 1.0751041363710598E-11 0.005571030640668524 0.006563009296621393 0.018330186165136677 0.0 0.0 0.0 5.118837155705574E-196;
}
probability ( "variable144" | "variable156" ) {
	table 0.20964966143174066 1.9754948136133786E-10 0.03186777222761869 0.17734231494511435 0.14296931167874796 0.3358492166071069 0.010577288718776492 0.3595623844492338 0.6049359659431162 0.1272460838009955;
}
probability ( "class" | "variable144" ) {
	table 0.0 1.0 3.83882912081454E-26 0.0 2.4313354175357892E-101 3.936725449908454E-24 1.4839747482367688E-81 0.6241291428049044 0.0 0.0744278186718397 0.3703450938608443 3.3067622210997104E-83 0.353352353536657 0.0 0.5046793006005481 0.38270369006195176 1.938224707839912E-71 0.022518502892434324 0.0 0.2990975290046843 0.24695121607720394 1.797057132212195E-91 7.660042519943279E-10 0.0 0.12179535172292802 0.0 0.0 0.0 1.0 0.0;
}
probability ( "largest_spot_size" | "variable144" ) {
	table 0.07363816772607265 0.0 0.11102266011615473 0.09192200557103064 0.5993504198345372 1.7672287264091463E-9 0.0 0.0280713843150477 0.027855153203342618 0.062135828484692845 0.9263618305066986 0.0 0.009899902958954643 0.013927576601671309 0.11217361324540355 1.3207892097463559E-33 0.0 0.36343885961330613 0.181058495821727 0.033664405596125206 8.36257264066433E-48 0.010869565217391304 0.4875671929965368 0.6852367688022284 0.19267573283924125 0.0 0.9891304347826086 0.0 0.0 0.0;
}
probability ( "spot_distribution" | "variable144" ) {
	table 0.7064854963516817 0.0 1.0076255627698489E-14 0.0 0.050999581302270225 0.2935145036483184 0.11413043478260869 0.1460264210985031 0.0 0.6806757507356211 2.391371820876177E-41 0.8858695652173914 0.8539735789014868 0.0 0.2683246679621086 0.0 0.0 0.0 1.0 0.0;
}
probability ( "Evolution" | "variable144" ) {
	table 1.1224093292623768E-30 0.08152173913043478 0.0699018974020811 0.09749303621169916 0.025183880267226354 0.38753372023171384 0.31521739130434784 0.3861269403898351 0.5598885793871866 0.4480178450115502 0.6124662797682862 0.6032608695652174 0.5439711622080838 0.3426183844011142 0.5267982747212234;
}
probability ( "Historically-complex" | "variable144" ) {
	table 0.023527774453009912 0.8967391304347826 0.7400492016410809 0.7047353760445683 0.23256838803912888 0.9764722255469901 0.10326086956521739 0.2599507983589192 0.29526462395543174 0.7674316119608712;
}
probability ( "Did_region_become_historically_complex" | "variable144" ) {
	table 0.0 0.0 0.0 0.4011142061281337 0.0 1.0 1.0 1.0 0.5988857938718662 1.0;
}
probability ( "Area" | "variable144" ) {
	table 0.39047989125692084 1.0 0.9999999208315554 1.0 0.9938349910509955 0.6095201087430792 0.0 7.91684445407873E-8 0.0 0.006165008949004521;
}
