// ./temp\FinalBIModel.bif
// Produced by org.latlab at Fri Mar 05 17:49:45 CET 2021
network "HLCM3141" {
}

variable "Evolution" {
	type discrete[3] { "s0" "s1" "s2" };
}

variable "Historically-complex" {
	type discrete[2] { "s0" "s1" };
}

variable "Area_of_the_largest_spot" {
	type discrete[2] { "s0" "s1" };
}

variable "variable94" {
	type discrete[2] { "state0" "state1" };
}

variable "Activity" {
	type discrete[2] { "s0" "s1" };
}

variable "Previous_24_hour_flare_activity_code" {
	type discrete[3] { "s0" "s1" "s2" };
}

variable "Area" {
	type discrete[2] { "s0" "s1" };
}

variable "C-class_flares_production_by_this_region" {
	type discrete[8] { "s0" "s1" "s2" "s3" "s4" "s5" "s6" "s7" };
}

variable "M-class_flares_production_by_this_region" {
	type discrete[6] { "s0" "s1" "s2" "s3" "s4" "s5" };
}

variable "X-class_flares_production_by_this_region" {
	type discrete[3] { "s0" "s1" "s2" };
}

variable "variable73" {
	type discrete[4] { "state0" "state1" "state2" "state3" };
}

variable "class" {
	type discrete[6] { "s0" "s1" "s2" "s3" "s4" "s5" };
}

variable "largest_spot_size" {
	type discrete[6] { "s0" "s1" "s2" "s3" "s4" "s5" };
}

variable "spot_distribution" {
	type discrete[4] { "s0" "s1" "s2" "s3" };
}

variable "Did_region_become_historically_complex" {
	type discrete[2] { "s0" "s1" };
}

probability ( "Evolution" | "variable73" ) {
	table 0.0156722377074013 0.0744156405416253 0.09169054441260745 0.08064516129032258 0.4421255380110327 0.39229936108995 0.5816618911174785 0.3118279569892473 0.5422022242815661 0.5332849983684247 0.32664756446991405 0.6075268817204301;
}
probability ( "Historically-complex" | "variable73" ) {
	table 0.1358767937320984 0.6808592658867686 0.7134670487106017 0.8978494623655914 0.8641232062679016 0.31914073411323146 0.28653295128939826 0.10215053763440861;
}
probability ( "Area_of_the_largest_spot" | "variable73" ) {
	table 0.7226743647401369 0.7957690897540056 0.8194842406876791 0.9086021505376344 0.2773256352598631 0.20423091024599435 0.18051575931232092 0.0913978494623656;
}
probability ( "variable94" | "variable73" ) {
	table 0.2788325430921574 0.9253617011868662 0.996502570278378 0.9839439890953867 0.7211674569078427 0.0746382988131338 0.0034974297216220527 0.01605601090461333;
}
probability ( "Activity" | "variable94" ) {
	table 0.9471403792452249 0.36588100061803014 0.05285962075477524 0.6341189993819699;
}
probability ( "Previous_24_hour_flare_activity_code" | "variable94" ) {
	table 0.9882170824857531 0.7449582588195038 0.003181942223206044 0.040510749916295344 0.008600975291040869 0.21453099126420078;
}
probability ( "Area" | "variable94" ) {
	table 1.0 0.8417361647898473 1.2778130375247992E-31 0.15826383521015272;
}
probability ( "C-class_flares_production_by_this_region" | "variable94" ) {
	table 0.9089789230276958 0.5406308658927351 0.07666459976400693 0.19812085513683791 0.008534233176884677 0.13106616408462388 0.005026814648193941 0.06419633228453522 3.420005769021613E-46 0.03723854946121241 7.954293832186743E-4 0.014782777092100787 8.152215055766755E-301 0.009309637365303103 8.886470250503552E-125 0.004654818682651551;
}
probability ( "M-class_flares_production_by_this_region" | "variable94" ) {
	table 0.9844324747282799 0.7678669150275707 0.015565421942625004 0.16232094946363568 6.357034534025498E-19 0.04189336814386397 2.103329094992482E-6 0.00929949263432361 7.334969848610108E-58 0.013964456047954656 0.0 0.004654818682651552;
}
probability ( "X-class_flares_production_by_this_region" | "variable94" ) {
	table 0.9976922156911111 0.9552730307124914 0.0023077843088888167 0.04007215060485713 0.0 0.0046548186826515505;
}
probability ( "variable73"  ) {
	table 0.19433920124905577 0.3780029250499051 0.2789768185451639 0.1486810551558753;
}
probability ( "class" | "variable73" ) {
	table 4.624327139600954E-264 2.7607231506632516E-51 0.0 1.0 0.029900366326103527 0.5429068087872313 0.0 1.419809583749804E-181 0.484078415681291 0.4087950018876304 0.0 5.706335712539003E-191 0.35360569683916804 0.038132097847372405 0.0 7.771953279383981E-174 0.13241552115343755 0.01016609147776585 0.0 2.141793406161553E-179 0.0 0.0 1.0 0.0;
}
probability ( "largest_spot_size" | "variable73" ) {
	table 0.5481480416912075 0.17495954007859163 0.10601719197707736 0.0 0.004393773990253767 0.03580556070858822 0.02865329512893983 0.0 0.3251178346973822 0.012599117262574696 0.011461318051575931 0.0 0.024308358350744356 0.3406564604575257 0.166189111747851 0.0 0.09803199127041215 0.43597932149271984 0.6876790830945558 0.010752688172043012 0.0 0.0 0.0 0.989247311827957;
}
probability ( "spot_distribution" | "variable73" ) {
	table 0.21388760649194943 3.1309053647095464E-62 0.0 0.0 0.6774539615984929 0.19306842447722203 0.0 0.10752688172043011 0.10865843190955768 0.8069315755227779 0.0 0.8924731182795699 0.0 0.0 1.0 0.0;
}
probability ( "Did_region_become_historically_complex" | "variable73" ) {
	table 0.0 0.0 0.3954154727793696 0.0 1.0 1.0 0.6045845272206304 1.0;
}
