// ./temp\FinalBIModel.bif
// Produced by org.latlab at Fri Mar 05 17:45:32 CET 2021
network "HLCM6975" {
}

variable "variable143" {
	type discrete[4] { "state0" "state1" "state2" "state3" };
}

variable "class" {
	type discrete[6] { "s0" "s1" "s2" "s3" "s4" "s5" };
}

variable "largest_spot_size" {
	type discrete[6] { "s0" "s1" "s2" "s3" "s4" "s5" };
}

variable "spot_distribution" {
	type discrete[4] { "s0" "s1" "s2" "s3" };
}

variable "Evolution" {
	type discrete[3] { "s0" "s1" "s2" };
}

variable "Historically-complex" {
	type discrete[2] { "s0" "s1" };
}

variable "Did_region_become_historically_complex" {
	type discrete[2] { "s0" "s1" };
}

variable "Area_of_the_largest_spot" {
	type discrete[2] { "s0" "s1" };
}

variable "variable151" {
	type discrete[2] { "state0" "state1" };
}

variable "Activity" {
	type discrete[2] { "s0" "s1" };
}

variable "Previous_24_hour_flare_activity_code" {
	type discrete[3] { "s0" "s1" "s2" };
}

variable "Area" {
	type discrete[2] { "s0" "s1" };
}

variable "C-class_flares_production_by_this_region" {
	type discrete[8] { "s0" "s1" "s2" "s3" "s4" "s5" "s6" "s7" };
}

variable "M-class_flares_production_by_this_region" {
	type discrete[6] { "s0" "s1" "s2" "s3" "s4" "s5" };
}

variable "X-class_flares_production_by_this_region" {
	type discrete[3] { "s0" "s1" "s2" };
}

probability ( "variable143"  ) {
	table 0.2941646682653877 0.3526026812448271 0.14228617106314947 0.21094647942663583;
}
probability ( "class" | "variable143" ) {
	table 0.0 3.1020298893529093E-43 1.0 2.491810427908857E-213 0.0 0.5486969356790484 4.687815013090483E-146 0.018820108600283915 0.0 0.4021152536660039 3.291214185745459E-152 0.4798310888459593 0.0 0.03851814347263164 5.280807446617239E-134 0.34108165384295097 0.0 0.010669667182316048 5.65328601700136E-155 0.16026714871080586 1.0 0.0 0.0 0.0;
}
probability ( "largest_spot_size" | "variable143" ) {
	table 0.09510869565217392 0.16642297620340962 0.0 0.5441192652140963 0.02717391304347826 0.02654250927003344 0.0 0.03521087826644209 0.01358695652173913 0.0072717372416349416 0.0 0.2682606695443153 0.18478260869565216 0.3662927511181917 0.0 0.035719208671678195 0.6793478260869565 0.43347002616673025 0.011235955056179775 0.11668997830346813 0.0 0.0 0.9887640449438202 0.0;
}
probability ( "spot_distribution" | "variable143" ) {
	table 0.0 9.444507861243979E-32 0.0 0.18568058198652201 0.0 0.16845118489790342 0.10112359550561797 0.673358047278503 0.0 0.8315488151020966 0.898876404494382 0.1409613707349749 1.0 0.0 0.0 0.0;
}
probability ( "Evolution" | "variable143" ) {
	table 0.09782608695652174 0.07183548252071362 0.0898876404494382 0.0163434567920613 0.5760869565217391 0.3888481334405915 0.29775280898876405 0.4716922380174721 0.32608695652173914 0.539316384038695 0.6123595505617978 0.5119643051904667;
}
probability ( "Historically-complex" | "variable143" ) {
	table 0.6766304347826086 0.6844937273074706 0.8764044943820225 0.12150990809181894 0.3233695652173913 0.3155062726925293 0.12359550561797752 0.878490091908181;
}
probability ( "Did_region_become_historically_complex" | "variable143" ) {
	table 0.37771739130434784 0.0 0.0 0.0 0.6222826086956522 1.0 1.0 1.0;
}
probability ( "Area_of_the_largest_spot" | "variable143" ) {
	table 0.9021739130434783 0.8932228692878097 0.9831460674157303 0.8260666634829976 0.09782608695652174 0.10677713071219036 0.016853932584269662 0.17393333651700224;
}
probability ( "variable151" | "variable143" ) {
	table 0.0016461864368120132 0.07608476999932126 2.3106000830629385E-7 0.7486750020491867 0.9983538135631881 0.9239152300006787 0.9999997689399917 0.25132499795081326;
}
probability ( "Activity" | "variable151" ) {
	table 0.38547658297929394 0.9542890027507996 0.614523417020706 0.04571099724920036;
}
probability ( "Previous_24_hour_flare_activity_code" | "variable151" ) {
	table 0.7815632357553391 0.9927595968993995 0.04188037827088928 0.003232455238644279 0.17655638597377143 0.004007947861956188;
}
probability ( "Area" | "variable151" ) {
	table 0.848967471336881 1.0 0.15103252866311903 8.918333280764735E-33;
}
probability ( "C-class_flares_production_by_this_region" | "variable151" ) {
	table 0.5049189756842197 0.9183028031591584 0.24679290689243924 0.06750833152250187 0.11522440433825627 0.008141292485715207 0.06635803117559724 0.00453496039240614 0.038836935941944865 3.4021440291984687E-38 0.013904249285171673 7.631551083343742E-4 0.009649281577710516 7.494573318841657E-4 0.0043152151046605405 1.337782303226146E-113;
}
probability ( "M-class_flares_production_by_this_region" | "variable151" ) {
	table 0.819203179731109 0.9910695392364258 0.1290142390257757 0.008930460760661512 0.034521720837284345 6.374059795574561E-28 0.008630430196509904 2.912735213753239E-12 0.004315215104660543 0.0 0.004315215104660543 0.0;
}
probability ( "X-class_flares_production_by_this_region" | "variable151" ) {
	table 0.9620285689561959 0.9988221176723262 0.03365621593914355 0.0011778823276737697 0.004315215104660544 0.0;
}
