// ./temp\FinalBIModel.bif
// Produced by org.latlab at Fri Mar 05 17:46:35 CET 2021
network "HLCM3239" {
}

variable "variable83" {
	type discrete[4] { "state0" "state1" "state2" "state3" };
}

variable "class" {
	type discrete[6] { "s0" "s1" "s2" "s3" "s4" "s5" };
}

variable "largest_spot_size" {
	type discrete[6] { "s0" "s1" "s2" "s3" "s4" "s5" };
}

variable "spot_distribution" {
	type discrete[4] { "s0" "s1" "s2" "s3" };
}

variable "Did_region_become_historically_complex" {
	type discrete[2] { "s0" "s1" };
}

variable "variable100" {
	type discrete[2] { "state0" "state1" };
}

variable "Activity" {
	type discrete[2] { "s0" "s1" };
}

variable "Evolution" {
	type discrete[3] { "s0" "s1" "s2" };
}

variable "Previous_24_hour_flare_activity_code" {
	type discrete[3] { "s0" "s1" "s2" };
}

variable "Historically-complex" {
	type discrete[2] { "s0" "s1" };
}

variable "Area" {
	type discrete[2] { "s0" "s1" };
}

variable "Area_of_the_largest_spot" {
	type discrete[2] { "s0" "s1" };
}

variable "C-class_flares_production_by_this_region" {
	type discrete[8] { "s0" "s1" "s2" "s3" "s4" "s5" "s6" "s7" };
}

variable "M-class_flares_production_by_this_region" {
	type discrete[6] { "s0" "s1" "s2" "s3" "s4" "s5" };
}

variable "X-class_flares_production_by_this_region" {
	type discrete[3] { "s0" "s1" "s2" };
}

probability ( "variable83"  ) {
	table 0.2217848866320182 0.33297130841194666 0.2869704236610711 0.15827338129496402;
}
probability ( "class" | "variable83" ) {
	table 7.984370094811534E-120 1.2868407495716196E-22 0.0 1.0 0.04969977604878894 0.595876551005061 0.0 1.266257974474414E-98 0.5195031116650405 0.3837797839322318 0.0 6.167980937209485E-101 0.30280538153801445 0.007167906759903019 0.0 4.186849535700556E-89 0.12799173074815606 0.013175758302804045 0.0 1.2097308083410842E-93 0.0 0.0 1.0 0.0;
}
probability ( "largest_spot_size" | "variable83" ) {
	table 0.5071857309059564 0.15911730149246964 0.10863509749303621 0.0 0.04652455892581537 0.03142892198220652 0.019498607242339833 0.0 0.29540073030120956 0.00249722711883779 0.013927576601671309 0.0 0.024241979897172226 0.38236729995761615 0.20055710306406685 0.0 0.12664699996984644 0.42458924944886994 0.6573816155988857 0.010101010101010102 0.0 0.0 0.0 0.98989898989899;
}
probability ( "spot_distribution" | "variable83" ) {
	table 0.16218969456320795 4.6723181956286085E-35 0.0 0.0 0.6971104280668577 0.15984913537635537 0.0 0.13131313131313133 0.14069987736993428 0.8401508646236446 0.0 0.8686868686868687 0.0 0.0 1.0 0.0;
}
probability ( "Did_region_become_historically_complex" | "variable83" ) {
	table 0.0 0.0 0.37604456824512533 0.0 1.0 1.0 0.6239554317548747 1.0;
}
probability ( "variable100" | "variable83" ) {
	table 0.1842575197436928 0.9435295978590316 0.9881705579618794 0.9904692915075227 0.8157424802563072 0.05647040214096846 0.011829442038120584 0.00953070849247727;
}
probability ( "Activity" | "variable100" ) {
	table 0.9540911813699225 0.4909103199270411 0.045908818630077515 0.5090896800729589;
}
probability ( "Evolution" | "variable83" ) {
	table 0.007039722692660296 0.08173579413720199 0.08913649025069638 0.0707070707070707 0.42224665427324404 0.3957450224414498 0.5682451253481894 0.3282828282828283 0.5707136230340957 0.5225191834213482 0.3426183844011142 0.601010101010101;
}
probability ( "Previous_24_hour_flare_activity_code" | "variable100" ) {
	table 0.987412464255807 0.7911013924701367 0.003924951629377154 0.03552772804989722 0.008662584114815963 0.17337087947996618;
}
probability ( "Historically-complex" | "variable100" ) {
	table 0.7214102544083324 0.11792451665348958 0.27858974559166755 0.8820754833465104;
}
probability ( "Area" | "variable100" ) {
	table 1.0 0.8867127952706649 2.2797063189734347E-102 0.1132872047293351;
}
probability ( "Area_of_the_largest_spot" | "variable83" ) {
	table 0.7054450511329857 0.8024836185640885 0.8245125348189415 0.9141414141414141 0.2945549488670143 0.19751638143591152 0.17548746518105848 0.08585858585858586;
}
probability ( "C-class_flares_production_by_this_region" | "variable100" ) {
	table 0.9294310395103954 0.5750443242302676 0.062029924977646644 0.21985292319803648 0.005854391004019912 0.0944377849347212 0.0011194091878684196 0.05424571380510114 2.5303234813141155E-75 0.035158098019448816 9.92684475894827E-4 0.007860825645658287 5.725508441748098E-4 0.009493874831272106 1.1744937956756064E-63 0.003906455335494313;
}
probability ( "M-class_flares_production_by_this_region" | "variable100" ) {
	table 0.9852918302787046 0.8032507003835453 0.014708169579527046 0.13815247013509008 1.417683433246692E-10 0.03515809746839872 2.1680787299599866E-33 0.007812910670988627 9.457663529246544E-73 0.01171936600648294 0.0 0.003906455335494313;
}
probability ( "X-class_flares_production_by_this_region" | "variable100" ) {
	table 0.9984569691658977 0.9630267145498842 0.0015430308341023628 0.033066830114621505 0.0 0.003906455335494314;
}
