// ./temp\FinalBIModel.bif
// Produced by org.latlab at Fri Mar 05 17:51:49 CET 2021
network "HLCM3637" {
}

variable "variable81" {
	type discrete[4] { "state0" "state1" "state2" "state3" };
}

variable "class" {
	type discrete[6] { "s0" "s1" "s2" "s3" "s4" "s5" };
}

variable "largest_spot_size" {
	type discrete[6] { "s0" "s1" "s2" "s3" "s4" "s5" };
}

variable "spot_distribution" {
	type discrete[4] { "s0" "s1" "s2" "s3" };
}

variable "Did_region_become_historically_complex" {
	type discrete[2] { "s0" "s1" };
}

variable "variable102" {
	type discrete[2] { "state0" "state1" };
}

variable "Activity" {
	type discrete[2] { "s0" "s1" };
}

variable "Previous_24_hour_flare_activity_code" {
	type discrete[3] { "s0" "s1" "s2" };
}

variable "Area" {
	type discrete[2] { "s0" "s1" };
}

variable "Area_of_the_largest_spot" {
	type discrete[2] { "s0" "s1" };
}

variable "C-class_flares_production_by_this_region" {
	type discrete[8] { "s0" "s1" "s2" "s3" "s4" "s5" "s6" "s7" };
}

variable "M-class_flares_production_by_this_region" {
	type discrete[6] { "s0" "s1" "s2" "s3" "s4" "s5" };
}

variable "Evolution" {
	type discrete[3] { "s0" "s1" "s2" };
}

variable "Historically-complex" {
	type discrete[2] { "s0" "s1" };
}

variable "X-class_flares_production_by_this_region" {
	type discrete[3] { "s0" "s1" "s2" };
}

probability ( "variable81"  ) {
	table 0.27777777777777773 0.16344605475040255 0.3460620778398461 0.21271408963197355;
}
probability ( "class" | "variable81" ) {
	table 0.0 1.0 0.0 0.0 0.0 0.0 0.5973944912624893 0.04630897957642705 0.0 0.0 0.3549262647174919 0.5089102679148823 0.0 0.0 0.038438683992545096 0.2932678756176754 0.0 0.0 0.009240560027473714 0.1515128768910152 1.0 0.0 0.0 0.0;
}
probability ( "largest_spot_size" | "variable81" ) {
	table 0.11014492753623188 0.0 0.1554919976528361 0.5419116430326432 0.028985507246376812 0.0 0.025311213723960807 0.04587974083635533 0.014492753623188406 0.0 0.009280943192562875 0.24229057971724832 0.19420289855072465 0.0 0.37186549818553244 0.03849044262349768 0.6521739130434783 0.0 0.4380503472451077 0.13142759379025543 0.0 1.0 0.0 0.0;
}
probability ( "spot_distribution" | "variable81" ) {
	table 0.0 0.0 3.955334775905472E-53 0.1514056695462071 0.0 0.12315270935960591 0.16423538644842067 0.68666307853973 0.0 0.8768472906403941 0.8357646135515794 0.16193125191406288 1.0 0.0 0.0 0.0;
}
probability ( "Did_region_become_historically_complex" | "variable81" ) {
	table 0.3536231884057971 0.0 0.0 0.0 0.6463768115942029 1.0 1.0 1.0;
}
probability ( "variable102" | "variable81" ) {
	table 0.009374416644419844 0.037336515938500486 0.09888798258624806 0.727657993526919 0.9906255833555802 0.9626634840614995 0.9011120174137519 0.2723420064730811;
}
probability ( "Activity" | "variable102" ) {
	table 0.40326557611517827 0.959387891607818 0.5967344238848218 0.04061210839218205;
}
probability ( "Previous_24_hour_flare_activity_code" | "variable102" ) {
	table 0.7923789120793399 0.9919542047770749 0.030075749331853106 0.0016204514298471145 0.17754533858880708 0.0064253437930780685;
}
probability ( "Area" | "variable102" ) {
	table 0.9144801623289882 1.0 0.08551983767101182 5.97740160372089E-44;
}
probability ( "Area_of_the_largest_spot" | "variable81" ) {
	table 0.8173913043478261 0.916256157635468 0.8018839889529362 0.7015493884755047 0.1826086956521739 0.08374384236453201 0.19811601104706383 0.29845061152449515;
}
probability ( "C-class_flares_production_by_this_region" | "variable102" ) {
	table 0.5220008876842738 0.9220989584442416 0.24389251916730126 0.06534289846013394 0.11695250777383155 0.007307479057717894 0.061177418563752105 0.00399165144270912 0.028506612557003937 2.915548655597745E-44 0.01367135357704638 6.451976023007179E-4 0.00972632745436179 6.138149928965859E-4 0.004072373222429134 3.144897563408302E-143;
}
probability ( "M-class_flares_production_by_this_region" | "variable102" ) {
	table 0.8190994675569654 0.9853693610130795 0.14017680021874324 0.013627069228019869 0.028506612557003944 2.4310344724712975E-40 2.863749109263081E-35 0.0010035697589007352 0.012217119667287404 8.539885030680396E-100 0.0 0.0;
}
probability ( "Evolution" | "variable81" ) {
	table 0.10144927536231885 0.07389162561576355 0.080811166171513 0.01236463993092564 0.5652173913043478 0.31527093596059114 0.3978635990582204 0.42013030948871405 0.3333333333333333 0.6108374384236454 0.5213252347702666 0.5675050505803603;
}
probability ( "Historically-complex" | "variable81" ) {
	table 0.6840579710144927 0.8866995073891626 0.7018585639987142 0.1715986505265221 0.3159420289855073 0.11330049261083744 0.2981414360012858 0.8284013494734779;
}
probability ( "X-class_flares_production_by_this_region" | "variable81" ) {
	table 0.9942028985507246 1.0 0.9999999999999954 0.9772891495680762 0.005797101449275362 0.0 4.464434579752128E-15 0.022710850431923814 0.0 0.0 0.0 0.0;
}
