// ./temp\FinalBIModel.bif
// Produced by org.latlab at Fri Mar 05 17:44:03 CET 2021
network "HLCM4397" {
}

variable "variable117" {
	type discrete[2] { "state0" "state1" };
}

variable "Activity" {
	type discrete[2] { "s0" "s1" };
}

variable "Previous_24_hour_flare_activity_code" {
	type discrete[3] { "s0" "s1" "s2" };
}

variable "Area" {
	type discrete[2] { "s0" "s1" };
}

variable "C-class_flares_production_by_this_region" {
	type discrete[8] { "s0" "s1" "s2" "s3" "s4" "s5" "s6" "s7" };
}

variable "M-class_flares_production_by_this_region" {
	type discrete[6] { "s0" "s1" "s2" "s3" "s4" "s5" };
}

variable "variable99" {
	type discrete[4] { "state0" "state1" "state2" "state3" };
}

variable "class" {
	type discrete[6] { "s0" "s1" "s2" "s3" "s4" "s5" };
}

variable "largest_spot_size" {
	type discrete[6] { "s0" "s1" "s2" "s3" "s4" "s5" };
}

variable "spot_distribution" {
	type discrete[4] { "s0" "s1" "s2" "s3" };
}

variable "Did_region_become_historically_complex" {
	type discrete[2] { "s0" "s1" };
}

variable "Evolution" {
	type discrete[3] { "s0" "s1" "s2" };
}

variable "Historically-complex" {
	type discrete[2] { "s0" "s1" };
}

variable "Area_of_the_largest_spot" {
	type discrete[2] { "s0" "s1" };
}

variable "X-class_flares_production_by_this_region" {
	type discrete[3] { "s0" "s1" "s2" };
}

probability ( "variable117"  ) {
	table 0.19776341613384296 0.802236583866157;
}
probability ( "Activity" | "variable117" ) {
	table 0.40863529851251745 0.9524758201405745 0.5913647014874827 0.04752417985942547;
}
probability ( "Previous_24_hour_flare_activity_code" | "variable117" ) {
	table 0.8042076071844125 0.9914701263417036 0.0386103641856867 0.003435357083648122 0.15718202862990063 0.005094516574648285;
}
probability ( "Area" | "variable117" ) {
	table 0.8544878573608861 1.0 0.14551214263911388 2.9706434443008154E-47;
}
probability ( "C-class_flares_production_by_this_region" | "variable117" ) {
	table 0.5012073150299317 0.9157056129717699 0.2462854465075362 0.0708136943977548 0.12527436201218323 0.007978162920065885 0.06447595655769488 0.004034003022987894 0.03637803565977848 2.130035109637275E-58 0.013158059880379836 7.419995381619753E-4 0.009178820390298072 7.265271492593797E-4 0.004042003962197609 5.1102469659408857E-138;
}
probability ( "M-class_flares_production_by_this_region" | "variable117" ) {
	table 0.8131095027693769 0.9872828449689917 0.1343444457220545 0.012717155031008204 0.028294027735383254 1.8832978498884804E-18 0.008084007924394954 6.488201405154937E-17 0.012126011886592826 1.9389448473412554E-69 0.004042003962197609 0.0;
}
probability ( "variable99" | "variable117" ) {
	table 0.027171432408660476 0.1776385946688187 0.8283787092065925 0.04247340141751544 4.5163459510501516E-5 0.3716516363619825 0.1444046949252366 0.40823636755168335;
}
probability ( "class" | "variable99" ) {
	table 1.0 8.17823955051439E-249 0.0 7.794136561566313E-54 8.845601930557595E-170 0.01757924458932522 0.0 0.5694435540079484 1.5158141608601346E-177 0.41781179677480756 0.0 0.3761811812717893 1.9585133325447428E-157 0.38357051861076835 0.0 0.04274489119025818 6.4335434157255215E-174 0.1810384400250988 0.0 0.011630373530004231 0.0 0.0 1.0 0.0;
}
probability ( "largest_spot_size" | "variable99" ) {
	table 0.0 0.5362928014601538 0.10455764075067024 0.17338398377845263 0.0 0.04178849601692205 0.021447721179624665 0.037389550176491995 0.0 0.2712000779402752 0.005361930294906166 0.006419224932393742 0.0 0.035144840584394696 0.18498659517426275 0.35987428105997776 0.010810810810810811 0.1155737839982544 0.6836461126005362 0.42293296005268394 0.9891891891891892 0.0 0.0 0.0;
}
probability ( "spot_distribution" | "variable99" ) {
	table 0.0 0.18984621915136174 0.0 6.820951500738835E-55 0.12432432432432433 0.6676541799683255 0.0 0.19017450396337612 0.8756756756756757 0.14249960088031277 0.0 0.8098254960366238 0.0 0.0 1.0 0.0;
}
probability ( "Did_region_become_historically_complex" | "variable99" ) {
	table 0.0 0.0 0.38873994638069703 0.0 1.0 1.0 0.6112600536193029 1.0;
}
probability ( "Evolution" | "variable99" ) {
	table 0.0918918918918919 0.01736901724523862 0.09919571045576407 0.062186872153647155 0.33513513513513515 0.46105074387400347 0.5630026809651475 0.3880694052272572 0.572972972972973 0.5215802388807579 0.3378016085790885 0.5497437226190957;
}
probability ( "Historically-complex" | "variable99" ) {
	table 0.8702702702702703 0.12073627037019592 0.6916890080428955 0.6849755124177986 0.12972972972972974 0.8792637296298041 0.30831099195710454 0.31502448758220136;
}
probability ( "Area_of_the_largest_spot" | "variable99" ) {
	table 0.9243243243243243 0.8376752234167635 0.8900804289544236 0.8702079019967789 0.07567567567567568 0.16232477658323655 0.10991957104557641 0.12979209800322106;
}
probability ( "X-class_flares_production_by_this_region" | "variable99" ) {
	table 1.0 0.9717250311902227 0.9973190348525469 1.0 0.0 0.024235687551237683 0.002680965147453083 4.750484848470182E-137 0.0 0.004039281258539614 0.0 0.0;
}
