// ./temp\FinalBIModel.bif
// Produced by org.latlab at Fri Mar 05 17:54:16 CET 2021
network "HLCM3867" {
}

variable "variable118" {
	type discrete[3] { "state0" "state1" "state2" };
}

variable "web_traffic" {
	type discrete[3] { "s0" "s1" "s2" };
}

variable "URL_Length" {
	type discrete[3] { "s0" "s1" "s2" };
}

variable "age_of_domain" {
	type discrete[2] { "s0" "s1" };
}

variable "having_IP_Address" {
	type discrete[2] { "s0" "s1" };
}

variable "variable107" {
	type discrete[6] { "state0" "state1" "state2" "state3" "state4" "state5" };
}

variable "SFH" {
	type discrete[3] { "s0" "s1" "s2" };
}

variable "popUpWidnow" {
	type discrete[3] { "s0" "s1" "s2" };
}

variable "SSLfinal_State" {
	type discrete[3] { "s0" "s1" "s2" };
}

variable "Request_URL" {
	type discrete[3] { "s0" "s1" "s2" };
}

variable "URL_of_Anchor" {
	type discrete[3] { "s0" "s1" "s2" };
}

variable "Result" {
	type discrete[3] { "s0" "s1" "s2" };
}

probability ( "variable118"  ) {
	table 0.5288138096429579 0.15161205074407752 0.31957413961296466;
}
probability ( "web_traffic" | "variable118" ) {
	table 0.026993108729125245 0.6817157927058869 0.6312944110527595 0.3597435295104794 0.31828420729411305 0.3687055889472404 0.6132633617603953 5.6953391232151E-132 4.947202817229302E-82;
}
probability ( "URL_Length" | "variable118" ) {
	table 0.3196837459546463 0.6828253915723136 8.111429595623977E-7 0.24612540188673215 0.06689793266168528 0.5423838607927227 0.4341908521586216 0.25027667576600104 0.45761532806431776;
}
probability ( "age_of_domain" | "variable118" ) {
	table 1.0 0.0683975463005699 0.23449271853017065 4.053730338424623E-59 0.9316024536994301 0.7655072814698293;
}
probability ( "having_IP_Address" | "variable118" ) {
	table 0.8545945468414752 0.7652754992352749 1.0 0.14540545315852496 0.23472450076472517 5.641688124191723E-38;
}
probability ( "variable107" | "variable118" ) {
	table 0.1013092164637726 0.13077207301290397 0.36696388274759795 0.2850112925892962 0.22800958039480027 0.15947687712738065 0.21498522799366498 0.2523112138519763 0.007185707969226429 0.0710449675057979 0.12870148970048925 0.131769541143939 0.16365469465915933 0.08322369373935616 0.2720763178352333 0.16399460078830896 0.17698194930047387 0.06252767317662263;
}
probability ( "SFH" | "variable107" ) {
	table 0.017571217497031597 0.9540183667248406 0.975348111371315 4.551411710467394E-112 0.376711739679305 0.8347653475812045 0.9824287825029684 0.03904213636521026 0.024651888628685 2.434158320877447E-57 0.6092297658476744 0.16523465241879545 1.381974882485285E-34 0.006939496909949081 0.0 1.0 0.014058494473020577 0.0;
}
probability ( "popUpWidnow" | "variable107" ) {
	table 0.5484593059005999 0.18559706612909577 0.07414266206163428 0.5531993767618639 0.8845666755089345 0.07341915682975061 0.45154069409940006 0.5951975044063185 0.5802681444399945 0.4468006232381361 0.11543332449106555 0.699096112072819 0.0 0.2192054294645857 0.34558919349837114 0.0 7.762456552266749E-57 0.2274847310974304;
}
probability ( "SSLfinal_State" | "variable107" ) {
	table 0.12986639832785804 0.715313158484235 0.8853214305332006 0.16494819258553733 0.4568351222567813 0.8804511932510904 0.6471633019795816 0.14324321387506267 0.10904090544804908 0.5462837389864669 3.789944654771887E-20 0.036889416888396746 0.22297029969256027 0.14144362764070237 0.005637664018750307 0.2887680684279958 0.5431648777432186 0.08265938986051266;
}
probability ( "Request_URL" | "variable107" ) {
	table 0.6921586219553475 0.18035831517167528 1.0 0.0 0.6903707957882864 1.878157108329079E-6 0.2537564264105257 4.596792421306637E-45 3.9932025334516615E-62 1.0 0.15265161642380884 0.9999981218428916 0.05408495163412681 0.8196416848283248 5.583908041096501E-28 0.0 0.15697758778790474 9.906641404945387E-24;
}
probability ( "URL_of_Anchor" | "variable107" ) {
	table 0.8786357596966347 0.022895986878023314 0.3953258664304719 0.0 0.6408936263015705 0.748936574790817 7.221318177678609E-21 0.12877257162787017 0.002801154900325665 0.32214793420307464 0.12203518222900074 0.25106342520918307 0.12136424030336543 0.8483314414941066 0.6018729786692024 0.6778520657969254 0.23707119146942865 1.3082589538764944E-116;
}
probability ( "Result" | "variable107" ) {
	table 0.009102411795419894 1.4664749227311283E-108 0.20458374129605342 0.11537203858786432 0.1610811018734004 5.674140567778683E-172 0.9908975882045801 0.02233795653268069 3.416127404494127E-129 0.8846279614121356 0.6774697694175762 4.6324220538574236E-123 1.7665763321453544E-52 0.9776620434673193 0.7954162587039467 0.0 0.1614491287090234 1.0;
}
