// ./temp\FinalBIModel.bif
// Produced by org.latlab at Fri Mar 05 17:58:20 CET 2021
network "HLCM4145" {
}

variable "variable123" {
	type discrete[2] { "state0" "state1" };
}

variable "URL_Length" {
	type discrete[3] { "s0" "s1" "s2" };
}

variable "having_IP_Address" {
	type discrete[2] { "s0" "s1" };
}

variable "SFH" {
	type discrete[3] { "s0" "s1" "s2" };
}

variable "popUpWidnow" {
	type discrete[3] { "s0" "s1" "s2" };
}

variable "SSLfinal_State" {
	type discrete[3] { "s0" "s1" "s2" };
}

variable "Request_URL" {
	type discrete[3] { "s0" "s1" "s2" };
}

variable "URL_of_Anchor" {
	type discrete[3] { "s0" "s1" "s2" };
}

variable "Result" {
	type discrete[3] { "s0" "s1" "s2" };
}

variable "variable121" {
	type discrete[2] { "state0" "state1" };
}

variable "web_traffic" {
	type discrete[3] { "s0" "s1" "s2" };
}

variable "age_of_domain" {
	type discrete[2] { "s0" "s1" };
}

variable "variable129" {
	type discrete[7] { "state0" "state1" "state2" "state3" "state4" "state5" "state6" };
}

probability ( "variable123"  ) {
	table 0.6310324221553032 0.3689675778446969;
}
probability ( "URL_Length" | "variable123" ) {
	table 0.40983740377119116 1.7236479389933313E-10 0.1888379011187974 0.5359553137509093 0.40132469511001145 0.4640446860767259;
}
probability ( "having_IP_Address" | "variable123" ) {
	table 0.811344687106552 1.0 0.18865531289344792 3.0481718999223234E-31;
}
probability ( "SFH" | "variable129" ) {
	table 0.9803608852007893 0.023998802501935573 0.20866962968736544 0.9525303373043086 0.893625568690918 7.800907292391258E-66 0.8266198070921248 0.01963911479921057 0.9760011974980644 0.7671377849595635 0.0380485001562772 0.106374431309082 4.5033518411347944E-35 0.17338019290787524 0.0 7.046571635381296E-48 0.024192585353071113 0.009421162539414336 7.234718144130015E-101 1.0 0.0;
}
probability ( "popUpWidnow" | "variable129" ) {
	table 0.12389685977783545 0.5300580807692661 0.8159811312128272 0.1286947733548198 0.9187406482446575 0.5522021945055843 0.08367811759719736 0.5637512216076755 0.469941919230734 0.18401886878717275 0.6214826086008965 0.08125935175534231 0.4477978054944157 0.6882207747970963 0.3123519186144891 3.789640753146557E-238 1.6092846988161394E-59 0.24982261804428368 1.1163108688747922E-16 0.0 0.22810110760570623;
}
probability ( "SSLfinal_State" | "variable129" ) {
	table 0.8622093839650468 0.04568139218849253 0.5934430161763974 0.7964476718589432 6.503582868443011E-8 0.1783255091810989 0.8734949872181955 0.11275400813658662 0.7391326703199496 1.3068571168500212E-13 0.1407728313971842 0.0038533171144205024 0.5785384921349813 0.04678881978212863 0.02503660789836668 0.215185937491558 0.40655698382347194 0.0627794967438727 0.9961466178497509 0.24313599868391977 0.07971619299967594;
}
probability ( "Request_URL" | "variable129" ) {
	table 0.9999999992310803 0.6855620820825363 0.7450861121464941 1.2639255702699207E-4 0.39865761290505425 0.0 6.78470009244618E-11 4.6977542160930344E-27 0.24826646994614707 0.18924092847740315 1.2223678289760664E-25 0.07109152511127309 1.0 0.999999999932153 7.689197183419564E-10 0.06617144797131656 0.06567295937610271 0.9998736074429729 0.5302508619836727 0.0 2.4621377636970823E-18;
}
probability ( "URL_of_Anchor" | "variable129" ) {
	table 0.321051366091197 0.867831125389241 0.734367450888375 0.010978739748371881 0.3345503798448344 0.0 0.7377181918290479 5.024103121532227E-88 2.0127558679193484E-62 0.11487655754426124 0.17151735707634552 0.11715030614974904 0.3246659333989222 0.26228180817095215 0.6789486339088031 0.13216887461075902 0.15075599156736383 0.8175039031752825 0.5482993140054166 0.6753340666010779 3.296714942801824E-41;
}
probability ( "Result" | "variable129" ) {
	table 0.13615146290743185 0.011300529084385866 0.19069239259033052 1.5722875004823773E-182 4.891620425643346E-102 0.0887599939190397 7.758873104804802E-93 2.6962470177809803E-76 0.9886994709156142 0.731193869716697 0.004410332164395784 0.48904424867475776 0.9112400060809602 2.4916104246666313E-55 0.8638485370925681 3.607285778186056E-54 0.07811373769297254 0.9955896678356042 0.5109557513252423 0.0 1.0;
}
probability ( "variable121" | "variable129" ) {
	table 0.33052814619541565 0.6517767353183418 0.6716538200620495 0.344758360686987 0.12747276029756247 0.5905606937616165 0.37223273131232837 0.6694718538045844 0.34822326468165815 0.32834617993795046 0.655241639313013 0.8725272397024375 0.4094393062383836 0.6277672686876716;
}
probability ( "web_traffic" | "variable121" ) {
	table 0.6928127085937049 0.014083632068597461 0.3071872914062952 0.3757656054579339 2.031943524884959E-65 0.6101507624734686;
}
probability ( "age_of_domain" | "variable121" ) {
	table 0.1596687235342037 1.0 0.8403312764657962 1.4231456018508791E-34;
}
probability ( "variable129" | "variable123" ) {
	table 0.29988237898129444 6.394625992359653E-7 0.07659385113859297 0.28702059775533356 0.08428526622786542 0.34130989730496447 0.2341601032279929 0.07165244243197794 0.05028961617891813 0.08223876361753514 0.07800041243089338 0.1396790473119626 0.17678837181444296 0.0780986121156271;
}
