// ./temp\FinalBIModel.bif
// Produced by org.latlab at Fri Mar 05 17:53:32 CET 2021
network "HLCM3999" {
}

variable "variable111" {
	type discrete[7] { "state0" "state1" "state2" "state3" "state4" "state5" "state6" };
}

variable "SFH" {
	type discrete[3] { "s0" "s1" "s2" };
}

variable "popUpWidnow" {
	type discrete[3] { "s0" "s1" "s2" };
}

variable "SSLfinal_State" {
	type discrete[3] { "s0" "s1" "s2" };
}

variable "Request_URL" {
	type discrete[3] { "s0" "s1" "s2" };
}

variable "URL_of_Anchor" {
	type discrete[3] { "s0" "s1" "s2" };
}

variable "Result" {
	type discrete[3] { "s0" "s1" "s2" };
}

variable "variable122" {
	type discrete[3] { "state0" "state1" "state2" };
}

variable "web_traffic" {
	type discrete[3] { "s0" "s1" "s2" };
}

variable "URL_Length" {
	type discrete[3] { "s0" "s1" "s2" };
}

variable "age_of_domain" {
	type discrete[2] { "s0" "s1" };
}

variable "having_IP_Address" {
	type discrete[2] { "s0" "s1" };
}

probability ( "variable111"  ) {
	table 0.139751663869751 0.06134236305748496 0.10164556376608054 0.1514288154431875 0.17940485587143154 0.23451934888936635 0.13190738910269803;
}
probability ( "SFH" | "variable111" ) {
	table 0.8221304090916121 0.9013541927744785 2.402583802332756E-94 0.022324469462961297 0.2537117909146793 0.9601338295789457 0.9579039483160123 0.17786959090838794 0.09864580722552156 3.2036772542205274E-74 0.9776755305370387 0.7270850619131397 0.03636697755546007 0.04209605168398772 0.0 4.0394307943112144E-166 1.0 2.1393048642142124E-79 0.019203147172181058 0.003499192865594399 0.0;
}
probability ( "popUpWidnow" | "variable111" ) {
	table 0.09141751242703385 0.7478601409656315 0.5559989871624995 0.5240973256843076 0.8276790395826534 0.1380701336528657 0.0918920723386292 0.6853386644778359 0.2521398590343686 0.4440010128375005 0.47590267431569233 0.17232096041734654 0.6315029043138417 0.558433709495492 0.22324382309513022 5.2287043739540365E-20 0.0 0.0 1.4358695404603813E-93 0.2304269620332926 0.34967421816587885;
}
probability ( "SSLfinal_State" | "variable111" ) {
	table 0.8808803551198608 1.6382772252511164E-7 0.1608866802697127 0.06522778663330878 0.5319267581820704 0.844475428518986 0.8754696992377177 0.04691254091591921 0.11313232697885907 0.5734857505868426 0.7629251564809647 1.4976360477642164E-31 0.1127745654513163 0.11598422787115009 0.07220710396421996 0.8868675091934185 0.2656275691434447 0.17184705688572643 0.4680732418179297 0.04275000602969753 0.008546072891132172;
}
probability ( "Request_URL" | "variable111" ) {
	table 3.2167923908133914E-7 0.30419356813475573 0.0 0.6824129439841082 0.7491141633418656 0.28024937049592474 1.0 0.9999996783207609 0.03624243018387141 1.0 0.26512956861952286 0.2030514093499037 2.571551887671388E-31 6.905406228259073E-47 2.8475403011319997E-22 0.6595640016813729 0.0 0.05245748739636901 0.04783442730823067 0.7197506295040752 8.46498308414259E-33;
}
probability ( "URL_of_Anchor" | "variable111" ) {
	table 0.7165529325253642 0.23563918938137499 0.0 0.866549773438393 0.7711550346464019 6.236327039604577E-12 0.46736665370531705 0.28344706747463566 0.07516300949509269 0.3223540040649935 1.972847360220437E-84 0.0995442301400137 0.12561559554092358 0.003699634713782297 5.749795361754545E-65 0.6891978011235323 0.6776459959350065 0.1334502265616071 0.12930073521358434 0.8743844044528402 0.5289337115809006;
}
probability ( "Result" | "variable111" ) {
	table 2.020559184987221E-132 2.3463056966658237E-110 0.11252619485549072 7.53928626907258E-48 0.17389466740418819 6.455560753641284E-65 0.24318051960068487 3.573853784382254E-114 0.3795825797464544 0.8874738051445092 1.0 0.7520126061036987 2.7355212139108167E-10 3.990619006705551E-94 1.0 0.6204174202535456 0.0 3.877196827173186E-84 0.07409272649211306 0.9999999997264479 0.7568194803993151;
}
probability ( "variable122" | "variable111" ) {
	table 0.15565565609365695 0.30662854909063497 0.41927068122466343 0.6014332356960601 0.5887520206278852 0.19021697306092525 0.036452472511648994 0.6351554596719181 0.693371450909365 0.4113993978272542 0.288134598258333 0.3102263391224502 0.6313092982818616 0.6549566569490388 0.20918888423442505 2.191884688717955E-27 0.16932992094808239 0.11043216604560695 0.1010216402496645 0.17847372865721334 0.30859087053931217;
}
probability ( "web_traffic" | "variable122" ) {
	table 0.6411767653672741 2.943582719407121E-7 0.7207093011691068 0.358823234632726 0.3536816680467814 0.27929069883089325 1.1007889682153755E-77 0.6463180375949465 5.477562839300533E-134;
}
probability ( "URL_Length" | "variable122" ) {
	table 1.3062740532195175E-5 0.29241431676518437 0.6888428081446412 0.5238404484248463 0.25695573519520915 0.08651681244500121 0.47614648883462146 0.4506299480396065 0.22464037941035755;
}
probability ( "age_of_domain" | "variable122" ) {
	table 0.25988178347356317 1.0 0.11235265885014484 0.7401182165264368 7.443690525343119E-64 0.8876473411498551;
}
probability ( "having_IP_Address" | "variable122" ) {
	table 1.0 0.8566648594240989 0.7519057984757527 1.720702782191905E-47 0.14333514057590116 0.24809420152424727;
}
