// ./temp\FinalBIModel.bif
// Produced by org.latlab at Fri Mar 05 17:57:30 CET 2021
network "HLCM4627" {
}

variable "variable134" {
	type discrete[2] { "state0" "state1" };
}

variable "URL_Length" {
	type discrete[3] { "s0" "s1" "s2" };
}

variable "having_IP_Address" {
	type discrete[2] { "s0" "s1" };
}

variable "variable132" {
	type discrete[2] { "state0" "state1" };
}

variable "web_traffic" {
	type discrete[3] { "s0" "s1" "s2" };
}

variable "age_of_domain" {
	type discrete[2] { "s0" "s1" };
}

variable "variable122" {
	type discrete[7] { "state0" "state1" "state2" "state3" "state4" "state5" "state6" };
}

variable "SFH" {
	type discrete[3] { "s0" "s1" "s2" };
}

variable "popUpWidnow" {
	type discrete[3] { "s0" "s1" "s2" };
}

variable "SSLfinal_State" {
	type discrete[3] { "s0" "s1" "s2" };
}

variable "Request_URL" {
	type discrete[3] { "s0" "s1" "s2" };
}

variable "URL_of_Anchor" {
	type discrete[3] { "s0" "s1" "s2" };
}

variable "Result" {
	type discrete[3] { "s0" "s1" "s2" };
}

probability ( "variable134"  ) {
	table 0.5160423982550439 0.483957601744956;
}
probability ( "URL_Length" | "variable134" ) {
	table 0.5297995195911328 1.945354112076586E-10 0.1708919682524023 0.48109702258707143 0.2993085121564648 0.5189029772183931;
}
probability ( "having_IP_Address" | "variable134" ) {
	table 0.778852452707129 0.9999999999999979 0.22114754729287092 2.0761419678027773E-15;
}
probability ( "variable132" | "variable122" ) {
	table 0.673836720609412 0.5117502232769111 0.378609630709718 0.9240120968757762 0.2816600764633503 0.7769285131090647 0.6205420602850518 0.3261632793905879 0.4882497767230889 0.6213903692902819 0.07598790312422385 0.7183399235366498 0.22307148689093526 0.3794579397149481;
}
probability ( "web_traffic" | "variable132" ) {
	table 0.003856997990627754 0.6771832874050334 0.3778893401293833 0.3228167125949666 0.6182536618799891 2.810318707410403E-74;
}
probability ( "age_of_domain" | "variable132" ) {
	table 1.0 0.18630663157565572 2.422304755124824E-44 0.8136933684243443;
}
probability ( "variable122" | "variable134" ) {
	table 0.43230494527950586 0.16308837579682253 0.10818729133790722 3.104036116787018E-16 0.056395417635681934 0.11424619004773263 0.0050156271338261 0.040456460151140544 0.12290804443146734 0.4435543975213732 0.05947403008730766 0.0846453056797032 0.21571464409430402 0.15400927080322757;
}
probability ( "SFH" | "variable122" ) {
	table 0.9717082482873308 0.5882352984807089 6.424396834242668E-66 0.0 0.10409148620867016 0.8391628903345868 0.8484253840213785 0.02285607621486196 0.411764701519291 8.479308350624257E-33 0.5555555555555556 0.8805263301368377 0.16083710966541312 0.15157461597862146 0.0054356754978072035 0.0 1.0 0.4444444444444444 0.015382183654492123 6.4699893635242E-79 0.0;
}
probability ( "popUpWidnow" | "variable122" ) {
	table 0.1282521465791745 0.4411764692293963 0.5434847606926927 0.4444444444444444 0.6410262353643926 0.9460756193990468 0.09835392565504338 0.6091889216762196 0.3382352944797595 0.45651523930730736 0.5555555555555556 0.35897376463560743 0.05392438060095314 0.6612564990934037 0.2625589317446059 0.2205882362908442 0.0 0.0 1.0922151565274107E-181 5.955176513576225E-40 0.240389575251553;
}
probability ( "SSLfinal_State" | "variable122" ) {
	table 0.826861905592026 0.8529411758970403 0.1940430475116424 3.0385902142606524E-156 0.28480726643376775 0.06834446504109408 0.8678671415425185 0.1090656280726706 0.14705882410295967 0.6411834145097434 8.581848323462207E-252 0.4338476364270226 2.0149555356855534E-27 0.06636786174572132 0.06407246633530336 5.418339725768647E-32 0.16477353797861435 1.0 0.2813450971392096 0.931655534958906 0.0657649967117601;
}
probability ( "Request_URL" | "variable122" ) {
	table 0.4107456690375062 1.0 0.0 0.37037037037037035 0.6753085475892068 0.42687126009320403 0.23375803614432117 2.041159655556968E-93 0.0 1.0 0.6296296296296297 0.24160999400037 0.10222093663607483 0.7662419638555458 0.5892543309624937 2.8907761893456794E-307 0.0 0.0 0.08308145841042326 0.470907803270721 1.3305230491429798E-13;
}
probability ( "URL_of_Anchor" | "variable122" ) {
	table 0.00729611932466659 0.5588235300676592 0.0 0.5555555555555556 0.8272439158056583 0.36404173844279936 0.7834498232828673 0.09431485472812655 0.05882352964513892 0.2622046567549379 0.4444444444444444 0.04604766129561445 0.11156398637907496 0.21655017671713273 0.8983890259472069 0.38235294028720185 0.7377953432450621 0.0 0.12670842289872716 0.5243942751781258 3.190088464713694E-67;
}
probability ( "Result" | "variable122" ) {
	table 6.389944044110053E-55 0.999999981376967 1.031625456678571E-56 1.0 7.463976304313971E-40 9.750155058886461E-86 7.405668290041247E-56 2.579190627261437E-22 3.32323363350175E-25 1.0 2.331593840384363E-41 0.9754611712558419 0.5707228557340261 7.804509495849169E-71 1.0 1.8623033083060965E-8 0.0 1.4655801605024884E-101 0.024538828744158123 0.4292771442659738 1.0;
}
