// ./temp\FinalBIModel.bif
// Produced by org.latlab at Fri Mar 05 17:59:44 CET 2021
network "HLCM3760" {
}

variable "SFH" {
	type discrete[3] { "s0" "s1" "s2" };
}

variable "popUpWidnow" {
	type discrete[3] { "s0" "s1" "s2" };
}

variable "SSLfinal_State" {
	type discrete[3] { "s0" "s1" "s2" };
}

variable "Request_URL" {
	type discrete[3] { "s0" "s1" "s2" };
}

variable "URL_of_Anchor" {
	type discrete[3] { "s0" "s1" "s2" };
}

variable "variable108" {
	type discrete[2] { "state0" "state1" };
}

variable "web_traffic" {
	type discrete[3] { "s0" "s1" "s2" };
}

variable "age_of_domain" {
	type discrete[2] { "s0" "s1" };
}

variable "URL_Length" {
	type discrete[3] { "s0" "s1" "s2" };
}

variable "having_IP_Address" {
	type discrete[2] { "s0" "s1" };
}

variable "Result" {
	type discrete[3] { "s0" "s1" "s2" };
}

variable "variable118" {
	type discrete[7] { "state0" "state1" "state2" "state3" "state4" "state5" "state6" };
}

variable "variable119" {
	type discrete[4] { "state0" "state1" "state2" "state3" };
}

probability ( "SFH" | "variable118" ) {
	table 0.8730013480439348 0.2535399068456062 0.9596563981011731 0.048037656050316006 0.9655015271635197 0.8131539009582521 2.877363959604214E-247 0.1269986519560651 0.7184015396685611 0.03487805897216396 0.951962343949684 0.03449847283648029 0.18684609904174795 1.245770215368224E-49 3.663988333182598E-189 0.028058553485832766 0.005465542926663009 8.199748952953907E-59 0.0 1.124575278643215E-292 1.0;
}
probability ( "popUpWidnow" | "variable118" ) {
	table 0.907980639343921 0.8954420997081791 0.126233146852955 0.5076641405304999 0.0876120284048364 0.09603054042713075 0.5441876994453021 0.092019360656079 0.10455790029182088 0.6073387903561615 0.4923358594695001 0.5853386329328841 0.6978332565605155 0.4558123005546979 7.095320379299551E-43 1.1359769259742247E-19 0.2664280627908836 1.4880170747344435E-87 0.3270493386622794 0.20613620301235372 0.0;
}
probability ( "SSLfinal_State" | "variable118" ) {
	table 4.597791332284843E-5 0.5874212964375809 0.8268408407396418 0.10274594549554077 0.8454904033112174 0.8640596424457722 0.18645566972200422 1.7095645420310338E-18 4.444539141222909E-12 0.11275338192614866 0.625482908820334 0.13700303161731076 0.04916592876262833 0.5292559237035024 0.9999540220866772 0.41257870355797455 0.060405777334209494 0.27177114568412525 0.01750656507147184 0.0867744287915995 0.28428840657449334;
}
probability ( "Request_URL" | "variable118" ) {
	table 0.4142506760839742 0.7385150076309385 0.38656861605279114 0.6871764328527897 0.9999999993943888 4.375378047074189E-5 0.0 2.583092147458288E-9 0.17356422233756041 5.0768175541404E-13 0.2328176563420616 6.056113149105709E-10 0.9980558059702807 1.0 0.5857493213329337 0.08792077003150109 0.6134313839467013 0.08000591080514875 4.969224516500671E-22 0.0019004402492486608 0.0;
}
probability ( "URL_of_Anchor" | "variable118" ) {
	table 0.27004208980899613 0.7437362393252593 0.009392997715582526 0.8556895613717177 0.7492994286467234 0.7473016989847382 0.0 0.11936004371658772 0.11586919065207876 0.10439688395984562 7.29980649632671E-46 2.9279004057112575E-67 0.2526983010152618 0.3250568541891872 0.6105978664744162 0.1403945700226618 0.8862101183245717 0.14431043862828224 0.2507005713532766 1.4371081686653058E-23 0.6749431458108127;
}
probability ( "variable108" | "variable118" ) {
	table 0.05672769037289187 0.7418449677184358 0.3421088351240255 0.6223724191229343 0.29782378437165175 0.36310527362594974 0.5946084121603109 0.9432723096271082 0.2581550322815643 0.6578911648759745 0.3776275808770656 0.7021762156283482 0.6368947263740502 0.40539158783968915;
}
probability ( "web_traffic" | "variable108" ) {
	table 0.6838554815891441 0.02298598732006993 0.3161445184108559 0.3647819069377209 6.7357371173737926E-80 0.6122321057422092;
}
probability ( "age_of_domain" | "variable108" ) {
	table 0.15209898009959053 1.0 0.8479010199004094 2.793621691938934E-43;
}
probability ( "URL_Length" | "variable119" ) {
	table 0.2937026825284398 0.8262830235984399 7.499822823096066E-8 0.9999999999999578 0.2620202020477642 0.08588453203250289 0.5050754438819023 1.154371899180117E-24 0.44427711542379605 0.08783244436905728 0.4949244811198694 4.224992816837241E-14;
}
probability ( "having_IP_Address" | "variable119" ) {
	table 0.8687566927327105 0.5261730187094029 1.0 0.8021731906248575 0.1312433072672895 0.473826981290597 7.031073952086542E-18 0.1978268093751425;
}
probability ( "Result" | "variable119" ) {
	table 0.006339706036385908 0.02984413723503322 0.08732299347209724 1.0 1.256199188730152E-15 0.9701558627649668 0.9124821223629775 2.648933100487536E-28 0.9936602939636128 1.9119793158524087E-61 1.948841649252571E-4 7.519798986432763E-21;
}
probability ( "variable118"  ) {
	table 0.05336062303171035 0.15176696800572645 0.30034191432877144 0.17405238633969777 0.08412274507594342 0.13552290832110328 0.10083245489704715;
}
probability ( "variable119" | "variable118" ) {
	table 0.5418965790308804 0.08398202382300382 0.9953152806162632 1.7776157629703743E-29 0.6647600164473788 1.0 3.06054156474301E-225 0.22324807256671758 0.10904843808846912 4.973179191470179E-9 0.16250369551012273 8.676877302573359E-98 9.228441320862638E-93 0.23208379656759207 0.23485534840240202 0.7276552120686116 0.004684372902029832 0.8374963044898328 8.746542701865983E-47 1.1464130631899497E-85 0.7679162034324079 1.9123243568415516E-114 0.0793143260199154 3.4150852776301887E-7 4.4453565003211104E-14 0.33523998355262113 4.856730269131852E-231 6.246580075645345E-32;
}
