// ./temp\FinalBIModel.bif
// Produced by org.latlab at Fri Mar 05 17:59:05 CET 2021
network "HLCM3933" {
}

variable "variable117" {
	type discrete[2] { "state0" "state1" };
}

variable "web_traffic" {
	type discrete[3] { "s0" "s1" "s2" };
}

variable "age_of_domain" {
	type discrete[2] { "s0" "s1" };
}

variable "variable107" {
	type discrete[6] { "state0" "state1" "state2" "state3" "state4" "state5" };
}

variable "SFH" {
	type discrete[3] { "s0" "s1" "s2" };
}

variable "popUpWidnow" {
	type discrete[3] { "s0" "s1" "s2" };
}

variable "SSLfinal_State" {
	type discrete[3] { "s0" "s1" "s2" };
}

variable "Request_URL" {
	type discrete[3] { "s0" "s1" "s2" };
}

variable "URL_of_Anchor" {
	type discrete[3] { "s0" "s1" "s2" };
}

variable "Result" {
	type discrete[3] { "s0" "s1" "s2" };
}

variable "variable119" {
	type discrete[2] { "state0" "state1" };
}

variable "URL_Length" {
	type discrete[3] { "s0" "s1" "s2" };
}

variable "having_IP_Address" {
	type discrete[2] { "s0" "s1" };
}

probability ( "variable117"  ) {
	table 0.45283937247933004 0.5471606275206701;
}
probability ( "web_traffic" | "variable117" ) {
	table 0.6730009893154126 0.02220851756254533 0.32699901068458725 0.38359091983012883 3.3596276355198577E-91 0.5942005626073258;
}
probability ( "age_of_domain" | "variable117" ) {
	table 0.1533080857339228 1.0 0.8466919142660773 1.8571965722401373E-30;
}
probability ( "variable107" | "variable117" ) {
	table 0.12884334896794344 0.07168979403126219 0.4154252261113165 0.19186864106882504 0.05437880591069169 0.051051003725857254 0.1367706596563142 0.20033092123607604 0.03683777537607233 0.11596517891289566 0.22774418397766177 0.36909446102508386;
}
probability ( "SFH" | "variable107" ) {
	table 4.0595714264536273E-75 0.10240604776385472 0.6053427960812167 0.8755554485268338 0.848897292701929 0.9711985125809744 2.830731489660515E-28 0.8831443975582702 0.39465720391878334 0.1244445514731662 0.151102707298071 0.02341977766667664 1.0 0.014449554677875022 0.0 0.0 2.590651119968035E-81 0.005381709752348961;
}
probability ( "popUpWidnow" | "variable107" ) {
	table 0.5713021789575768 0.6536717893462923 0.4407006416473293 0.09907683877679027 0.9221242752844782 0.12871448453811704 0.4286978210424232 0.3463282106537077 0.3718450492834985 0.6613094973127229 0.07787572471552183 0.6077352930897799 0.0 9.009567808113532E-166 0.18745430906917226 0.23961366391048686 2.691071662991648E-28 0.263550222372103;
}
probability ( "SSLfinal_State" | "variable107" ) {
	table 0.1847515132475598 0.2828747897602554 0.8510185293754939 0.8776285208757316 0.11261632806062363 0.8294276864034354 0.5547933607835711 0.3914132390152449 0.14883666593867817 0.06770389002012372 0.016322201438764963 0.11051115222261954 0.2604551259688691 0.32571197122449974 1.448046858278388E-4 0.05466758910414459 0.8710614705006113 0.06006116137394505;
}
probability ( "Request_URL" | "variable107" ) {
	table 0.0 0.7077470485809187 1.0 0.24845405385046948 0.392016614784331 0.4013605142706709 1.0 0.24174971757537522 5.85699740344385E-236 0.7515457260738404 0.10062440129029196 5.520369416589139E-22 0.0 0.05050323384370609 0.0 2.2007569003697347E-7 0.5073589839253771 0.598639485729329;
}
probability ( "URL_of_Anchor" | "variable107" ) {
	table 0.0 0.8698604199504816 0.5600768986499727 0.8005556713891329 0.3348856641160482 0.012506521899336646 0.3615256396949791 0.03615810348180752 0.06025877367557318 0.19944432861086703 0.11329862748619421 0.10371115088181616 0.6384743603050209 0.09398147656771087 0.3796643276744542 4.214876740853288E-18 0.5518157083977576 0.8837823272188472;
}
probability ( "Result" | "variable107" ) {
	table 0.10931956441028326 0.05320070475855056 0.9999999999990838 5.164967145076153E-41 3.1324849667502217E-69 2.620710811671266E-47 0.8906804355897168 0.9259259810088545 6.493676899632668E-19 2.8052491976137094E-64 0.5081236204030389 4.846238897039376E-17 0.0 0.020873314232595 9.161534110490572E-13 1.0 0.49187637959696107 1.0;
}
probability ( "variable119" | "variable107" ) {
	table 0.3503367499798174 0.20876500956225463 0.9999999998973882 0.5570720629107546 0.3391226504466634 0.6894064996748479 0.6496632500201825 0.7912349904377454 1.0261187641514073E-10 0.44292793708924544 0.6608773495533367 0.310593500325152;
}
probability ( "URL_Length" | "variable119" ) {
	table 0.5581577540087079 1.672310843024024E-8 0.16200806696586112 0.46680275126475357 0.279834179025431 0.5331972320121381;
}
probability ( "having_IP_Address" | "variable119" ) {
	table 0.7678620350022223 0.9999990294505453 0.23213796499777764 9.705494546402117E-7;
}
