// ./temp\FinalBIModel.bif
// Produced by org.latlab at Fri Mar 05 18:00:19 CET 2021
network "HLCM3571" {
}

variable "SFH" {
	type discrete[3] { "s0" "s1" "s2" };
}

variable "popUpWidnow" {
	type discrete[3] { "s0" "s1" "s2" };
}

variable "SSLfinal_State" {
	type discrete[3] { "s0" "s1" "s2" };
}

variable "Request_URL" {
	type discrete[3] { "s0" "s1" "s2" };
}

variable "URL_of_Anchor" {
	type discrete[3] { "s0" "s1" "s2" };
}

variable "URL_Length" {
	type discrete[3] { "s0" "s1" "s2" };
}

variable "having_IP_Address" {
	type discrete[2] { "s0" "s1" };
}

variable "Result" {
	type discrete[3] { "s0" "s1" "s2" };
}

variable "variable108" {
	type discrete[3] { "state0" "state1" "state2" };
}

variable "variable105" {
	type discrete[2] { "state0" "state1" };
}

variable "web_traffic" {
	type discrete[3] { "s0" "s1" "s2" };
}

variable "age_of_domain" {
	type discrete[2] { "s0" "s1" };
}

variable "variable114" {
	type discrete[6] { "state0" "state1" "state2" "state3" "state4" "state5" };
}

probability ( "SFH" | "variable114" ) {
	table 0.6644134162264244 0.8085773233699216 4.712907082867306E-45 0.03555206847015851 0.9725800175928239 0.963075910867211 0.335586574712424 0.1914226766300783 9.318344144534046E-32 0.9482121879374555 0.027419982407176146 0.028020825105153375 9.06115157206613E-9 1.0802792870221426E-190 1.0 0.01623574359238591 5.411673126495524E-153 0.008903264027635544;
}
probability ( "popUpWidnow" | "variable114" ) {
	table 0.9289921673305703 0.10051769264098984 0.5592456647422062 0.6149678161330273 0.10136520375900734 0.14882185704751166 0.07100783266942967 0.6583075663011283 0.4407543352577938 0.3850321838669727 0.5599299102054115 0.6325921062394849 1.3251118344833203E-17 0.24117474105788192 0.0 1.9721543751342266E-38 0.33870488603558113 0.21858603671300345;
}
probability ( "SSLfinal_State" | "variable114" ) {
	table 0.3571555811091042 0.8912277064565309 0.16088905629604755 0.2565529479081779 0.8557004389236096 0.7559230784084452 0.007278381880035838 0.04218818148617195 0.5849151829356076 0.45053148735924164 0.11715715077600905 0.12898268674631438 0.6355660370108599 0.06658411205729703 0.25419576076834477 0.29291556473258035 0.027142410300381305 0.11509423484524033;
}
probability ( "Request_URL" | "variable114" ) {
	table 0.5918445349253572 0.018941937584662238 0.0 0.7296830103152393 0.9999989023584241 0.0022832999754414406 0.12430696297251767 0.9810580624148181 1.0 0.22037555290981167 3.2337938224942117E-24 4.0760804368967046E-25 0.28384850210212514 5.195979292438108E-13 4.140759427100542E-157 0.049941436774949055 1.097641575866832E-6 0.9977167000245585;
}
probability ( "URL_of_Anchor" | "variable114" ) {
	table 0.49159791793575847 0.7120445371917561 0.0 0.8630268438547215 0.3138934504992096 0.016950059713579074 0.1369579110265912 0.28795546280824397 0.313723015977456 0.026924766283065397 1.3513492945642243E-34 0.1579773902177782 0.3714441710376504 2.1960919378484423E-39 0.686276984022544 0.11004838986221312 0.6861065495007905 0.8250725500686427;
}
probability ( "URL_Length" | "variable108" ) {
	table 0.909962851556562 0.30215992110520623 0.019104852451711205 2.2756166050581147E-10 0.2593214382229508 0.48965974964768133 0.09003714821587647 0.4385186406718431 0.4912353979006074;
}
probability ( "having_IP_Address" | "variable108" ) {
	table 0.6103991943554605 0.8695898923721789 0.9895234620555289 0.38960080564453947 0.1304101076278212 0.010476537944471105;
}
probability ( "Result" | "variable108" ) {
	table 0.441057878830087 9.608541396637227E-7 0.0746896572684395 0.5589421211699129 6.630375934730452E-32 0.9226464015519904 3.818638833502578E-43 0.9999990391458603 0.0026639411795701447;
}
probability ( "variable108" | "variable114" ) {
	table 0.1383334790284498 2.6401669383804398E-39 0.20643738038118925 0.14531865892101145 0.159396638472345 4.245956752784075E-32 0.30149806433810283 1.0 5.7125120823197735E-152 2.6188259834092424E-18 0.8406033615276549 0.9841228039788384 0.5601684566334474 6.125964256671248E-46 0.7935626196188107 0.8546813410789886 1.0506685944948196E-20 0.015877196021161593;
}
probability ( "variable105" | "variable108" ) {
	table 0.4693696925843829 0.35944447718479255 0.6537708322253318 0.5306303074156172 0.6405555228152074 0.34622916777466817;
}
probability ( "web_traffic" | "variable105" ) {
	table 0.6832554693015552 0.001515333522211556 0.31674453069844477 0.3773567578687525 2.258933550967441E-93 0.6211279086090359;
}
probability ( "age_of_domain" | "variable105" ) {
	table 0.18701968262026597 1.0 0.812980317379734 1.2930024322676872E-43;
}
probability ( "variable114"  ) {
	table 0.1305340884331904 0.13796877583819156 0.09699099989388255 0.2613727469161995 0.18824878328807296 0.18488460563046288;
}
