// ./temp\FinalBIModel.bif
// Produced by org.latlab at Fri Mar 05 17:55:00 CET 2021
network "HLCM4032" {
}

variable "variable123" {
	type discrete[3] { "state0" "state1" "state2" };
}

variable "web_traffic" {
	type discrete[3] { "s0" "s1" "s2" };
}

variable "URL_Length" {
	type discrete[3] { "s0" "s1" "s2" };
}

variable "age_of_domain" {
	type discrete[2] { "s0" "s1" };
}

variable "having_IP_Address" {
	type discrete[2] { "s0" "s1" };
}

variable "variable112" {
	type discrete[7] { "state0" "state1" "state2" "state3" "state4" "state5" "state6" };
}

variable "SFH" {
	type discrete[3] { "s0" "s1" "s2" };
}

variable "popUpWidnow" {
	type discrete[3] { "s0" "s1" "s2" };
}

variable "SSLfinal_State" {
	type discrete[3] { "s0" "s1" "s2" };
}

variable "Request_URL" {
	type discrete[3] { "s0" "s1" "s2" };
}

variable "URL_of_Anchor" {
	type discrete[3] { "s0" "s1" "s2" };
}

variable "Result" {
	type discrete[3] { "s0" "s1" "s2" };
}

probability ( "variable123"  ) {
	table 0.5124483017117186 0.14689783908575513 0.34065385920252617;
}
probability ( "web_traffic" | "variable123" ) {
	table 0.007331740951768118 0.6991345133215818 0.6491272988296045 0.3662283599889823 0.30086548667841817 0.3508727011703954 0.6264398990592496 1.171916707413745E-118 2.1060038004578458E-83;
}
probability ( "URL_Length" | "variable123" ) {
	table 0.2855532303215505 0.7755055682705272 3.3364293917177856E-5 0.2647677516032796 0.07874329427750598 0.510110345954049 0.44967901807516997 0.14575113745196672 0.4898562897520339;
}
probability ( "age_of_domain" | "variable123" ) {
	table 1.0 0.11787486065909443 0.21871300702070498 9.751743680542308E-60 0.8821251393409056 0.7812869929792949;
}
probability ( "having_IP_Address" | "variable123" ) {
	table 0.8603306844935065 0.6991770366363821 1.0 0.13966931550649356 0.30082296336361786 3.269971919479531E-29;
}
probability ( "variable112" | "variable123" ) {
	table 0.15979018494116404 0.16144371063070923 0.07903809628212244 0.11722235850138576 0.1475725650130122 0.31834230040012634 0.25616987398469315 0.26676001014007755 0.06460013776583133 0.2117169092994512 0.20239209084290483 0.11217968803861689 0.09531609160431596 3.998800876707479E-55 0.03292840712336884 0.08396792453857448 0.09850247928499584 0.26915898357117446 0.0758166571304154 0.12332914408830023 0.12375238681875968;
}
probability ( "SFH" | "variable112" ) {
	table 0.8280037115646292 0.21556288295484044 0.974776119448171 0.9529080784868865 0.8466228851922271 0.028520697732922227 1.6688414676386535E-103 0.17199628843537085 0.7617067253422704 0.02522388055182904 0.04244158813580134 0.15337711480777289 0.9714793022670778 8.587890557295397E-58 0.0 0.022730391702889173 0.0 0.004650333377312194 1.6117711918738654E-127 1.5873283928095304E-58 1.0;
}
probability ( "popUpWidnow" | "variable112" ) {
	table 0.0959004899426766 0.8195981483032184 0.11855064811069926 0.10249640663613334 0.8757863703928007 0.5282394142914102 0.5531307218763147 0.687131220984096 0.18040185169678163 0.5445813205524291 0.6554967676272712 0.12421362960719934 0.4717605857085898 0.44686927812368527 0.21696828907322746 9.384973211553295E-98 0.33686803133687154 0.24200682573659563 7.869407776744329E-34 0.0 0.0;
}
probability ( "SSLfinal_State" | "variable112" ) {
	table 0.8710855060772295 0.5992135296490572 0.8766258531059432 0.7798547986999524 2.106910104124443E-8 0.014299494665185753 0.17301425045837873 0.055828779366322405 5.1147141354687605E-20 0.11011248803146523 0.15597178570879697 0.031830464046470004 0.7612471885055099 0.5880646848629852 0.07308571455644809 0.40078647035094284 0.013261658862591546 0.06417341559125057 0.968169514884429 0.22445331682930442 0.2389210646786361;
}
probability ( "Request_URL" | "variable112" ) {
	table 0.0015082708293138818 0.7381229908825635 1.0 1.5251552262091975E-4 0.36892313901833773 0.7061760916201124 0.0 0.9984917291706861 0.19354828725742165 6.837319095301582E-33 2.918142788087597E-28 0.06725405880719741 0.23849282141447456 1.0 1.2428232629130515E-27 0.06832872186001487 5.509330456785285E-21 0.9998474844773791 0.5638228021744649 0.05533108696541285 0.0;
}
probability ( "URL_of_Anchor" | "variable112" ) {
	table 0.7307124430222989 0.7587588140159788 0.31304541845710304 0.009842887183367652 0.30402932117504217 0.8724765265562308 0.0 0.2692875569777011 0.09752741882809945 0.002184896878098975 0.1779758026013122 0.10007963237476214 2.2133991161245746E-87 0.30528956363436494 2.927697297819333E-39 0.14371376715592168 0.6847696846647979 0.8121813102153201 0.5958910464501957 0.12752347344376916 0.694710436365635;
}
probability ( "Result" | "variable112" ) {
	table 4.526800923700976E-134 0.19167003798535706 0.162154184434148 0.0 1.0261764514737473E-131 0.009277370610606912 0.07371487686439102 7.214455532265451E-107 0.7418740964585139 5.169665463891831E-96 0.01131312040108912 0.5037006439075746 0.990722629389393 0.9262851231356091 1.0 0.06645586555612908 0.837845815565852 0.9886868795989109 0.49629935609242537 4.794919966127993E-56 0.0;
}
