// ./temp\FinalBIModel.bif
// Produced by org.latlab at Fri Mar 05 17:55:49 CET 2021
network "HLCM4170" {
}

variable "variable123" {
	type discrete[2] { "state0" "state1" };
}

variable "web_traffic" {
	type discrete[3] { "s0" "s1" "s2" };
}

variable "age_of_domain" {
	type discrete[2] { "s0" "s1" };
}

variable "variable125" {
	type discrete[2] { "state0" "state1" };
}

variable "URL_Length" {
	type discrete[3] { "s0" "s1" "s2" };
}

variable "having_IP_Address" {
	type discrete[2] { "s0" "s1" };
}

variable "SFH" {
	type discrete[3] { "s0" "s1" "s2" };
}

variable "popUpWidnow" {
	type discrete[3] { "s0" "s1" "s2" };
}

variable "SSLfinal_State" {
	type discrete[3] { "s0" "s1" "s2" };
}

variable "Request_URL" {
	type discrete[3] { "s0" "s1" "s2" };
}

variable "URL_of_Anchor" {
	type discrete[3] { "s0" "s1" "s2" };
}

variable "Result" {
	type discrete[3] { "s0" "s1" "s2" };
}

variable "variable131" {
	type discrete[8] { "state0" "state1" "state2" "state3" "state4" "state5" "state6" "state7" };
}

probability ( "variable123"  ) {
	table 0.5382096142382946 0.4617903857617054;
}
probability ( "web_traffic" | "variable123" ) {
	table 0.020151733595036535 0.6823405677612733 0.374240038404332 0.3176594322387269 0.6056082280006314 4.429619072102699E-53;
}
probability ( "age_of_domain" | "variable123" ) {
	table 1.0 0.14482912553116958 1.9849018784755694E-29 0.8551708744688303;
}
probability ( "variable125" | "variable131" ) {
	table 0.08151695506490585 0.2442893704572655 0.7396542174159296 0.30138322036615556 1.0 0.5494835230201651 0.627979298020939 0.7212781531890579 0.9184830449350941 0.7557106295427345 0.26034578258407026 0.6986167796338445 9.888018032896267E-20 0.45051647697983477 0.372020701979061 0.2787218468109422;
}
probability ( "URL_Length" | "variable125" ) {
	table 3.09337210676585E-5 0.48372376623332186 0.4986943242349457 0.17706855890596895 0.5012747420439866 0.33920767486070913;
}
probability ( "having_IP_Address" | "variable125" ) {
	table 0.9999999999999941 0.7958492271225033 5.7924772293212044E-15 0.20415077287749678;
}
probability ( "SFH" | "variable131" ) {
	table 0.987333515783919 0.9515878630635801 0.04078377405861438 0.8241431121775289 0.0 0.8751180399461784 7.440965932302736E-58 0.22745740525953118 0.01266648421608088 0.038991766215440926 0.9592162259413857 0.17585688782247114 0.0 0.12488196005382148 7.791646196571254E-30 0.7584670688815747 1.4149894558887932E-284 0.009420370720978961 3.997497727479464E-39 0.0 1.0 2.8493680813997957E-81 1.0 0.014075525858894152;
}
probability ( "popUpWidnow" | "variable131" ) {
	table 0.11716619568649235 0.1334947540865751 0.561046987412953 0.09411184473097042 0.5383839188109927 0.8855903844234831 0.5562962180825152 0.8172923252483967 0.5688248601010979 0.6188369833165437 0.43895301258704694 0.6818093534985479 0.4616160811890074 0.11440961557651677 0.4437037819174847 0.18270767475160335 0.3140089442124097 0.24766826259688118 1.076185778668527E-261 0.22407880177048173 0.0 3.025548950532974E-24 0.0 3.240359777912869E-48;
}
probability ( "SSLfinal_State" | "variable131" ) {
	table 0.8729903665124507 0.7755598184773299 0.01308287385964278 0.8699933993199633 0.0 1.875762656530774E-6 0.1693084114983931 0.6180022401559339 0.10447149597772984 0.14727351466024408 0.7595543347416666 0.05451586782473059 0.0 1.1085804878550153E-19 0.651639537600377 3.1911184251552163E-6 0.022538137509819485 0.07716666686242601 0.22736279139869073 0.07549073285530596 1.0 0.9999981242373435 0.17905205090122991 0.3819945687256409;
}
probability ( "Request_URL" | "variable131" ) {
	table 0.9999999992366 0.011236125112324817 0.6608519046219684 0.015701716092154826 0.0 0.3783208971972682 0.0 0.7484345949080664 7.365565312477022E-22 3.1915621773704233E-22 0.261909407777237 0.984298283859133 1.0 0.06097837217711521 1.0 0.19264533075279489 7.634000813240704E-10 0.9887638748876751 0.07723868760079468 4.8712134059215776E-11 0.0 0.5607007306256165 0.0 0.05892007433913868;
}
probability ( "URL_of_Anchor" | "variable131" ) {
	table 0.3255942991864471 0.005460954676587411 0.8498166680021443 0.75450056166941 0.0 0.32179474098266875 0.0 0.7436766044042962 5.668552336533614E-9 0.1597275311775477 8.896066470897031E-67 0.24549943833058982 1.0 0.12079612750230102 0.25459196366128756 0.10825213666784697 0.6744056951450005 0.8348115141458649 0.15018333199785575 2.905294353527779E-26 0.0 0.5574091315150304 0.7454080363387124 0.14807125892785689;
}
probability ( "Result" | "variable131" ) {
	table 0.15946991272130479 2.4606112576106238E-80 0.00868942220175422 8.483131594667499E-66 1.0 1.175976048336439E-67 5.8170286026531605E-89 0.19282970745041253 8.501705223950038E-67 0.013535073366143499 0.9913105777982457 1.1459916398717733E-43 0.0 0.4816748220932255 1.0 0.7331582339015068 0.8405300872786953 0.9864649266338565 2.255866877633376E-31 1.0 0.0 0.5183251779067746 0.0 0.07401205864808072;
}
probability ( "variable131" | "variable123" ) {
	table 0.24990556946701534 0.1279267374436953 0.20675125005678277 0.1363880447795461 0.09124210008860201 0.2401099974833438 0.16173980543026611 0.10821501294742765 0.0165996367741586 0.003759173790403651 0.09947869696402134 0.004667562571981771 0.05756006798236712 0.12117090900808737 0.1167228732367867 0.25776256197551456;
}
