// ./temp\FinalBIModel.bif
// Produced by org.latlab at Fri Mar 05 17:56:35 CET 2021
network "HLCM4053" {
}

variable "variable122" {
	type discrete[3] { "state0" "state1" "state2" };
}

variable "web_traffic" {
	type discrete[3] { "s0" "s1" "s2" };
}

variable "URL_Length" {
	type discrete[3] { "s0" "s1" "s2" };
}

variable "age_of_domain" {
	type discrete[2] { "s0" "s1" };
}

variable "having_IP_Address" {
	type discrete[2] { "s0" "s1" };
}

variable "SFH" {
	type discrete[3] { "s0" "s1" "s2" };
}

variable "popUpWidnow" {
	type discrete[3] { "s0" "s1" "s2" };
}

variable "SSLfinal_State" {
	type discrete[3] { "s0" "s1" "s2" };
}

variable "Request_URL" {
	type discrete[3] { "s0" "s1" "s2" };
}

variable "URL_of_Anchor" {
	type discrete[3] { "s0" "s1" "s2" };
}

variable "Result" {
	type discrete[3] { "s0" "s1" "s2" };
}

variable "variable127" {
	type discrete[7] { "state0" "state1" "state2" "state3" "state4" "state5" "state6" };
}

probability ( "variable122"  ) {
	table 0.17259756284243685 0.31564384569941756 0.5117585914581455;
}
probability ( "web_traffic" | "variable122" ) {
	table 0.7135906328784294 0.6528378089402626 4.469786022588779E-9 0.2864093671215706 0.3471621910597375 0.37752874926832525 1.3946205963806478E-99 2.7257946479148194E-62 0.6224712462618888;
}
probability ( "URL_Length" | "variable122" ) {
	table 0.6335702560365171 1.0042108011154377E-5 0.30931779001415505 0.07056907905307162 0.5638753564649688 0.24446506806617033 0.29586066491041124 0.43611460142702013 0.44621714191967465;
}
probability ( "age_of_domain" | "variable122" ) {
	table 0.08415327107113194 0.22626105165077628 1.0 0.9158467289288681 0.7737389483492237 3.4380813033428517E-44;
}
probability ( "having_IP_Address" | "variable122" ) {
	table 0.7509992830161704 1.0 0.8545629379404701 0.2490007169838296 6.898601287977735E-38 0.1454370620595299;
}
probability ( "SFH" | "variable127" ) {
	table 0.022235696937257163 0.8329289207277704 2.4067750127741086E-66 0.9604620416937482 0.862987125787274 0.23647818355213804 0.9551459761770712 0.9777643030601757 0.16707107927222967 7.223233331921319E-47 0.0326339427431748 0.13701287421272593 0.7335586894483633 0.04485402382292877 2.5671060795755747E-12 0.0 1.0 0.00690401556307706 1.8493335104069013E-56 0.029963126999498615 0.0;
}
probability ( "popUpWidnow" | "variable127" ) {
	table 0.5349868523319067 0.08699385863890455 0.5440886338015533 0.13595646642750042 0.8399500523079061 0.8717405214604316 0.07863002160438937 0.4650131476680933 0.6723375296307171 0.45591136619844674 0.6299459635894434 0.1600499476919341 0.12825947853956846 0.558647372243005 1.676714777154927E-213 0.24066861173037832 0.0 0.2340975699830562 1.59835847129868E-13 7.9084197444402085E-84 0.3627226061526056;
}
probability ( "SSLfinal_State" | "variable127" ) {
	table 0.10404205381687281 0.8636045889134427 0.17805055586741647 0.8106082836500579 2.8598124887099044E-14 0.6618746073364185 0.8572684097530696 0.6166154185280378 0.05407142333210902 0.5702011434547106 0.1269972752698943 0.07121200270901791 3.483430235638148E-23 0.13311725101876812 0.27934252765508943 0.08232398775444823 0.2517483006778729 0.06239444108004779 0.9287879972909535 0.33812539266358155 0.009614339228162105;
}
probability ( "Request_URL" | "variable127" ) {
	table 0.6891414806715479 2.754657669467339E-5 0.0 0.283143834067304 0.3413481076187926 0.7729143880424177 1.0 0.2537326323698194 0.9999724534231369 1.0 8.406030575992225E-26 0.06501483105252018 0.16046044040244462 4.068693500166862E-36 0.05712588695863269 1.6847167894107812E-13 0.0 0.716856165932696 0.5936370613286872 0.06662517155513768 1.0040641332928643E-26;
}
probability ( "URL_of_Anchor" | "variable127" ) {
	table 0.8751738143383495 0.7471675634916309 0.0 0.00627304395814771 0.33134743144559375 0.704937526055408 0.49573085646908066 4.8376181731066086E-24 0.2528324365083692 0.33302650278802426 0.12339925186779593 0.09826246966502301 0.14040484091623764 0.004426375111022904 0.12482618566165045 1.813764593877132E-49 0.6669734972119759 0.8703277041740564 0.5703900988893832 0.1546576330283544 0.4998427684198964;
}
probability ( "Result" | "variable127" ) {
	table 0.03946933143731768 6.662381964219142E-95 0.1053998857479887 5.63703821673866E-51 4.304085109314778E-80 0.18993660015782204 0.2767035398709524 0.9605306685624391 1.5721099600946188E-79 0.8946001142520112 1.546671497294232E-4 0.5609230912463831 0.7262470988832079 7.50483124372227E-99 2.433214210449186E-13 1.0 0.0 0.9998453328502706 0.439076908753617 0.08381630095896987 0.7232964601290476;
}
probability ( "variable127" | "variable122" ) {
	table 0.12928479727865308 0.337238577873322 0.12510348174045335 0.1704498470405259 0.06166532138957949 0.17112844487068263 0.14412045048685973 0.11076072427409206 0.08002881294659818 0.24064810062815253 0.1395015514456349 0.2973373105222172 4.968779517241818E-29 0.06425398087423466 0.09378904624268274 0.09113297355606546 0.28657979822053986 0.0729198464586163 0.2243638310097433 4.592259717109817E-8 0.15969305721874968;
}
