// ./temp\FinalBIModel.bif
// Produced by org.latlab at Fri Mar 05 18:01:07 CET 2021
network "HLCM5747" {
}

variable "variable155" {
	type discrete[4] { "state0" "state1" "state2" "state3" };
}

variable "hair" {
	type discrete[2] { "s0" "s1" };
}

variable "feathers" {
	type discrete[2] { "s0" "s1" };
}

variable "eggs" {
	type discrete[2] { "s0" "s1" };
}

variable "milk" {
	type discrete[2] { "s0" "s1" };
}

variable "airborne" {
	type discrete[2] { "s0" "s1" };
}

variable "toothed" {
	type discrete[2] { "s0" "s1" };
}

variable "backbone" {
	type discrete[2] { "s0" "s1" };
}

variable "venomous" {
	type discrete[2] { "s0" "s1" };
}

variable "legs" {
	type discrete[6] { "s0" "s1" "s2" "s3" "s4" "s5" };
}

variable "tail" {
	type discrete[2] { "s0" "s1" };
}

variable "catsize" {
	type discrete[2] { "s0" "s1" };
}

variable "type" {
	type discrete[7] { "s0" "s1" "s2" "s3" "s4" "s5" "s6" };
}

variable "variable160" {
	type discrete[2] { "state0" "state1" };
}

variable "aquatic" {
	type discrete[2] { "s0" "s1" };
}

variable "predator" {
	type discrete[2] { "s0" "s1" };
}

variable "breathes" {
	type discrete[2] { "s0" "s1" };
}

variable "fins" {
	type discrete[2] { "s0" "s1" };
}

variable "domestic" {
	type discrete[2] { "s0" "s1" };
}

probability ( "variable155"  ) {
	table 0.4175824175824176 0.17582417582417584 0.1978021978021978 0.2087912087912088;
}
probability ( "hair" | "variable155" ) {
	table 0.0 0.75 1.0 1.0 1.0 0.25 0.0 0.0;
}
probability ( "feathers" | "variable155" ) {
	table 1.0 1.0 0.0 1.0 0.0 0.0 1.0 0.0;
}
probability ( "eggs" | "variable155" ) {
	table 0.9736842105263158 0.0625 0.0 0.05263157894736842 0.02631578947368421 0.9375 1.0 0.9473684210526315;
}
probability ( "milk" | "variable155" ) {
	table 0.0 1.0 1.0 1.0 1.0 0.0 0.0 0.0;
}
probability ( "airborne" | "variable155" ) {
	table 0.9736842105263158 0.625 0.2222222222222222 1.0 0.02631578947368421 0.375 0.7777777777777778 0.0;
}
probability ( "toothed" | "variable155" ) {
	table 0.02631578947368421 1.0 1.0 0.05263157894736842 0.9736842105263158 0.0 0.0 0.9473684210526315;
}
probability ( "backbone" | "variable155" ) {
	table 0.0 1.0 0.0 0.0 1.0 0.0 1.0 1.0;
}
probability ( "venomous" | "variable155" ) {
	table 1.0 0.75 1.0 0.8421052631578947 0.0 0.25 0.0 0.15789473684210525;
}
probability ( "legs" | "variable155" ) {
	table 0.02631578947368421 0.25 0.0 0.7894736842105263 0.15789473684210525 0.0 1.0 0.0 0.8157894736842105 0.0625 0.0 0.21052631578947367 0.0 0.0625 0.0 0.0 0.0 0.5 0.0 0.0 0.0 0.125 0.0 0.0;
}
probability ( "tail" | "variable155" ) {
	table 0.15789473684210525 0.9375 0.0 0.05263157894736842 0.8421052631578947 0.0625 1.0 0.9473684210526315;
}
probability ( "catsize" | "variable155" ) {
	table 0.21052631578947367 0.9375 0.7222222222222222 0.7894736842105263 0.7894736842105263 0.0625 0.2777777777777778 0.21052631578947367;
}
probability ( "type" | "variable155" ) {
	table 1.0 0.0 0.0 0.0 0.0 0.0 1.0 0.0 0.0 0.0 0.0 0.2631578947368421 0.0 0.0 0.0 0.631578947368421 0.0 0.0 0.0 0.10526315789473684 0.0 0.375 0.0 0.0 0.0 0.625 0.0 0.0;
}
probability ( "variable160" | "variable155" ) {
	table 0.9450353112009832 0.5617033823266305 1.0 0.26193882200723034 0.05496468879901693 0.4382966176733694 5.101710347537198E-21 0.7380611779927696;
}
probability ( "aquatic" | "variable160" ) {
	table 0.8830797866600302 0.04586363226709838 0.11692021333996981 0.9541363677329016;
}
probability ( "predator" | "variable160" ) {
	table 0.5257839875316371 0.1864763128957894 0.4742160124683629 0.8135236871042106;
}
probability ( "breathes" | "variable160" ) {
	table 2.719519882437978E-11 0.8648810800804664 0.9999999999728048 0.13511891991953356;
}
probability ( "fins" | "variable160" ) {
	table 1.0 0.3945832438877968 1.5118793539861248E-20 0.6054167561122031;
}
probability ( "domestic" | "variable155" ) {
	table 0.7894736842105263 0.9375 0.8333333333333334 0.9473684210526315 0.21052631578947367 0.0625 0.16666666666666666 0.05263157894736842;
}
