network "HLCM18468" {
}

variable "hair" {
	type discrete[2] { "0" "1" };
}

variable "feathers" {
	type discrete[2] { "0" "1" };
}

variable "eggs" {
	type discrete[2] { "0" "1" };
}

variable "milk" {
	type discrete[2] { "0" "1" };
}

variable "airborne" {
	type discrete[2] { "0" "1" };
}

variable "aquatic" {
	type discrete[2] { "0" "1" };
}

variable "predator" {
	type discrete[2] { "0" "1" };
}

variable "toothed" {
	type discrete[2] { "0" "1" };
}

variable "backbone" {
	type discrete[2] { "0" "1" };
}

variable "breathes" {
	type discrete[2] { "0" "1" };
}

variable "venomous" {
	type discrete[2] { "0" "1" };
}

variable "fins" {
	type discrete[2] { "0" "1" };
}

variable "legs" {
	type discrete[6] { "0" "1" "2" "3" "4" "5" };
}

variable "tail" {
	type discrete[2] { "0" "1" };
}

variable "domestic" {
	type discrete[2] { "0" "1" };
}

variable "catsize" {
	type discrete[2] { "0" "1" };
}

variable "type" {
	type discrete[7] { "0" "1" "2" "3" "4" "5" "6" };
}

variable "variable19" {
	type discrete[2] { "state0" "state1" };
}

variable "variable31" {
	type discrete[3] { "state0" "state1" "state2" };
}

variable "variable45" {
	type discrete[2] { "state0" "state1" };
}

variable "variable50" {
	type discrete[3] { "state0" "state1" "state2" };
}

probability ("hair" | "variable45") {
	("state0") 5.767466747184369E-209 1.0;
	("state1") 1.0 2.738576605756816E-240;
}

probability ("feathers" | "variable31") {
	("state0") 1.0 0.0;
	("state1") 1.0 0.0;
	("state2") 0.0 1.0;
}

probability ("eggs" | "variable50") {
	("state0") 0.058823529411764705 0.9411764705882353;
	("state1") 0.027777777777777776 0.9722222222222222;
	("state2") 0.9736842105263158 0.02631578947368421;
}

probability ("milk" | "variable50") {
	("state0") 1.0 0.0;
	("state1") 1.0 0.0;
	("state2") 0.0 1.0;
}

probability ("airborne" | "variable31") {
	("state0") 0.9655172413793104 0.034482758620689655;
	("state1") 0.6470588235294118 0.35294117647058826;
	("state2") 0.125 0.875;
}

probability ("aquatic" | "variable19") {
	("state0") 0.9942124454530802 0.0057875545469197875;
	("state1") 0.03933890531859428 0.9606610946814056;
}

probability ("predator" | "variable19") {
	("state0") 0.6047880756154654 0.39521192438453456;
	("state1") 0.20929582190250107 0.7907041780974988;
}

probability ("toothed" | "variable31") {
	("state0") 0.034482758620689655 0.9655172413793104;
	("state1") 1.0 0.0;
	("state2") 1.0 0.0;
}

probability ("backbone" | "variable31") {
	("state0") 0.0 1.0;
	("state1") 1.0 0.0;
	("state2") 0.0 1.0;
}

probability ("breathes" | "variable19") {
	("state0") 3.77247329905893E-126 1.0;
	("state1") 0.6067826081240618 0.393217391875938;
}

probability ("venomous" | "variable50") {
	("state0") 0.7647058823529411 0.23529411764705882;
	("state1") 0.9166666666666666 0.08333333333333333;
	("state2") 1.0 0.0;
}

probability ("fins" | "variable19") {
	("state0") 1.0 0.0;
	("state1") 0.4842347830945473 0.5157652169054527;
}

probability ("legs" | "variable31") {
	("state0") 0.3103448275862069 0.1206896551724138 0.5689655172413793 0.0 0.0 0.0;
	("state1") 0.23529411764705882 0.0 0.058823529411764705 0.058823529411764705 0.5882352941176471 0.058823529411764705;
	("state2") 0.0 1.0 0.0 0.0 0.0 0.0;
}

probability ("tail" | "variable31") {
	("state0") 0.15517241379310345 0.8448275862068966;
	("state1") 0.9411764705882353 0.058823529411764705;
	("state2") 0.0 1.0;
}

probability ("domestic" | "variable19") {
	("state0") 0.793281425475678 0.20671857452432194;
	("state1") 0.9695939530739193 0.030406046926080864;
}

probability ("catsize" | "variable50") {
	("state0") 1.0 0.0;
	("state1") 0.75 0.25;
	("state2") 0.18421052631578946 0.8157894736842105;
}

probability ("type" | "variable50") {
	("state0") 0.0 0.0 0.0 0.0 0.0 0.47058823529411764 0.5294117647058824;
	("state1") 0.0 0.4444444444444444 0.1111111111111111 0.3611111111111111 0.08333333333333333 0.0 0.0;
	("state2") 1.0 0.0 0.0 0.0 0.0 0.0 0.0;
}

probability ("variable19" | "variable45") {
	("state0") 0.9280341847767325 0.07196581522326756;
	("state1") 0.4101548792801411 0.5898451207198588;
}

probability ("variable31") {
	table 0.6373626373626373 0.18681318681318682 0.17582417582417584;
}

probability ("variable45" | "variable50") {
	("state0") 0.23529411764705882 0.7647058823529411;
	("state1") 0.0 1.0;
	("state2") 0.9473684210526315 0.05263157894736842;
}

probability ("variable50" | "variable31") {
	("state0") 0.0 0.3448275862068966 0.6551724137931034;
	("state1") 1.0 0.0 0.0;
	("state2") 0.0 1.0 0.0;
}

