network "HLCM19800" {
}

variable "hair" {
	type discrete[2] { "0" "1" };
}

variable "feathers" {
	type discrete[2] { "0" "1" };
}

variable "eggs" {
	type discrete[2] { "0" "1" };
}

variable "milk" {
	type discrete[2] { "0" "1" };
}

variable "airborne" {
	type discrete[2] { "0" "1" };
}

variable "aquatic" {
	type discrete[2] { "0" "1" };
}

variable "predator" {
	type discrete[2] { "0" "1" };
}

variable "toothed" {
	type discrete[2] { "0" "1" };
}

variable "backbone" {
	type discrete[2] { "0" "1" };
}

variable "breathes" {
	type discrete[2] { "0" "1" };
}

variable "venomous" {
	type discrete[2] { "0" "1" };
}

variable "fins" {
	type discrete[2] { "0" "1" };
}

variable "legs" {
	type discrete[6] { "0" "1" "2" "3" "4" "5" };
}

variable "tail" {
	type discrete[2] { "0" "1" };
}

variable "domestic" {
	type discrete[2] { "0" "1" };
}

variable "catsize" {
	type discrete[2] { "0" "1" };
}

variable "type" {
	type discrete[7] { "0" "1" "2" "3" "4" "5" "6" };
}

variable "variable23" {
	type discrete[2] { "state0" "state1" };
}

variable "variable30" {
	type discrete[3] { "state0" "state1" "state2" };
}

variable "variable49" {
	type discrete[3] { "state0" "state1" "state2" };
}

variable "variable59" {
	type discrete[2] { "state0" "state1" };
}

probability ("hair" | "variable49") {
	("state0") 1.0 0.0;
	("state1") 0.058823529411764705 0.9411764705882353;
	("state2") 0.8918918918918919 0.10810810810810811;
}

probability ("feathers" | "variable30") {
	("state0") 0.0 1.0;
	("state1") 1.0 0.0;
	("state2") 1.0 0.0;
}

probability ("eggs" | "variable49") {
	("state0") 0.0 1.0;
	("state1") 0.9705882352941176 0.029411764705882353;
	("state2") 0.05405405405405406 0.9459459459459459;
}

probability ("milk" | "variable49") {
	("state0") 1.0 0.0;
	("state1") 0.0 1.0;
	("state2") 1.0 0.0;
}

probability ("airborne" | "variable30") {
	("state0") 0.2 0.8;
	("state1") 0.6666666666666666 0.3333333333333333;
	("state2") 0.9622641509433962 0.03773584905660377;
}

probability ("aquatic" | "variable59") {
	("state0") 0.04239158984497559 0.9576084101550243;
	("state1") 0.9624764126700509 0.03752358732994908;
}

probability ("predator" | "variable59") {
	("state0") 0.17507015721087157 0.8249298427891284;
	("state1") 0.6690565569609648 0.3309434430390352;
}

probability ("toothed" | "variable30") {
	("state0") 1.0 0.0;
	("state1") 1.0 0.0;
	("state2") 0.03773584905660377 0.9622641509433962;
}

probability ("backbone" | "variable30") {
	("state0") 0.0 1.0;
	("state1") 1.0 5.0628904994468265E-199;
	("state2") 0.0 1.0;
}

probability ("breathes" | "variable23") {
	("state0") 0.9999999813399348 1.8660065183586206E-8;
	("state1") 5.380853701951755E-141 1.0;
}

probability ("venomous" | "variable49") {
	("state0") 1.0 0.0;
	("state1") 1.0 0.0;
	("state2") 0.7837837837837838 0.21621621621621623;
}

probability ("fins" | "variable59") {
	("state0") 0.5646093092486999 0.4353906907513001;
	("state1") 1.0 0.0;
}

probability ("legs" | "variable30") {
	("state0") 0.0 1.0 0.0 0.0 0.0 0.0;
	("state1") 0.2222222222222222 0.0 0.05555555555555555 0.05555555555555555 0.5555555555555556 0.1111111111111111;
	("state2") 0.3018867924528302 0.1320754716981132 0.5660377358490566 0.0 0.0 0.0;
}

probability ("tail" | "variable30") {
	("state0") 0.0 1.0;
	("state1") 0.9444444444444444 0.05555555555555555;
	("state2") 0.16981132075471697 0.8301886792452831;
}

probability ("domestic" | "variable59") {
	("state0") 0.9686837041927019 0.031316295807298125;
	("state1") 0.7961928898517423 0.2038071101482577;
}

probability ("catsize" | "variable49") {
	("state0") 0.7 0.3;
	("state1") 0.2647058823529412 0.7352941176470589;
	("state2") 0.8378378378378378 0.16216216216216217;
}

probability ("type" | "variable49") {
	("state0") 0.0 1.0 0.0 0.0 0.0 0.0 0.0;
	("state1") 1.0 0.0 0.0 0.0 0.0 0.0 0.0;
	("state2") 0.0 0.0 0.13513513513513514 0.2702702702702703 0.10810810810810811 0.21621621621621623 0.2702702702702703;
}

probability ("variable23" | "variable49") {
	("state0") 0.0 1.0;
	("state1") 0.0 1.0;
	("state2") 0.4864864955643563 0.5135135044356438;
}

probability ("variable30") {
	table 0.21978021978021978 0.1978021978021978 0.5824175824175825;
}

probability ("variable49" | "variable30") {
	("state0") 1.0 0.0 0.0;
	("state1") 0.0 0.0 1.0;
	("state2") 0.0 0.6415094339622641 0.3584905660377358;
}

probability ("variable59" | "variable23") {
	("state0") 1.0 7.14654874331103E-26;
	("state1") 0.19390449409675914 0.8060955059032409;
}

